svm_type c_svc
kernel_type rbf
gamma 3.6e-05
nr_class 21
total_sv 5684
rho 10.8243 -4.75059 9.74803 3.82867 2.09941 -2.15554 -4.44819 35.6065 8.96475 -8.7016 3.68743 5.20688 2.02866 17.7125 13.9936 7.04039 -11.6352 4.3097 7.60797 -4.29634 -15.5516 1.97188 -7.89874 -7.94017 -20.7825 -30.6582 35.4461 2.16767 -37.399 -11.1191 -8.09372 -13.4169 13.2787 3.61096 6.86276 -34.5957 -11.2551 -3.74319 -20.9296 16.6577 9.20325 4.80946 2.98463 1.93081 44.3245 14.9331 -2.29232 7.00113 9.23546 6.39724 20.5426 18.0799 17.1433 -0.00689612 9.33925 10.2625 4.93319 -6.33786 -9.29576 -15.7256 -17.9652 24.3275 0.702367 -18.8211 -8.4306 -4.84941 -8.84352 7.57675 2.0351 4.6929 -23.2565 -7.5189 -3.12668 -17.4634 -2.12535 -15.5677 -9.66123 31.4915 6.05885 -12.3981 -2.09416 1.10499 -3.35495 14.4217 9.54788 9.87939 -20.5453 0.675962 1.73283 -6.57684 -4.1704 -7.59927 31.4161 8.00895 -10.4244 -0.0411732 3.22458 -2.12877 14.5359 11.9756 12.1311 -13.2268 0.8467 3.38541 -3.63228 -3.86794 41.2716 17.9337 -4.22305 5.29135 9.78075 2.48312 26.1146 18.5905 20.2176 -15.2952 5.47457 8.90467 2.66819 50.3977 20.0409 0.175175 7.65857 11.4023 4.10133 31.9305 18.8771 24.8228 -7.18912 9.92533 15.444 5.73091 -25.4574 -47.1599 -31.8794 -33.301 -34.7199 -20.4559 -22.1441 -22.509 -49.0009 -34.1972 -28.7078 -40.9948 -22.3437 -7.62691 -6.06179 -8.79543 7.03772 3.63218 2.66918 -21.6885 -7.23181 -3.48087 -15.3732 6.42688 14.6816 9.51086 40.7581 19.5606 25.0468 -5.46775 14.832 11.397 3.68844 3.95237 0.00347288 15.614 12.805 11.0357 -10.9794 2.57681 4.55502 -3.60728 -9.38684 12.6068 9.09839 12.3847 -20.5637 -0.156347 2.62672 -7.59705 16.9114 12.0314 12.9767 -18.165 1.83738 6.62977 -4.00823 -4.60861 -2.8351 -32.9998 -15.9145 -11.7553 -25.7398 0.290488 -19.1312 -10.6025 -6.48413 -17.9913 -27.4513 -11.657 -7.88781 -19.9386 23.4832 17.8941 7.11594 5.28513 -7.30795 -10.2644
label 1 2 3 4 5 6 7 8 9 10 11 12 13 14 15 16 17 18 19 20 21
nr_sv 222 156 231 247 388 184 387 380 116 191 422 204 232 341 176 232 224 454 346 167 384
SV
0 238.0289084257697 0 0 0 0 0 0 0 1107.338077700923 0 0 0 0 0 0 0 0 0 0 2809:0.8417 9073:0.1264 17168:0.2836 18010:0.0837 18273:0.0776 18326:0.076 18335:0.0757 18345:0.0753 18373:0.0743 18402:0.0732 18478:0.0696 18532:0.1998 18647:0.0259 
3726.530849831663 1908.580083783454 1429.102690795122 6015.134712805119 5858.737481885079 6579.330789637009 6110.378813205823 1492.736003339086 5071.472190958323 10420.37499256146 7645.779016332497 5251.032016599373 7219.682492888394 1032.840299611847 2999.589146203183 0 5628.402132935328 7096.786377829582 4329.632191078863 8645.199744189942 8270:0.1224 8797:0.1192 9045:0.1192 11148:0.1144 11848:0.1125 12082:0.1125 12453:0.1108 12785:0.1108 13172:0.2186 13624:0.1079 13945:0.1067 14273:0.1055 15911:0.098 15931:0.098 17038:0.2706 17086:0.0898 17187:0.0888 17562:0.0849 17587:0.0844 17692:0.0834 17704:0.0832 17954:0.0798 18345:0.071 18580:0.0589 18647:0.0244 
18189.6061198131 22038.69474404979 12456.20004561407 28934.75082583959 15212.18572307125 30736.15695449094 26123.72576969413 0 15085.31253736751 23485.05867444329 26956.54572299563 23129.41935671118 17432.43847871631 9720.608823156352 10469.7570883696 6447.594597179143 44775.84904410562 20239.8877602986 12896.14073829919 989.868754175207 7348:0.2254 13545:0.1988 16902:0.3367 18133:0.1407 18160:0.1397 18518:0.117 
6365.103130623347 0 860.0997149498122 13420.16909579341 3673.404330016388 18599.15268559018 0 0 6310.863607335813 17633.90141536775 948.9388988305307 3809.901197812147 12174.27248141027 6885.249567276899 6184.329173811648 0 24774.42161090413 16300.66154641443 3142.375334820059 9981.792864052804 3507:0.123 5773:0.123 12405:0.1077 14062:0.1037 15102:0.0989 16008:0.4734 16185:0.0935 17086:0.0873 17210:0.0863 17268:0.0857 17546:0.0826 17704:0.0809 18191:0.0732 18373:0.0681 18496:0.0629 18571:0.1741 18613:0.0523 18639:0.0767 18647:0.0237 
0 0 0 0 4686.002818558411 1107.378820675841 0 0 317.2052283840002 0 3004.997801393085 3039.672087946953 0 392.1160860256481 1797.427101760887 20192.43104023923 0 0 0 0 12450:0.3102 15153:0.5695 15186:0.2848 17919:0.4497 17959:0.2233 18232:0.2083 18351:0.1979 18504:0.1795 18632:0.1361 
97384.93402397605 150000 90552.54013634387 103978.3156253065 90827.71227052138 133652.235220179 150000 49795.33830740979 92372.5790733662 121357.1071383079 150000 102905.8941506373 98643.88484359634 84674.88598645941 96544.28209995815 106208.8148871927 150000 103132.1704557107 92007.20563964744 117937.7622729651 16267:0.0788 17079:0.074 17470:0.1417 17974:0.0654 18352:0.0581 18357:0.1161 18485:0.0538 18538:0.1031 18637:0.0371 18646:0.0203 18647:0.0201 
30435.77698438159 72490.31053476456 23146.02500451066 12042.52855362924 19041.34747412014 38336.99363778532 50653.50719835057 31120.35516682769 26085.06698911333 47844.05512217656 17302.53591501171 35389.33107905008 32722.37928647486 17370.28220039769 11494.19563086279 768.7036482091804 76962.49640437626 27809.01892518192 30044.60595202538 42219.95035150138 12440:0.1804 15153:0.1656 15516:0.163 17079:0.1462 18611:0.0878 18637:0.0733 18646:0.0402 18647:0.0397 
0 695.152595709566 0 1644.946298723861 0 0 0 0 0 0 0 0 0 0 0 49.00198251076694 0 0 0 0 11251:0.2859 11707:0.2859 13355:0.2732 13384:0.2732 13437:0.5396 14816:0.5174 14983:0.2564 15824:0.2467 16312:0.2391 16730:0.4633 17027:0.2255 17667:0.2092 18518:0.3176 
71016.09430796097 94983.34459396917 61120.06406431857 66084.14502585317 62250.14815295314 89203.6013055364 100587.3850709963 32369.20908746236 38146.4654717147 90331.43896704626 65024.89913209662 82358.6539071149 105360.6497723107 49747.53863962566 56713.54235859774 71869.92250454596 150000 81634.87217249216 61425.80392962063 104270.3409548784 9074:0.139 15291:0.1177 17937:0.0935 17954:0.1861 18229:0.0869 18523:0.0738 18562:0.0708 18646:0.0288 18647:0.0284 
0 0 0 20664.80022838787 0 0 32733.17832545725 0 0 3941.589943845016 0 0 1134.17276276311 0 0 0 0 11888.96145766427 0 20627.81433434924 8417:0.1368 15153:0.2334 16427:0.2171 18434:0.0778 18555:0.281 18637:0.0516 18639:0.0905 18647:0.028 
0 0 0 0 0 0 0 0 0 0 0 0 0 0 0 0 3159.69249200967 0 0 7245.864306760994 4039:0.1526 13945:0.2575 17147:0.1076 17180:0.1071 18160:0.183 18173:0.0912 18518:0.1533 18580:0.0711 18646:0.0298 18647:0.0294 
63698.12634536117 109733.9734061574 53768.79678883872 49317.67457581763 54713.28883176221 73164.01934056704 100782.9378266939 38194.50988886072 54692.24020859865 86102.99035321051 53943.79842208824 66966.58350885138 65754.94933328932 49663.4841015542 40415.72779362679 51389.54811369849 110290.6351089382 63330.30593913951 66052.88405488705 84101.95929719362 13834:0.2263 17098:0.1898 17143:0.1891 18637:0.0955 18646:0.0524 18647:0.0517 
957.8683149043218 0 1005.077357353072 671.9816723663714 679.5886317103094 900.9803449678532 174.762866291431 0 0 2886.998612206698 812.0252542563537 1716.806108231685 910.8473238807911 0 301.0680990687375 0 3379.794787355441 1410.714213443266 0 0 3352:0.233 3379:0.233 3675:0.233 4158:0.233 4236:0.233 4829:0.233 5090:0.233 8543:0.2195 9181:0.2195 11889:0.2072 13834:0.393 17794:0.1513 18043:0.1444 18646:0.0455 18647:0.0449 
150000 150000 150000 150000 150000 150000 150000 91237.35326630362 141638.2082634351 150000 150000 150000 150000 146880.3495612489 150000 150000 150000 150000 150000 150000 15516:0.1402 17904:0.113 18160:0.1062 18585:0.0816 18646:0.0346 18647:0.0341 
25408.04598947231 37909.35707169151 13988.85638089325 18679.66807110091 34457.20550530034 27866.71906125675 49079.42091115592 13022.66592711263 59291.36309270888 56841.65253594267 37534.13711290921 26293.1366316432 35907.01888768405 14607.5708059479 36641.9363447854 19444.76211971188 75356.97011789787 35250.36016554286 20548.86403526983 90688.74475779018 6883:0.1904 18229:0.1159 18325:0.1117 18404:0.1072 18465:0.1031 18471:0.2051 18646:0.0384 18647:0.0379 
69614.67249530253 79932.02852796044 61116.92343881974 72917.08544462139 58988.79548050759 88721.80489640303 80849.71305238114 36694.49071466438 53412.89052160596 79875.01056534373 76950.17946096299 78584.01127021437 117581.358566182 50157.54573193594 70062.88618391048 61189.32705142623 102457.5007387624 72377.95131860548 52628.1985701855 85621.51364464275 9762:0.1669 12421:0.1551 14586:0.1463 15338:0.1412 18405:0.0962 18482:0.0917 18575:0.0832 
0 0 0 0 0 0 3996.291474210738 0 0 0 0 0 0 0 0 0 0 0 0 0 5281:0.4919 11499:0.2224 11615:0.4448 14568:0.2031 15708:0.1919 18191:0.1464 18351:0.1375 18555:0.1191 18646:0.048 18647:0.0474 
16624.25093350029 9461.767896841597 29140.09281897195 7496.955537870209 9617.967643138629 14301.14190636163 31134.72091912648 14756.595968727 12314.88371749258 19444.89294224115 6955.254821421297 15563.52205337366 13575.95574987071 15210.15351239354 5257.168060625218 19241.10449613506 27002.03670291724 12375.7911662614 15265.84619334111 5329.703284512926 3495:0.227 4898:0.227 6090:0.2196 6117:0.2196 12795:0.1988 13136:0.1961 18563:0.2177 18610:0.1946 18637:0.0808 18646:0.0443 18647:0.0438 
0 11769.63322031249 0 0 0 0 0 0 0 0 0 0 0 0 0 0 0 0 0 10044.75284523331 3495:0.3849 4898:0.3849 6090:0.3724 6117:0.3724 13136:0.3326 18563:0.1846 18610:0.165 18637:0.137 18646:0.0752 
0 1691.721488555829 0 0 0 0 0 0 0 3330.457213220223 0 24491.19785084216 0 0 0 0 0 0 36983.43432173759 9944.455311054715 14260:0.2111 16631:0.3725 18191:0.1506 18325:0.1436 18351:0.2828 18593:0.1154 18605:0.1103 18614:0.2135 
701.0989668398109 0 0 1745.782707630956 617.5672637759731 1333.573375778959 0 0 736.0755627655024 0 1147.260524630941 1455.78735925936 0 736.4352779157157 0 308.676687214166 0 105.0537830161327 0 0 4517:1.0118 10361:0.2332 10400:0.9326 10437:0.2332 14225:0.2111 14302:0.2111 17440:0.1726 17526:0.1704 18191:0.1506 18465:0.1325 
3806.923821155247 20177.95970747388 11899.65635777924 7593.477901220037 0 11255.48177588815 2407.595185841344 10840.61297523133 5449.981288101189 10801.561566168 9817.92874677649 3539.558669696831 18.28347127876791 3406.714907921023 14512.71403129545 0 8079.101218275493 0 5677.285009182243 13250.99437487117 9149:0.194 11377:0.1862 14024:0.3473 15223:0.1656 17819:0.133 18284:0.1186 18357:0.1148 18496:0.1053 18532:0.1022 18646:0.0402 
257.0312613790491 2021.104342366592 0 0 0 880.7105998487422 4033.280483311349 0 0 680.9416611133481 0 0 315.2082054629955 1470.149916540594 0 2327.26283247793 3032.287871379755 211.7358807798514 25.83207023425119 0 3836:0.161 3993:0.161 5691:0.161 11550:0.4367 13342:0.4173 17261:0.1121 17378:0.1106 18191:0.0958 18538:0.0796 18585:0.0742 18605:0.1404 18646:0.0314 18647:0.031 
31812.28968782641 26216.51848049198 20697.80684008441 27672.36290923869 28368.64310467679 32478.44406378101 25057.2302464762 9880.883690426088 18319.67732723805 23759.47912200787 24853.56438311121 28133.06136763341 26533.35840916254 13946.1422521016 21483.45171631374 33818.79234742169 36641.27323390491 34826.69656169281 20463.35232787557 27739.66189009788 11381:0.2107 11615:0.2107 17227:0.1629 18357:0.2597 18585:0.1074 
0 0 0 0 115.2516363163939 0 0 0 0 0 0 617.0570373639749 691.9248462169861 0 0 0 0 447.9019658257968 0 0 6121:0.4759 8293:0.2317 8468:0.2317 9022:0.2317 10424:0.4534 11763:0.2187 13218:0.2125 13291:0.2125 13576:0.2098 13671:0.4197 14818:0.2012 14955:0.3989 16412:0.1839 17350:0.339 17546:0.1651 17819:0.1588 18487:0.1266 18605:0.1072 18647:0.0474 
0 0 0 0 0 0 0 0 0 0 0 0 0 0 0 1024.876809442567 0 0 0 0 4161:0.2159 7324:0.2089 14518:0.1784 14885:0.1751 15759:0.1685 15811:0.1685 16191:0.1642 16744:0.3164 16823:0.1567 17688:0.1425 17758:0.1409 17794:0.2804 18252:0.1264 18405:0.1173 18482:0.1119 18485:0.1116 18593:0.197 18647:0.0416 
2362.304832034797 2745.675451639309 2577.951083798262 3603.68857643375 2268.133923910388 2356.04862172228 2690.488553593067 257.1254711140758 2414.288655727067 4118.890837460443 104.6807979747227 2141.468361199672 104.4135303942909 1610.435946220811 0 2555.494642669471 3995.060338632652 3637.428449064086 1374.681783781547 6045.642030303572 4220:0.5902 5679:0.5902 12741:0.517 13234:0.51 14948:0.4786 15517:0.4672 
0 0 0 0 0 0 0 0 0 0 0 2695.273657446686 0 0 0 8728.540630007403 0 0 0 0 14518:0.1875 15233:0.1825 16008:0.6992 17070:0.1612 17168:0.16 18150:0.1363 18288:0.1306 18326:0.2573 18504:0.1151 18633:0.0845 
35248.09894368884 27037.46347035111 29460.31098510796 65510.03686216457 22806.55196613035 18611.57731971254 21522.17827758291 14198.76704734262 23115.18100481617 66121.36760581062 13482.25687095501 18977.95556624962 52867.87954183167 29059.64683475074 10914.67482694041 8374.978131930371 79820.22803316987 62983.16348226546 6257.596081588404 74369.04333508079 6053:0.153 10776:0.1457 12255:0.1406 17210:0.111 18351:0.0884 18357:0.0881 18518:0.0794 18593:0.1442 18639:0.0986 18647:0.0305 
0 0 0 0 0 0 0 0 0 0 3121.923725270972 0 0 0 2265.289641927708 0 0 0 0 0 7842:0.4759 9923:0.4635 15081:0.3955 15118:0.3955 15263:0.7847 15570:0.3865 15759:0.3838 15811:0.3838 16191:0.3741 16744:0.3604 18252:0.2879 18485:0.2543 
0 0 0 0 0 0 0 304.0801246684327 0 0 3974.733941745365 4832.749148146792 0 0 13176.87992016189 0 0 0 0 25.87502279699124 4182:0.2767 6372:0.2677 15824:0.2159 16300:0.2092 16463:0.2069 16814:0.2008 16985:0.1982 18150:0.1662 18357:0.1542 18485:0.143 18504:0.1403 
0 0 263.2179722964053 0 0 0 0 0 0 0 0 0 0 0 0 0 0 0 0 0 3023:0.1116 6481:0.2064 6676:0.1032 6738:0.1032 7655:0.1032 8098:0.2064 8539:0.1005 13485:0.6371 14273:0.089 14738:0.0873 16631:0.2356 16778:0.0778 17307:0.074 17974:0.067 18028:0.0662 18229:0.0628 18237:0.0626 18316:0.0607 18345:0.0599 18485:0.0551 18508:0.0539 18562:0.5119 18618:0.1759 
0 0 0 0 0 0 0 0 0 0 0 0 12820.84796571062 0 7511.965728554987 0 0 0 0 0 6481:0.2254 6676:0.1127 6738:0.1127 7655:0.1127 8098:0.2254 8539:0.1098 13485:0.5964 14273:0.0972 14738:0.0953 16631:0.1715 16778:0.0849 17307:0.0809 17974:0.0731 18028:0.0723 18229:0.0686 18237:0.1368 18345:0.0654 18485:0.1204 18508:0.0589 18562:0.4472 
21782.08235506417 22824.98933226989 11456.32012414269 20186.82986559166 18440.25334224126 23089.99993160623 23035.32418775527 8054.900052328663 14164.81078492643 21500.45618888552 22160.62269396709 18111.70379431487 18163.37108825543 11042.56619728526 18882.09535558951 17771.0367606998 27869.40961914107 19473.53904448093 12709.79694835466 20928.70544446473 4145:0.2012 7841:0.1947 7867:0.3894 14790:0.1646 16814:0.2921 17350:0.1387 18523:0.1007 18573:0.0948 
0 0 3084.495877095799 0 0 0 0 6981.531803801397 0 2882.845091356508 0 0 21209.59257194955 864.3548777305676 337.3912098889654 0 731.4996038724862 6287.859434060332 0 5645.226777528236 9882:0.1604 12691:0.2983 14818:0.1393 16616:0.2507 18482:0.0882 18485:0.088 18575:0.16 18618:0.0702 18639:0.1062 18647:0.0328 
7296.47019464876 4065.209162070497 4967.642771229705 4394.933785414684 6145.608133225575 6464.126310234748 2789.561824651574 3706.812515838311 2184.208769086241 2580.809393822607 4097.006899989939 3901.582896465693 13152.6684236353 9323.007512464907 1649.487291792255 12487.04549402133 4244.34751473849 9001.150412094086 3066.410765893539 0 3818:0.3162 14948:0.2564 15570:0.2484 16647:0.2328 16814:0.2295 17721:0.2075 18522:0.1584 18585:0.1457 18605:0.1379 
0 0 0 0 0 0 0 0 0 0 0 0 1791.562177418616 0 0 3249.693638439128 0 0 0 0 15360:0.3139 15516:0.3115 17350:0.2712 17688:0.2596 18351:0.11 18405:0.2138 
21850.29899255926 27040.21506694542 17575.8443502802 28731.25057897247 19374.53290491668 28702.32345498672 27912.47222920167 11040.00326299334 15854.02118397547 25434.91958006516 26506.22243331522 21213.1392151073 21284.12055884685 14636.39696086512 25995.51497816174 14413.51425600968 35318.32168675687 20306.36631786618 12951.36670495828 22572.68783986006 12691:0.2674 13904:0.2575 15147:0.2455 15244:0.2455 16985:0.2187 18351:0.1706 
0 79.42365467875308 0 0 0 580.9197335585739 0 2117.134983597597 437.3071762152943 0 0 77.65527322224148 5508.751036598506 1755.710178940688 7837.069334927912 567.3722587913621 0 0 414.1167409048485 4653.381102437142 7038:0.2089 8352:0.2035 11093:0.1953 12010:0.192 12940:0.5674 13934:0.1821 14885:0.1751 16191:0.1642 16823:0.1567 17721:0.1417 17758:0.1409 17944:0.1365 18326:0.1224 18443:0.115 18522:0.1082 18562:0.1036 18580:0.1006 18584:0.0998 18605:0.0942 
30947.68435340556 35839.91526953437 20112.35030018276 25293.25196707023 24260.93030943933 41007.07979840888 28931.30541575802 22539.88254213237 22363.48323584934 25530.72282751932 23500.31320326851 29898.48109911954 23408.20897513882 25726.04234801391 30154.5312516652 24258.82616227416 40883.09745294006 26286.12130152701 24440.10322108548 46190.59670165534 16185:0.2172 18280:0.1648 18296:0.1638 18584:0.264 18593:0.1303 
18229.78092504077 22062.27064941447 14777.69582926712 16313.99793201247 15034.95058551966 25743.89867549091 22030.09930044927 13596.0493378901 12004.06074948658 17614.40199867822 29903.87051949425 21452.85783703528 25475.05534138162 12155.63409583313 26305.32328923793 8456.322191174064 28252.50940521026 14839.09008749974 15566.26121991718 9734.532740684159 4220:0.2059 5679:0.2059 12741:0.1804 13500:0.3514 15517:0.163 17027:0.1469 17773:0.134 18199:0.1221 18404:0.1121 18575:0.0967 
28309.37195605346 54302.37203431485 29304.21883918014 35556.05050761368 27419.45990107573 28766.06532568447 31905.3780107178 26162.35242801503 16535.0075439226 36945.79277432833 72338.33773111274 35430.50171661159 52562.90999864693 24762.97420778832 46400.35435527936 19945.39970482811 37014.71925766657 35234.64028357939 27906.9958130522 36070.79661584733 16661:0.2248 17537:0.2056 18487:0.3144 18562:0.1465 18584:0.1411 
71486.47190838371 82431.59141249124 57526.96745160775 66692.39648987992 62175.13020215697 94904.86416435745 83590.66493138483 50325.98983533167 60143.68927137783 65691.36049955562 87314.584753484 77717.33915548003 76076.4496829112 51769.41713747684 65785.2510951674 46425.11518730628 92401.32291449061 63197.4367697031 50554.44497795065 83321.09087970617 17168:0.1891 17442:0.183 17845:0.1728 18459:0.1418 18593:0.1224 
3183.39445772892 278.4386337405528 373.2661082406337 3045.093711829921 556.1914859788941 0 372.5192905250922 943.1595721043684 3530.32729467227 0 2024.039953470396 0 0 0 1870.069527836309 8761.767514169378 6346.604230488123 7840.870790482767 1141.998239321781 671.9695720457009 5828:0.6558 17921:0.2082 18133:0.198 18232:0.1929 18374:0.1811 18518:0.1647 18548:0.3211 
0 0 0 0 0 0 1234.295750329144 0 0 0 308.5136514369044 0 0 0 0 0 0 0 0 0 13139:0.765 15817:0.6908 17005:0.6341 17408:0.606 18296:0.5077 18538:0.438 
65061.84833533091 116297.7066661012 49479.29030287007 143998.2625282599 60614.57910079027 110520.650458577 62887.51904319309 82750.32848145276 62203.76426616909 64639.43239683702 79616.23371368568 66864.93680232562 77346.55082897423 60260.23693402974 67024.3906808524 108180.76791238 81259.84407154325 110857.8343063616 54424.91075069619 88280.24250937895 3548:0.1967 18284:0.1133 18548:0.0963 18549:0.0963 18575:0.0924 18619:0.0807 18630:0.0763 18632:0.0756 18637:0.07 
6819.244505139948 18120.33880560756 6133.045832624657 15947.59007580042 9007.766547649262 18845.88384720251 13404.21704707554 0 10650.93301686407 6471.486452969513 16729.26716392793 13511.40360997415 0 5175.139859038009 15670.39811964588 11130.57955857599 10817.91492633935 6165.709635945019 10908.1314901698 4283.97421203454 10623:0.199 12691:0.1891 13515:0.1843 14252:0.1802 16119:0.1652 17350:0.1488 17773:0.1406 18252:0.1264 18518:0.1085 
1669.749547939598 0 815.7178620706403 1976.365074788582 369.6288489352407 1858.310519430613 504.4091379501361 2511.498902264711 539.9101129106909 1658.686705584938 0 13301.00875055364 5839.343133389864 292.7511018153137 1601.735462631609 7309.325161353511 5420.470714040268 2008.314090532252 0 4104.724728291234 3160:0.1925 3232:0.1925 3430:0.1925 3748:0.1925 4704:0.1925 5667:0.1925 6504:0.1862 6990:0.1862 7238:0.1862 8147:0.1862 8614:0.1814 17209:0.1351 17470:0.1309 17721:0.1263 17850:0.124 18133:0.1162 18160:0.1154 18357:0.1073 18504:0.2927 
78067.24984481663 43738.0674504282 36412.83519620164 54187.70045766057 32420.62922745797 60907.49544735204 74801.68768193935 29516.97543376138 48562.36586373869 91513.89926011227 44649.29230127388 52530.46036357823 65733.13498417931 57482.39306355959 121149.661998653 30329.90224173287 59971.25998030147 53698.61963639491 34129.29324631327 137431.4381020389 15233:0.1656 18237:0.1209 18280:0.1188 18496:0.1053 18580:0.1919 18605:0.0898 18633:0.0766 
16299.00398126357 18636.64274433939 16171.29216818931 19306.08855722068 13976.40586132351 17985.57211163524 16897.96756333488 8867.768721913893 12912.13379739936 22022.92539652606 18577.46333791141 17983.68181920667 15331.88814605227 11767.23335897057 27330.14671534416 10869.11801899154 24147.78639372428 17854.10901893971 11832.7708867788 35598.41646154624 9073:0.4391 17306:0.1617 18211:0.1377 18296:0.1336 18482:0.1207 18549:0.114 18580:0.1086 
5124.851131332829 2885.073336373594 5775.54747269301 0 3586.65104484456 7920.858141775258 2756.784872886739 4280.552404714705 1360.127845899852 22537.9258230194 10786.69007412053 7205.695864915629 3852.002486082645 2913.020588802263 12134.16390861537 0 10031.04091273097 0 2970.182625231161 4049.73669514679 7662:0.2763 13018:0.2468 17070:0.2029 17086:0.2029 17138:0.202 17758:0.3728 18549:0.1397 
1113.871015892287 21458.79488448505 46518.17301073997 23590.46377450858 16219.93734867212 57086.65869224067 0 8992.448531535551 0 0 10527.95202385518 0 0 5886.80191333293 0 2989.345486116902 0 0 0 0 12073:0.1544 18229:0.1023 18280:0.1002 18465:0.091 18518:0.0872 18523:0.0869 18605:0.0757 18618:0.1431 
0 0 0 992.0013491627377 0 0 0 0 0 0 0 0 0 0 0 0 0 0 0 0 9213:0.8343 17265:0.3084 17587:0.2955 17944:0.2798 18191:0.2635 18374:0.2445 18605:0.193 
25749.41907994619 33383.42317497315 21971.51608062135 29230.0866804956 22020.96992078415 0 29206.167280851 0 20714.42999483697 30831.26977582302 31545.14692833439 28807.32043427369 0 17508.64775795665 24274.34904177889 20579.76246577956 0 0 19864.24753894591 0 3122:0.1703 3389:0.1703 3502:0.1703 3947:0.1703 4157:0.1703 4467:0.1703 5250:0.1703 5844:0.1703 5988:0.1647 6833:0.1647 8704:0.1604 10255:0.1569 11433:0.154 12405:0.1491 16514:0.1266 18191:0.1013 
0 0 0 0 800.1445429543255 0 0 0 0 0 0 0 0 0 0 17500.12286197565 0 0 0 0 15960:0.3611 16902:0.3367 18191:0.2774 18573:0.6587 18605:0.2032 
4198.195083163642 8255.866473256905 2964.250136688425 8474.014535088681 3009.089296745897 7717.743259473969 4127.573052424894 1051.266969886809 4244.00151323121 5527.928079363572 9155.980672439942 6060.358434815507 5019.192835965017 3395.16908381096 5480.133613462074 2580.435138114905 8053.680129487881 6406.035391038095 3012.523758157005 5696.693302635702 3070:0.1736 3300:0.1736 3381:0.1736 3391:0.1736 3582:0.1736 3645:0.1736 3840:0.1736 3841:0.1736 3953:0.1736 3973:0.1736 4021:0.1736 4364:0.1736 5275:0.1736 5297:0.1736 5543:0.1736 5731:0.1736 6936:0.168 7096:0.168 8135:0.168 8801:0.1636 9807:0.1636 17265:0.1209 18174:0.1037 18191:0.2067 18229:0.1023 
0 0 0 0 0 32758.65603102066 0 13425.06951196755 0 0 0 0 26816.71668527148 0 0 0 37443.99128094706 26829.97069149958 0 29364.21147150471 3122:0.1736 3389:0.1736 3502:0.1736 3947:0.1736 4157:0.1736 4467:0.1736 5250:0.1736 5844:0.1736 5988:0.168 6833:0.168 8704:0.1636 10255:0.16 11433:0.157 12405:0.1521 16514:0.1291 18191:0.1033 
101357.6772394252 61944.26356638641 71194.1628069181 30158.91168772684 92813.07958592218 86143.70734114887 150000 46961.58104109167 52799.20586721125 108003.5706771553 68131.20584770161 94834.43062897556 110842.4053587442 53433.33058407954 31712.8329134752 790.5571013439803 150000 86709.09236908477 51707.39466042173 43511.55529243265 18191:0.1597 18284:0.1546 18555:0.1299 18618:0.1106 18647:0.0517 
0 0 0 468.8895150030589 0 0 0 0 0 0 3694.712827934927 0 0 0 0 0 0 0 0 0 2888:0.2315 14225:0.1847 15215:0.178 16201:0.6733 17460:0.151 17571:0.2963 18150:0.1329 18465:0.116 18518:0.1112 
72368.85628263906 15306.9222427094 0 40406.41202647629 30972.63555956321 36377.18398447034 70167.81740871409 21461.56569166466 44990.65818034961 66638.00886270567 21678.62804649161 61472.11081612592 79573.16635572413 44869.90168728295 32092.272666111 18073.62957819727 60713.71686470765 28354.93083732108 31854.01325191055 37015.32423370153 17147:0.1177 17702:0.1099 18518:0.1678 18549:0.0817 18562:0.0802 18611:0.0712 18633:0.0622 18647:0.0322 
0 0 0 0 1090.980179076164 0 33895.671682067 43710.71876677514 0 0 14918.5353413167 0 0 0 0 1892.062381208405 0 0 0 0 17379:0.1559 17621:0.1511 17899:0.1448 18434:0.1218 18518:0.114 18537:0.2248 18560:0.2187 18605:0.099 18611:0.1936 18647:0.0438 
0 2482.641866552044 0 0 0 0 0 0 0 0 0 0 0 0 0 0 0 0 0 0 2957:0.1543 5833:0.1476 13545:0.1259 15077:0.1187 15235:0.356 15541:0.1168 17147:0.104 17826:0.0953 17840:0.0951 18288:0.1697 18296:0.1692 18325:0.0838 18345:0.0828 18605:0.0643 18637:0.105 
6481.318642818202 0 19691.03887618817 0 4841.860627481416 6588.94952309997 0 5521.338270913974 0 0 0 0 0 0 0 162.5719971200872 0 0 0 0 3702:0.2767 5545:0.2767 6063:0.2677 17865:0.1778 17966:0.3481 18174:0.1653 18288:0.3183 18618:0.4562 
10233.18061434466 10681.42869178624 0 0 920.9221470720195 0 7775.321692885269 345.0094495624357 0 0 0 0 0 7270.016608162503 0 0 0 0 0 5423.880106549923 5773:0.4919 17758:0.321 18325:0.2792 18633:0.1831 18637:0.175 
0 0 0 0 0 0 0 517.4620699367015 0 0 0 0 0 0 0 0 0 0 0 0 9213:0.2086 13499:0.1889 14077:0.1867 15431:0.1752 16293:0.1674 17180:0.1554 17306:0.1536 17758:0.1444 17937:0.1402 17974:0.1389 18191:0.1318 18350:0.1239 18404:0.1206 18471:0.1154 18549:0.1083 18571:0.1044 
0 0 0 0 0 0 0 0 0 0 0 0 0 0 0 20235.07075808571 0 0 0 0 7732:0.3295 17959:0.4294 18373:0.1886 18549:0.1666 18575:0.16 18610:0.4379 
50191.90763181962 63393.12336625562 34290.51989544315 45645.58251208095 43718.79845193282 53292.94249099842 62339.23498104973 32204.34240464605 36022.205042762 71341.98812067603 51661.53377879754 61948.19572164349 64349.32881725414 30595.84116797891 36667.50010799475 51254.69459139338 81003.51929657703 59177.04968928583 40751.10943276571 39630.56327534748 9630:0.2035 13347:0.1866 14568:0.1784 17959:0.1362 18357:0.1204 18478:0.112 18647:0.0416 
0 0 0 0 0 0 0 2267.443538197857 0 0 0 0 0 0 0 0 0 0 0 0 15299:0.1722 17408:0.2956 17819:0.1395 17917:0.2749 17931:0.1368 18273:0.125 18402:0.2355 18459:0.1141 18560:0.104 18605:0.1883 18639:0.1346 18647:0.0416 
0 0 0 9426.415579499275 0 0 0 0 0 0 0 0 0 0 0 0 0 7618.595446919008 0 0 7662:0.1992 8023:0.1992 13018:0.1779 15291:0.1642 16106:0.1575 16208:0.1566 16631:0.1516 16744:0.1508 16864:0.1488 17758:0.5375 18028:0.1279 18296:0.1181 18639:0.1284 18647:0.0397 
93439.11513318287 94619.10943301879 86376.7148144947 116837.6937878993 71832.27426424948 105521.2103249949 68097.07268961942 69813.50835790586 61608.13904764975 123333.8426877929 89310.89297284192 89261.44867969574 120606.2449846784 83172.60050957266 59086.42720726432 51240.01297660024 150000 121273.2180355612 63155.48861537945 108178.8122898967 13472:0.0812 14632:0.0779 16737:0.1395 17526:0.1282 18133:0.0575 18518:0.0478 18560:0.0459 18605:0.1245 18611:0.0406 18639:0.0594 18647:0.0184 
10773.61310970225 0 1145.828766483271 7421.288821796968 2292.6321381157 0 4321.339498915421 2303.005369510607 14192.17200501907 13487.82617911068 2757.90368285357 5225.646013612105 11787.50113491621 6015.455187738409 9939.941676720184 0 14986.91664023641 16520.55766927727 2173.05898526494 19321.76866432984 2908:0.2374 6966:0.2196 8870:0.2139 11202:0.2053 12325:0.4037 13416:0.1961 16783:0.4966 17481:0.1544 18508:0.1148 18613:0.2897 18639:0.1415 18647:0.0875 
0 0 0 0 0 0 0 0 10015.84484321803 0 0 0 0 0 0 0 0 0 0 0 5986:0.2379 8429:0.2317 9169:0.2317 13611:0.2098 16631:0.1811 17138:0.174 17440:0.3356 17758:0.321 18350:0.1376 18605:0.2145 18613:0.3138 
4239.725975532639 3861.059032169356 3320.763712400176 3276.120855848802 6763.967823320549 8051.200298504451 11966.2255591296 0 4536.023167033194 0 9915.60396193443 9098.59266253583 3759.585827682151 0 11808.31153212349 9590.598772920008 4240.366802340797 2437.081397260678 5485.524177670048 14621.77001871884 10807:0.5693 11057:0.1862 17306:0.1429 17408:0.1409 17526:0.416 18580:0.096 18593:0.0939 
14837.07609967578 15594.72123969548 9659.605058447865 15380.55756945901 12932.19235359787 16874.35207511874 16870.37589383669 6052.801199016914 9199.764168469055 17495.24263537026 15223.54001151488 17112.11066521 17374.71437636453 9128.420439427055 11366.89760946863 14519.98488747151 23704.13043734965 17064.78881791782 11306.32635008442 14555.56994761066 4415:0.1553 5868:0.6011 13047:0.1342 13144:0.1342 14790:0.1271 15215:0.1249 15796:0.1212 17209:0.109 18316:0.0884 18373:0.086 18647:0.0299 
0 0 0 0 0 0 0 0 12886.73483012543 0 0 0 0 0 17702.55168682041 0 0 0 0 13080.36757251445 17038:0.4857 17954:0.2147 17966:0.2142 18508:0.1721 18584:0.1574 18613:0.2897 
14753.36217117433 16239.07798446285 16275.22627324966 24815.59779692925 8605.438454039124 5791.444177748245 8155.020565147422 7423.93235445115 6272.414016196008 33258.30053567105 2672.575452842518 7928.878943895222 16495.47671407621 14253.17821718639 3478.068742352479 10081.39900039226 34190.01347340547 33109.98466336941 8215.25320234796 24293.02906245475 6236:0.1823 14951:0.3055 17147:0.1327 17168:0.2655 17654:0.125 18316:0.1072 18532:0.0935 18637:0.067 18639:0.1175 18647:0.0363 
0 0 0 0 0 0 0 2919.416829212146 0 0 0 0 0 0 0 0 0 0 0 0 11995:0.175 13944:0.1659 14724:0.161 18273:0.2277 18326:0.669 18459:0.5199 18613:0.0837 18633:0.0732 
1612.321011256712 5415.88768555362 2487.526657971105 4456.174284798311 3298.879684641595 5038.891182522109 2898.066491011672 2748.17286453128 7675.954339883935 1071.259455630483 2165.586650081638 3981.794117562888 1614.028224161964 2920.516272416095 1444.238376646638 1433.856985455742 5612.578616437804 3451.562292272398 4861.217213387719 14498.8222072992 8450:0.2454 11995:0.2316 16208:0.198 18028:0.3234 18237:0.1529 18326:0.5903 18459:0.1376 18637:0.0926 
0 30680.22022415361 0 0 4108.620431634804 5944.973110005561 4225.526972817002 23517.0625467811 0 27779.95243644109 9644.210222067111 0 0 1027.513649786444 0 0 0 0 5424.430042064693 0 11995:0.2128 16091:0.1831 17147:0.1686 18237:0.1405 18459:0.2529 18532:0.1188 18549:0.1171 18637:0.0851 
80287.59452612049 83507.09454971594 69918.97859765976 95899.9869580972 63108.20351280309 65999.44930404999 71421.06982277517 45757.37924017116 54015.36476385503 116213.2347922932 58711.23072772053 67931.52320591079 125934.0475393955 65359.44144666223 54908.98401547097 46234.38543619178 143957.0504575036 112621.3591501848 54693.42073119284 114441.1734388778 2906:0.1683 12864:0.141 15493:0.1274 17038:0.1148 17899:0.1027 18575:0.0756 18637:0.0573 18639:0.1004 18647:0.031 
0 0 0 0 0 0 0 0 0 0 0 0 0 0 0 3022.71163172639 0 0 0 0 13085:1.2749 17917:0.9391 18348:0.827 18465:0.7732 18610:0.6325 
27796.54790674545 32762.08271175129 24273.08423857778 28847.98062341769 23762.17295744949 33970.64341806288 31585.41068043854 14040.95758985855 20676.49168943205 33190.9939904221 28614.95200967642 30231.74663514573 44014.84917875991 20216.63010810416 36281.87873396321 34350.13453224614 41668.58018467684 29626.07700200965 20338.68249880198 31686.56149857951 2883:0.3858 16744:0.2703 17562:0.2477 17773:0.2401 18405:0.2004 
884.0088313253511 2736.925230501445 0 1292.708010910301 3038.898871076865 4206.651193017037 4344.002007539038 129.3901127082235 257.2219678842408 2464.044595746051 1504.740300865672 6693.168721542435 10058.42387452363 1793.076848823047 2290.590504861249 0 6042.431544140038 3094.609850117563 3727.640536604811 0 13839:0.2489 15972:0.2272 16550:0.6551 18605:0.1287 18647:0.0569 
0 0 0 0 0 7611.415474733843 0 1790.454721873907 0 0 0 0 0 0 0 0 0 0 0 0 7121:0.2196 11381:0.2053 11507:0.4106 13934:0.1915 17501:0.1539 17657:0.1506 18199:0.1347 18335:0.1281 18357:0.2531 18571:0.1071 
20319.31669556945 18864.51599546061 10655.27438075963 15653.43666186858 13108.72213291289 19090.92372181662 18082.76977424853 6855.047737430985 18330.38639220364 20416.38372634455 18980.28144773252 16789.0028263306 15741.70308713738 17063.34093633033 16207.68148708329 10776.79696928572 21313.99672923715 15260.97938433951 13900.47165024002 19791.20466278467 9003:0.6105 9660:0.2035 14790:0.1767 14951:0.1751 15360:0.3445 17209:0.1516 18579:0.1011 18613:0.0919 
0 0 0 0 0 0 0 0 0 2262.866603230368 0 0 0 0 0 1148.778580853197 0 0 0 0 3327:0.2459 4092:0.2459 7657:0.2379 16457:0.1839 17919:0.1562 18211:0.1454 18237:0.1444 18373:0.1362 18402:0.2682 18465:0.2577 18548:0.1204 18605:0.1072 
0 0 0 0 1685.060621037176 0 0 0 0 0 0 0 0 0 0 37841.76188310245 0 0 0 0 9105:0.2877 11202:0.2761 16778:0.2226 18316:0.3476 18325:0.1733 18373:0.169 18459:0.1614 18575:0.1434 18580:0.2846 18632:0.2347 
16558.8989918542 39243.73926014868 0 7268.347782056813 10261.93774719788 22487.13054228574 33124.75802878072 21366.52707321021 12462.84604493578 21773.80194882368 16967.16456019249 28076.24751496908 19487.31557454597 15323.88657267729 12084.21181140047 7990.264247994151 36289.96503764208 13510.75435330392 17442.21000325199 19933.11226599723 3616:0.233 12766:0.2041 18345:0.2615 18637:0.0829 18647:0.0449 
2402.634457677499 1182.510106100307 1342.480414323892 4122.085040990833 4128.315594848568 5754.45726354353 2477.318377766283 0 1060.742345004438 4616.612074822862 3518.858463274817 4645.175623324582 5960.453335808147 1453.245948698483 2299.168532454305 569.6016597457821 5923.061923147089 4151.863625360817 1183.467251353623 1517.244022710001 3616:0.1302 11038:0.7064 12766:0.114 16417:0.0974 17442:0.0888 17615:0.0866 18325:0.0739 18345:0.1461 18605:0.0568 18647:0.0251 
0 0 0 0 0 0 0 0 0 0 0 0 0 0 0 1893.225310066606 0 0 0 0 14954:0.7977 17917:0.6261 18296:0.5641 18405:0.5345 18646:0.1921 
3572.867274656933 15078.45482851935 0 11892.57890384386 8229.525030102968 9088.961306830624 17173.06050398467 0 6045.236429081515 16130.28695933819 5211.558792152317 10670.80149276949 15085.73156020778 4212.171204170638 0 3544.690391761596 25964.32687860788 13590.59706964688 13498.59837005677 8124.566739289266 5286:0.2108 12450:0.1846 15960:0.1634 17350:0.1453 17657:0.2797 17758:0.1376 17917:0.2683 18335:0.119 18374:0.1164 18646:0.0412 18647:0.0406 
61559.34153664764 56333.58145894247 42723.95986296808 31472.81774763556 38509.07576090645 38478.23567130428 76187.92800062019 20791.18042422114 28186.2362972864 67208.14549699627 77448.08436703699 43316.31451967749 45047.05446177541 38231.44636926024 17077.20539735788 37759.5947178297 59534.63203154538 44355.97073258665 36418.03045700933 58968.06716300035 15102:0.1618 15117:0.1618 17571:0.2694 18028:0.125 18150:0.1209 18633:0.0749 18646:0.0393 18647:0.0388 
0 0 0 0 0 0 0 0 0 0 0 0 0 0 0 0 0 5096.95821993793 0 0 16293:0.5578 18351:0.4124 18605:0.3217 18639:0.46 18647:0.1422 
0 0 0 0 0 0 0 0 0 0 4813.932760707844 0 0 0 28095.40316516713 0 0 0 2129.115592038042 44373.19704022248 15077:0.1978 16778:0.538 17147:0.1733 17416:0.1683 18459:0.13 18485:0.1271 18580:0.4585 18646:0.048 
0 0 0 0 0 0 0 0 0 0 0 0 0 0 0 0 0 0 0 819.1973183741761 14632:0.1509 15223:0.1483 15574:0.1449 17584:0.3704 17944:0.5829 18150:0.1108 18404:0.1005 18471:0.0961 18593:0.1683 18637:0.0656 18639:0.115 18647:0.0356 
150000 150000 125382.5441108193 150000 144265.1894953435 150000 150000 88142.52889946467 113984.0174647992 150000 150000 150000 150000 109645.8526440768 128417.427757046 130862.2423369476 150000 150000 131956.4305763194 150000 16773:0.1041 17759:0.0932 18043:0.0885 18345:0.1603 18352:0.0797 18646:0.0279 18647:0.0275 
0 0 0 0 0 2523.017036480464 7390.774129890905 0 0 0 6434.235880088017 2194.725398050291 583.817867649096 0 18815.2812770281 9650.887977095494 0 0 0 0 6236:0.2196 12621:0.1988 16208:0.1727 16405:0.1707 17096:0.1606 17654:0.1506 18284:0.1308 18373:0.1257 18555:0.1099 18575:0.1066 
0 0 0 0 0 0 0 0 0 0 0 0 0 0 0 2435.258680264024 0 0 0 0 3846:0.2856 7931:0.2763 9040:0.2691 10668:0.2632 12795:0.2502 15308:0.2278 16783:0.2083 17265:0.199 17721:0.1874 18280:0.1648 18373:0.4744 18405:0.1552 18555:0.1383 18605:0.1245 
0 0 0 1166.793855862078 0 965.0347202251337 0 839.8320888807983 0 0 0 0 0 0 0 0 0 0 0 0 3846:0.2683 3882:0.2683 7952:0.2596 12588:0.47 13581:0.9157 15186:0.4315 15308:0.214 18191:0.1597 18351:0.4498 18478:0.1391 18522:0.1344 18571:0.2532 18610:0.115 
0 0 0 0 0 0 0 0 6547.127289384048 0 0 0 0 0 0 7661.383359863691 0 0 0 1752.246369871667 10639:0.2267 17096:0.174 18150:0.2954 18316:0.14 18373:0.2724 18482:0.1274 18487:0.1266 18613:0.1046 
4758.881424222942 0 1304.576211847964 8043.184473927507 0 0 0 6198.952189449504 0 11761.3444103531 0 0 8519.923289053153 3329.832432176766 0 0 16158.29990004099 11835.22259319497 0 8524.682163183134 9862:0.2877 11040:0.2761 11116:0.2761 11960:0.2715 17584:0.8175 17944:0.3859 18560:0.1471 18639:0.1904 18647:0.0589 
0 6886.400276893311 0 0 0 0 0 0 0 459.4933764055504 0 0 0 0 0 0 0 0 0 0 5249:0.466 9862:0.4391 15147:0.3747 17584:0.3119 17944:0.2945 18174:0.2784 18478:0.2416 
3472.313072583457 4373.132301083812 5242.348842350964 923.4216566740228 5248.962374714325 8346.120201755894 7555.541594651088 0 5056.352192144531 0 7221.356106243505 7468.290657955403 1217.971256667994 2391.892974976774 5407.71234534524 4737.623037408762 0 0 5056.214284850661 0 7153:0.2196 7321:0.2196 9862:0.2139 11116:0.4106 15147:0.1825 16091:0.1737 17584:0.7599 17944:0.7174 
0 0 0 0 0 0 0 0 0 0 0 0 0 0 0 0 0 269.7418887461775 0 1798.972580808419 4773:0.1526 7153:0.1477 7321:0.1477 9862:0.1438 11116:0.4141 15147:0.1227 16091:0.1168 17562:0.1025 17584:0.7153 17944:0.6753 18508:0.0772 18639:0.0952 18647:0.0294 
26279.35544905602 56642.059439195 18408.88028945945 24093.16523578722 20665.35004805139 45456.97231183443 32042.67704494445 27474.80736467445 16912.09440460061 47616.86262892094 17290.09959703784 27308.96385276852 23940.20642982668 17200.7877371444 17451.44529313747 14173.61997029923 50397.47247079852 26483.11110950185 19911.78781044688 11986.57987573092 3404:0.1135 4967:0.1135 8456:0.107 15708:0.0886 16661:0.0836 17033:0.2429 17602:0.0758 18028:0.0705 18150:0.0682 18443:0.0605 18478:0.1766 18482:0.0588 18532:0.0564 18571:0.0536 18646:0.0222 18647:0.0219 
0 0 0 0 0 0 3732.496966578644 0 0 0 0 0 0 0 0 740.1975823255506 0 0 0 0 13472:0.1799 14632:0.6899 17692:0.1391 17919:0.2677 18316:0.24 18351:0.1178 18443:0.2246 18549:0.1031 18610:0.0904 
17916.0575370101 23606.90189113634 13122.71205951732 15098.86399158774 19091.06246635681 34972.64281426306 35178.41274749427 7712.785631045576 10533.40125604274 20106.81581295194 17874.05598004436 19254.26735731856 16528.94533892671 12640.85288109133 16271.59145747425 19660.24943476184 36041.00706737502 15590.52370094214 16437.00877756638 16970.9603331798 7952:0.4826 18202:0.1477 18555:0.1207 18571:0.1177 18584:0.1153 18646:0.0244 18647:0.024 
150000 150000 150000 150000 150000 150000 150000 150000 150000 150000 150000 150000 150000 150000 150000 150000 150000 150000 150000 150000 18174:0.0998 18325:0.0948 18555:0.0809 18610:0.0716 18613:0.0711 18646:0.0326 18647:0.0322 
8612.722294503492 12960.02035430269 7492.370044449281 12712.992635201 8460.071684698949 14389.19667631992 10966.2973307325 4688.38812652956 6098.859007026142 11233.97741408353 12563.24820840613 11346.73126816701 9435.143839609433 7185.832699027874 12981.52089808295 8040.102942147617 15225.03382614283 10046.71328257913 8483.047442283105 16225.67702494729 4180:0.1967 9630:0.1854 11350:0.1779 11616:0.1779 16088:0.6022 17758:0.1284 18465:0.1031 18508:0.0995 18518:0.0988 
0 0 0 0 0 0 0 0 0 0 0 0 1909.122448064086 0 0 0 0 0 0 0 12741:0.2423 15517:0.438 16778:0.4035 17917:0.7043 18459:0.1462 18465:0.145 18562:0.2655 
0 0 0 0 0 0 0 5862.534674404119 0 0 0 0 0 0 0 0 0 0 0 0 4973:0.2856 14632:0.4674 16737:0.2092 17735:0.1874 18133:0.345 18523:0.2859 18560:0.2752 18611:0.2435 
3525.561888817272 0 7236.919236466698 0 0 0 0 9167.812085557593 0 0 0 0 0 0 0 0 0 0 0 0 11038:0.157 11304:0.314 12380:0.1521 13581:0.1481 16008:0.5346 17210:0.1219 17888:0.111 17959:0.1095 18284:0.1 18402:0.0947 18560:0.0836 18585:0.08 18605:0.0757 18611:0.074 18618:0.2862 18633:0.0646 
8692.624916244115 0 32760.82494334125 0 7955.420453835452 5065.943798942772 0 11541.7828160436 0 0 0 0 0 1278.088401344796 0 0 0 0 0 0 7116:0.1904 8374:0.1854 16427:0.4413 17758:0.1284 18518:0.0988 18618:0.4866 
0 0 0 2598.56148399532 0 0 0 0 0 0 6743.454619908435 0 0 0 0 0 0 0 0 0 13647:0.5036 14914:0.4786 16417:0.4413 17571:0.7903 18639:0.184 
4852.623234778564 11789.29250996863 3984.15156059396 14053.38464144712 6758.213926572519 7308.706670575351 11513.05970072255 0 5190.720982724793 8532.469364565763 7159.264450003972 8021.99752843905 7503.83801612169 2809.988592176215 345.6808888804222 8286.771940709774 10760.84203000897 10613.81017771832 6073.489430237369 7268.34528942973 12899:0.2983 15299:0.2716 16312:0.2575 17442:0.2323 17819:0.2199 18121:0.206 18402:0.1857 18518:0.171 
2409.72324863006 2254.708971410778 487.402565349007 3551.126465398994 2297.351203017219 3264.987912758691 1687.809958952038 852.3111950385819 2446.994930272425 3427.292529327641 2268.452501162221 2600.321130263456 3202.329349797802 1738.048003254846 5627.060409224265 0 4134.683374526929 3297.012533121661 1551.044012193584 1852.082046843249 3812:0.4919 8970:0.4635 14948:0.3989 15075:0.3955 15796:0.7675 16201:0.7482 17769:0.3201 17917:0.313 
4110.802709850343 16003.61646508381 0 10073.62596116491 8650.775954021823 21166.81635738024 15341.71126246834 887.6697736071118 4887.019797468492 13447.38114068205 9791.929230876818 8015.989111410191 9153.617031332838 5673.783108521232 5332.070812002494 8482.351076800194 20994.31519084528 6061.242177442495 6124.114928792827 16393.13450192042 16289:0.4184 17921:0.1171 18160:0.1106 18174:0.1102 18373:0.1021 18605:0.0804 18611:0.0786 18646:0.036 
17043.62486186088 19990.78702208235 13826.27664831687 17493.77529363418 14448.51437633468 20734.41858963024 18871.88254204952 9157.219027191042 12546.41423666856 19071.97314079362 18887.76364217603 18736.45375463 16488.25932184586 11903.27570846745 13844.88259218548 12736.37712438096 24638.79865626397 17492.51768284662 13230.96321067097 21519.89548224779 3792:0.3405 3825:0.3405 11686:0.3079 12415:0.2983 13711:0.2906 18482:0.1764 
0 20915.9969135431 0 0 0 0 3549.169530539939 6253.270746896523 7461.533028901448 0 0 0 0 1664.313435058541 0 0 0 0 1790.396309056695 12928.07317143783 6879:0.1279 8474:0.249 14125:0.1103 17794:0.3431 18405:0.0718 18593:0.2411 18637:0.094 18646:0.0258 18647:0.0255 
2645.909397391913 3475.765386153656 1929.230083170673 3834.678485663991 2343.249314586335 3497.276976604668 3776.681882977645 615.3621993629632 1042.816927210856 3821.3105040995 2067.187283630012 1693.017501437156 8075.469150896618 2599.790429819714 2484.698363246933 548.8092718518682 6357.270133078507 3892.868056674102 640.2347538096825 2244.1596151525 10157:0.7096 11889:0.6846 18232:0.2264 18523:0.1926 18562:0.1847 
840.1669574771395 0 3450.017596213285 4652.16917333606 2667.324131832176 2281.510684584606 1727.449832147865 0 1442.770018909986 708.3418380130248 7540.130068972512 2886.530793657212 1314.957968257203 1865.601314294567 3753.512867944826 7344.428403516602 159.3058567230599 4809.245631781668 0 589.9548791462266 10361:0.3022 11093:0.4448 12415:0.2872 12440:0.1436 14302:0.2736 15235:0.1318 17657:0.1088 18191:0.0976 18348:0.0919 18538:0.0811 18618:0.0676 18647:0.0316 
6817.331513531446 8986.635987985517 6762.209299223159 9054.580768807602 6412.317113153322 8145.10627658282 10023.01657411233 3770.665740051118 4795.284916261582 9071.1003611985 10521.20762118341 9736.102323336981 9115.415178853838 6017.105760890061 6759.557873676707 6728.128938866827 11895.34389896284 7636.77328635417 6587.270699257348 7877.241460300389 7121:0.7138 11381:0.2224 14701:0.2012 15934:0.3812 17033:0.1754 17227:0.172 18335:0.1388 
0 2241.918201126237 0 0 0 0 0 0 0 0 0 0 0 0 0 0 0 0 0 0 17096:1.2045 18006:0.4247 18487:0.1753 18532:0.1691 18584:0.1574 18646:0.0665 
4306.378958121656 0 4694.744831623785 9824.379718753466 880.8896746663759 0 0 2080.4357428332 1415.033933800727 12464.9816026072 0 289.9158027906462 9456.146722312194 4315.545188263464 0 9542.962941713018 13004.37818740495 14087.08776892264 215.7926664774288 10624.52588567383 13125:0.7285 13728:0.3597 18202:0.4993 18639:0.2629 18647:0.0813 
26686.55582699682 39141.58754459087 27602.29922964914 26245.83546056347 24162.31401111573 37851.86045039679 36440.67213217705 14083.38359894094 25772.73591546389 41207.05561127322 28433.97429280454 28939.85621565977 32813.13267419005 16997.35479664857 21220.96082343127 10139.14748116217 50030.35163549628 24580.078271961 24511.1233170148 36186.3849445182 4049:0.4118 16647:0.1516 18010:0.2568 18237:0.1209 18575:0.0967 18646:0.0402 
15484.03312463225 20689.18076989797 13236.27462962333 18430.91921159527 13885.09455225987 23145.36304738652 16108.85001449383 11757.59820994408 11289.70992491345 18536.24845581778 18016.9653944992 19022.7557708543 25565.46143696266 14462.79564449863 32841.69986741324 1158.794075571489 23312.95719363002 18488.33911008536 11526.34629674536 17299.57361254328 13085:0.1912 13611:0.1889 17350:0.1526 17917:0.1409 18252:0.3886 18496:0.1132 18605:0.0965 
5238.510137266149 4605.968524551334 4233.936706309972 5104.717564924435 2891.817012604018 5657.129385175464 5393.797534411551 3618.180409955405 4047.081605239095 4905.790988897209 5124.118702534006 5492.007231107933 4969.613972165448 2432.43625589297 4609.558243463954 0 6536.981343236981 4583.519884415377 3668.792428718566 6106.006478292517 7324:0.5354 8305:0.5214 13047:0.4781 14885:0.4487 18402:0.3018 18584:0.2557 
122.2899814941705 2091.649816663872 703.848424837891 599.788790589627 7133.393383819019 24801.42230678748 2018.612651980785 9756.174125112007 0 5991.195522728438 39349.63415162662 16460.97692105002 15804.01171592721 0 1622.280512717351 1586.981331779281 25492.67027769856 11377.44065394044 9731.010469691504 0 2915:0.2205 3064:0.1054 14633:0.0862 16312:0.0797 17096:0.1491 17571:0.2822 17688:0.0695 18211:0.0623 18296:0.1209 18316:0.06 18560:0.0508 18571:0.0995 18646:0.0206 18647:0.061 
0 0 0 0 0 0 0 0 0 1339.486402106072 0 0 0 5785.414892547899 0 0 0 0 0 0 6629:0.2855 9993:0.544 16514:0.6585 18357:0.658 18562:0.1416 18567:0.28 18639:0.184 18647:0.0569 
0 7937.80396597026 0 887.8319738366614 0 0 0 0 3892.667211837873 0 9184.621123913328 1727.841143004447 0 0 7705.187019501207 7902.659129127538 0 1621.687464551511 0 20898.6835104133 11148:0.2107 15308:0.1858 16773:0.1699 17096:0.1648 17265:0.3246 17615:0.155 17769:0.1516 17917:0.1483 18532:0.1157 18580:0.1086 18593:0.2126 
0 0 0 0 0 0 0 61.22845227800567 0 0 0 0 0 0 0 0 0 0 0 0 5249:0.2393 11038:0.2164 15199:0.5772 16041:0.7369 16208:0.182 17005:0.1714 17096:0.1693 17261:0.1667 17944:0.1512 18043:0.1483 18482:0.124 18504:0.1213 18571:0.1129 18605:0.1044 
0 0 766.1023892851406 0 0 0 0 0 0 0 0 0 14816.99673131514 0 0 0 0 0 0 0 6552:0.2141 16208:0.1683 17096:0.3132 17721:0.1452 18316:0.126 18532:0.1099 18605:0.2896 
89050.3326928193 107948.6861205826 82411.87044918042 95497.00687498333 80930.12775920607 109332.4093442938 111358.0680608848 52094.41720503436 67613.15432371896 115601.7026104229 98681.32041474804 101446.41987036 97994.7225794523 64744.02726570248 84347.04260531951 62405.54458992129 140223.4463162714 100055.6133705319 74572.66838795203 129572.8311058676 3912:0.1196 13533:0.1021 14724:0.0979 16670:0.0881 17033:0.0853 18173:0.1429 18229:0.0705 18482:0.062 18508:0.0605 18646:0.0234 18647:0.0231 
0 69.28176230736375 0 0 0 0 449.5618828209724 0 0 273.3138145439915 0 0 0 0 0 0 425.9098948518516 0 0 0 6121:0.463 8293:0.2255 8468:0.2255 9022:0.2255 10424:0.4411 11763:0.2128 13218:0.2067 13291:0.2067 13576:0.2042 13671:0.4083 14818:0.1958 14955:0.3881 16412:0.1789 17350:0.3298 17546:0.1607 17819:0.1545 18487:0.1232 18605:0.1044 18646:0.0467 18647:0.0461 
11361.52000717199 10796.93231850772 3887.178484694717 8803.926057367629 5122.110673743837 13739.51368003323 15299.52766601623 5392.021817677467 7447.090729372228 5724.379319877815 8204.219656174246 12252.84874633764 7701.801199334799 6817.308208910911 21832.59700996281 65820.23802681781 27100.81169848084 7032.203003939974 7369.086011665089 657.4603177427385 15911:0.2144 17692:0.1825 18006:0.1725 18173:0.1653 18232:0.1627 18348:0.3101 18373:0.1532 18610:0.1186 
0 1916.613430553906 0 0 1301.371047711572 0 829.5073055942453 0 0 543.3702984651152 0 0 0 0 0 0 0 0 0 0 8457:0.5056 12160:0.2386 15077:0.2157 17584:0.1796 17615:0.3571 17944:0.1696 17966:0.3376 18325:0.3045 18593:0.1224 18646:0.0524 
2116.105341961974 4848.532207674947 3940.12096993053 2938.717933719721 6013.798212946042 6335.184111480751 4440.783479844907 0 88.13864290509579 3346.185676163702 2271.185639520544 1353.569829286828 1490.72632666325 565.2829216726583 2959.154449863327 360.4422199559811 7247.227201957587 2052.18536434679 289.5023902328848 14820.02954641057 8457:0.7151 12160:0.2249 12356:0.2249 17615:0.3367 18325:0.2871 18580:0.1179 18593:0.1154 18646:0.0494 
18219.63498164036 11579.13034375309 16924.44305666749 20386.60836893995 16674.63110611299 22666.43222644523 13372.01827096997 13192.76748952065 7681.604004866813 18954.30071128028 9243.283256144883 12747.8482214112 15378.62814081904 13386.31025203958 0 5418.08951899852 24270.57695712168 33337.98727670652 12330.76660704198 0 2881:0.1518 2901:0.1518 8417:0.1368 16463:0.2171 17436:0.099 17794:0.1884 18585:0.0669 18605:0.1266 18611:0.0619 18630:0.0563 18646:0.0283 18647:0.028 
0 0 0 0 0 0 0 0 0 0 0 0 0 0 2922.380747968734 0 0 0 0 9151.253971015589 9158:0.2877 13806:0.2575 15199:0.491 15724:0.2382 17460:0.2083 18273:0.1767 18443:0.1626 18518:0.3067 18522:0.1529 18580:0.2846 18613:0.2597 18646:0.0596 
0 0 0 0 0 0 452.6553824037152 0 0 0 0 0 0 0 0 0 0 0 0 0 3648:0.3689 4183:0.3689 8042:0.3569 8771:0.3476 12940:0.3231 13173:0.3187 15081:0.2966 17944:0.2331 18555:0.1786 18605:0.1609 18646:0.072 18647:0.0711 
11370.22695059055 11706.05176921068 8765.636282805221 8984.31224353671 12698.56287021137 12456.30910666629 15604.13237725573 3339.403646990115 9134.331455643272 15571.98847612119 7552.645866037761 13673.49692287771 11308.89453694218 8512.212949227143 5877.005495467357 19240.0980338295 20375.35564398004 12386.88454849139 9474.312075006963 10358.15486065475 4183:0.1884 8751:0.1775 11040:0.1703 11764:0.1675 15081:0.6059 15223:0.1515 15570:0.148 15640:0.148 16661:0.1387 17944:0.1191 18443:0.1003 18632:0.0724 18646:0.0368 18647:0.0363 
7258.585844357563 4568.113990310532 5143.862765304518 6882.899475993828 4458.799935657517 4782.565439105799 6450.392703390353 3080.657597736038 3872.06160791583 9916.437719896046 2295.864850585505 5421.051955806155 1804.535331305881 6072.484038001855 1124.642121100621 731.859829251319 9747.301266925055 5958.6572537032 4312.480356833583 7983.525832867414 5708:0.2856 13839:0.4818 17096:0.8082 17919:0.1813 18006:0.3562 18465:0.2993 18522:0.1431 
0 0 0 0 0 0 0 0 0 0 3946.219623378687 0 0 0 0 0 0 0 0 0 5121:0.2059 8081:0.1992 15057:0.3311 15582:0.1618 16315:0.1557 16737:0.1508 16773:0.1501 17005:0.2949 18211:0.1217 18485:0.4258 18508:0.1041 18538:0.1019 18549:0.1007 18633:0.0766 18639:0.1284 18647:0.0397 
0 0 0 0 0 0 0 0 0 1235.150361849167 0 0 1670.896070977841 0 0 0 2701.091544331231 5259.499288447779 0 0 9717:0.3209 13487:0.2906 16785:0.2483 17005:0.7317 17537:0.2294 17759:0.2222 18199:0.202 18639:0.2123 18647:0.0656 
60310.72571315297 49740.92869252692 38168.26245339673 36216.59001222051 39496.49481762879 53812.60198173648 64413.04409333843 33720.53057931877 38134.67610491315 58632.3371415516 37378.36607316455 44692.65320209838 50692.73866287482 37957.7900229588 30362.59253220495 40483.65526242429 73836.76242999162 42642.92993991371 36859.05357256695 36521.99634123036 4415:0.1283 10361:0.2365 15215:0.1032 16985:0.0919 17657:0.0851 17704:0.0844 18202:0.152 18459:0.1356 18633:0.0478 18646:0.0251 18647:0.0247 
2312.684547804469 6051.194647112035 2057.76183496691 2723.066974482713 798.3048402864487 2114.961686480691 48.78751776512803 2469.977393232763 1989.902352752734 6481.794536396094 0 0 2191.120373540688 3636.300265926108 0 0 4884.051715074774 2912.123349763985 689.3091685122832 242.0851195637681 9988:0.199 10807:1.1942 17408:0.1478 17917:0.1374 18532:0.1072 18593:0.197 18646:0.0422 
0 0 28467.63149839208 13216.02549463362 0 0 0 1517.084483910523 0 10132.11092240045 0 0 6446.348199786321 0 0 0 23359.10348243161 20215.42864290443 0 0 17147:0.1642 17611:0.155 17735:0.3057 18345:0.2615 18459:0.1231 18639:0.1453 18647:0.0449 
3518.953165061687 2435.059679821822 494.1074764671033 0 0 3494.499725041304 5904.403975827801 4244.75706870428 10252.44289253799 3387.736216661647 0 172.0750353265897 1194.736261365237 0 2307.62755968852 7886.25667642927 7800.794903162097 4186.421474146426 384.3109605070582 879.6699042798174 3327:0.3001 6960:0.2904 15972:0.1155 16457:0.1122 17005:0.1075 18296:0.0861 18345:0.1684 18373:0.0831 18471:0.1564 18548:0.0735 18646:0.0293 18647:0.0289 
18210.32930609506 65990.87338716559 6716.63420720985 3225.945320459363 11213.17800375521 19058.2990032797 25363.56931704382 0 7617.642183180524 20436.35769105576 8565.980439170698 15550.4226523926 15291.51129938337 5656.725011436072 6565.705975150653 16042.11779918979 38303.29995114219 14540.93203110282 11232.38264644508 15025.45672943929 12406:0.1231 12446:0.1231 13238:0.1214 13445:0.1199 16078:0.1082 17826:0.0908 17921:0.0892 18160:0.0843 18352:0.2353 18434:0.0754 18560:0.0677 18585:0.0648 18637:0.05 18646:0.0274 18647:0.0271 
0 0 0 0 0 0 0 17889.7665059378 0 0 12621.27854033656 0 0 0 0 0 0 0 0 0 12406:0.1175 12446:0.1175 13238:0.1159 13445:0.1145 16078:0.1033 17826:0.0866 17921:0.0852 18160:0.0804 18232:0.0789 18352:0.2246 18434:0.0719 18496:0.0686 18560:0.1293 18585:0.0618 18637:0.0477 18646:0.0262 18647:0.0259 
928.4684063265192 305.6612623246293 952.6577857351 1708.796959387499 0 1351.349440747191 0 2100.145740098879 3941.450717180478 0 1635.912233833704 3947.578544727828 474.6081720864361 1736.183214891651 705.8889865179735 2027.655427892342 0 667.5905623759223 170.3190839468443 1067.006962876686 15184:1.3348 16347:0.416 17587:0.3693 18471:0.2884 18504:0.2805 
45638.75090755602 41283.00164362611 23738.84921476904 42580.48937808172 28314.04912001002 43284.28377001091 42695.02711390047 26600.60981481289 53305.90107400256 45158.63037598864 45962.69430563183 31408.41698079043 30968.66500657429 36818.52999520368 60125.41923950855 23590.88032472568 86318.75058786799 35740.73766339641 22818.5592134419 31735.47485159323 17571:0.156 17667:0.1542 17937:0.2952 18350:0.2608 18633:0.0867 
107128.945659725 136474.8056983272 78933.41012075759 106782.6752965881 95772.69505775736 133148.8380936895 141341.391751289 49772.82693833429 81017.76367707305 133237.04961084 106628.3776629103 119789.7451705819 122511.8426175463 75966.17519538135 95952.06603765396 96770.69292482804 150000 118840.0591551503 91124.70679944771 119026.7107263947 2949:0.1624 8528:0.1464 9554:0.1464 13018:0.1342 17138:0.1099 18646:0.0303 18647:0.0299 
8786.304944664735 0 51494.31380925843 0 0 0 0 14562.88770725768 0 0 0 0 0 0 0 0 0 0 0 0 9554:0.1814 14790:0.1575 15836:0.1502 16289:0.1455 17481:0.1309 17667:0.1273 17769:0.1253 17917:0.1225 18518:0.0967 18618:0.6347 
144030.4947638209 150000 114763.3725034892 150000 123191.9185736802 150000 150000 78508.48581802039 109954.8668458566 150000 150000 150000 150000 102044.4945153201 127275.4293454427 138146.743292164 150000 150000 113038.2454778225 150000 6808:0.1586 12783:0.1436 17378:0.1126 18518:0.0824 18610:0.0703 
0 1628.03434406273 0 0 0 0 0 0 0 0 0 0 0 0 0 0 0 0 0 0 7680:0.4759 9249:1.3905 10824:0.4534 10953:0.4534 12612:0.4308 13726:0.4197 17289:0.3414 18173:0.2938 18191:0.2928 18522:0.2464 18637:0.35 
0 0 0 0 0 0 0 77.87111350332175 0 0 0 11488.90095498517 0 0 0 0 0 0 0 0 13136:0.1739 18202:0.1192 18316:0.1145 18373:0.1114 18459:0.319 18478:0.1043 18548:0.0985 18549:0.0985 18580:0.1876 18594:0.1835 18633:0.0749 
633.8106623800405 593.7577473970681 848.3913001121324 1105.157099879251 1564.977778473999 895.4486535904549 419.0461559097496 1009.725743323829 3056.171401385754 439.7070735692513 578.7018000450028 651.1016214957345 1691.749308412974 632.5500600278957 2421.239992213295 1925.500233942888 0 1023.375098604099 658.6971050755552 2483.928395677814 4268:0.6811 4659:0.6811 7203:1.3178 8944:0.6418 16785:0.4966 18350:0.3812 18471:0.355 18573:0.3209 
0 0 0 0 0 0 0 0 0 0 0 0 0 0 0 5964.933190652269 0 0 0 0 14518:0.2285 15708:0.4317 17794:0.1796 17865:0.1778 17931:0.1753 18191:0.1647 18284:0.1594 18487:0.1425 18538:0.1369 18584:0.1279 18585:0.255 18605:0.1207 18633:0.103 
2337.831130311135 0 14.53398808780709 0 43.66622089307324 95.76534387193806 1243.607282969026 231.1050468592707 697.6754206682655 1043.581674654167 0 0 0 1402.154822030964 0 8490.017816858333 0 0 0 0 4970:0.6811 13291:0.5884 15541:1.6172 16417:0.5092 18373:0.3771 18633:0.2535 
1052.409137513338 1623.982984778247 388.9197802453677 2461.709846933771 1349.980062170367 2375.619727815863 1428.44343306702 193.6285574181826 1014.821281226958 271.4841808832145 2572.707146546134 1543.830237775466 693.8447107945566 531.3729561102471 1704.337484556507 1191.12612966553 316.4921616708033 56.28738166864597 1394.944548750486 0 4689:0.6324 8421:0.5959 12255:0.5623 13136:0.5464 15199:0.5085 16041:0.9738 16864:0.4569 17584:0.4234 17944:0.3997 
5063.843259839456 926.5572492363518 11214.79798689268 4194.381918488019 1271.223195740992 9902.636736328346 0 5852.706061067561 0 0 313.8070087209652 0 0 3063.667913947486 1370.742549931119 0 0 0 0 0 3355:0.1925 3695:0.1925 4018:0.1925 4089:0.1925 9040:0.3627 9661:0.1814 10668:0.1774 12388:0.1686 12450:0.1686 16412:0.1439 17657:0.1277 17956:0.1214 18191:0.2291 18351:0.2151 18571:0.0908 18618:0.3174 
16917.31093184728 29187.41494280959 19078.61354685521 34499.88526302683 16983.82402548919 16391.6811452201 19704.34976856497 9949.289508371061 13306.02461848224 28074.27572077963 21812.45271167086 24781.14154501953 20109.97726642786 17601.22208803928 33790.38763800665 10119.18326430033 24207.85725049458 26311.26755514813 17773.04151585093 34794.84143515467 14016:0.2667 17537:0.213 17919:0.2008 18191:0.1882 18584:0.1461 
0 0 0 0 0 0 0 0 0 0 0 0 0 0 0 28508.95555582875 0 0 0 0 14580:0.1925 17070:0.1655 18191:0.2774 18405:0.2532 18538:0.1153 18548:0.1141 18585:0.1074 18605:0.1016 
0 0 0 0 0 0 0 0 0 0 0 0 0 0 0 13684.96339684563 0 0 0 0 9811:0.2607 11226:0.2502 15570:0.2174 15640:0.2174 15972:0.1065 18191:0.1647 18252:0.081 18284:0.0797 18351:0.1546 18405:0.0752 18522:0.0693 18538:0.1369 18555:0.067 18573:0.0652 18584:0.0639 18605:0.0603 
349.4013456261029 8480.345453230186 0 1715.099217158337 0 3630.80308094165 7165.26074439764 1211.19328643786 820.2039631134973 0 7226.382479446424 6609.167391623591 0 0 3323.748285672622 10193.88451068448 0 0 4407.680297587806 0 12325:0.2624 14738:0.2415 14948:0.2393 16201:0.2244 16668:0.4346 17440:0.2013 17704:0.1942 18202:0.1748 18610:0.1265 18613:0.1255 
13662.56509874852 0 18730.22816532942 452.9736218701916 7523.486106992717 10366.15599808333 0 6771.439916537797 2704.163623990866 0 3726.512205338176 0 0 7302.202380901366 6114.242043357607 0 0 0 0 3425.291165359086 2814:0.1781 10437:0.1569 12425:0.2983 14701:0.1393 17917:0.4334 18296:0.0976 18485:0.088 18562:0.0817 18613:0.0724 18618:0.4211 
2460.008303780652 5414.269583608112 3068.35155748783 1773.453480189859 4273.62489827223 3726.473920729003 6210.655990831186 458.5049370481357 868.3656041455996 4692.825104947558 1849.629036906003 1310.854578266384 5056.459169037201 2021.357638218371 7383.755175738157 2241.682399437211 9518.170434650498 4077.962973953721 4494.638745722532 7145.85795891053 10383:0.1898 10513:0.1898 10716:0.1898 10785:0.3796 10786:0.1898 11389:0.1862 11461:0.1862 11687:0.1862 11699:0.1862 11967:0.1831 12879:0.1804 13047:0.1779 13700:0.1757 15184:0.6622 15580:0.1618 15721:0.1606 16119:0.1575 16183:0.1566 17602:0.1374 18006:0.1284 18580:0.096 18646:0.0402 18647:0.0397 
125489.8456376413 130697.4298498506 90084.68869228419 99572.18665895419 91526.00796724032 124885.7444135274 147986.2360753638 61678.69041473349 80961.32546186501 144309.5182077587 104221.3731785317 114807.2135162136 127551.7470853489 83106.84326394678 86293.52415833011 74989.14078270114 150000 110989.2032044794 88531.80321007597 133286.8883511558 8187:0.2413 17702:0.082 18229:0.0735 18575:0.0586 18633:0.0464 18646:0.0244 18647:0.024 
24425.09129973593 24982.4609108856 15557.51632169452 19194.49900686839 23274.10719132687 25330.72416110525 39611.72793986391 3588.446323587404 17012.97678573764 33352.03116177257 16793.82862933548 28051.04459672615 32177.28017925629 15336.00357737125 7570.361459841062 23598.52947780862 43818.92290849048 25990.21706667814 20203.12144816154 16384.52998550453 3912:0.2012 14024:0.3394 16463:0.1505 18296:0.2308 18646:0.0393 18647:0.0388 
0 4851.007672243303 0 326.6847757228729 1254.902987369452 3814.522985684641 4334.278171091703 0 1709.14725929253 2149.326006712317 0 812.1401541362931 787.8654421031368 1677.821754691022 0 0 4563.900182319731 0 2776.281165524912 2991.763543906165 4161:0.3279 4967:0.3279 16814:0.238 17769:0.6403 18605:0.143 18646:0.064 
47834.58247451688 42644.00453254052 40447.29763529036 36752.50607459898 34948.95480885671 46661.77081885208 46985.49165937884 27681.12307300952 33647.74454175017 55007.11632124416 44796.75473689472 42242.56614236405 39546.62199877271 27543.49256377694 30998.48645666256 41971.84911084312 60954.59666362125 52090.74026939146 28572.82777506143 46384.07823956578 8974:0.2035 14062:0.1821 14580:0.1784 16119:0.1652 16550:0.1598 18373:0.1196 18548:0.1057 18549:0.1057 
19659.5060031001 2953.387766776241 1617.470786343264 0 0 40430.20059632772 6560.361198002406 1842.267196004822 21519.77933199785 0 0 0 0 5529.28783746609 0 0 28263.32677213288 0 0 8516.003302330786 4690:0.3162 17537:0.4259 18571:0.4476 18613:0.269 18646:0.0617 
9472.257858577301 8299.865615608358 5042.68980679729 9933.937450700942 5344.667405733693 9206.594951872261 9343.033135594358 1615.393443569714 1596.643198119341 15007.44783880304 10317.82719397993 9138.561600533318 9036.045776175852 2559.557062676684 4153.063150803443 1797.727213602606 12444.55787805582 9229.335946893394 3247.937831700622 8455.406449867607 8450:0.298 9675:0.298 11389:0.2859 11774:0.2812 15184:0.2543 17794:0.2053 17904:0.2017 18465:0.1657 
1078.76039106757 12242.59481189393 10870.80076670927 5328.8124657225 6171.578743195556 20260.74118658411 7259.055151859885 7234.529601899044 540.6744878099945 4193.564940732334 1962.07390208622 1980.925089273754 0 3498.952937650128 26137.38580614435 15727.70913657906 24255.84050854315 2012.358484653863 8506.236166369226 51490.86472936661 7298:0.3295 15817:0.2657 17794:0.2211 18402:0.1857 18522:0.1706 18571:0.1607 18580:0.3174 18646:0.0665 
0 0 1232.110503882049 0 235.936603803002 774.697701343154 0 1601.875378806187 0 0 1530.81341064201 0 76.59598978290715 0 0 0 7243.649971313012 0 0 0 10400:0.7772 13437:0.3597 17470:0.2867 17937:0.2671 18404:0.2296 
14654.62445582597 26294.82900386364 13976.3608396473 12396.29866341893 12758.39006570519 23013.20960640284 20934.54741685371 8688.601680303391 3692.623116427114 16679.226925626 15952.82103292732 24687.64589989736 582.6945632226938 11183.30370826818 1017.900794390049 18145.99928928013 20665.41223091483 8038.524124614523 12419.23197133498 5859.920692321214 6552:0.1904 13485:0.1679 14983:0.1595 16616:0.1449 16785:0.2869 17038:0.421 18504:0.1995 18532:0.0977 18646:0.0384 
0 0 0 0 0 0 339.7957870206023 0 0 0 0 0 0 0 0 5260.811853326494 0 0 0 0 14959:0.2659 15338:0.2616 17587:0.2189 17794:0.2129 17931:0.2077 18538:0.1622 18605:0.143 
60480.88415546996 74098.65081469876 34255.68796140743 55957.12060639757 50565.20145234645 88414.11498355323 93266.89606972029 21980.86543443792 55842.07728661881 64829.43234256355 103002.9922851078 85429.01939277246 85746.81277203445 63317.77804422288 54029.91059768407 84644.20576314155 89627.1931200776 51415.32072008966 50900.02940473739 45570.02587305086 16427:0.1409 16603:0.1394 17794:0.1223 17931:0.1193 18538:0.0932 18605:0.1643 
0 5632.263924312604 0 0 0 0 2347.36968045367 0 0 5295.985850647739 0 0 2982.980064287689 0 5208.015008507288 0 1613.150899643458 2523.176105309106 2384.596168654828 7711.331404004968 4517:0.5208 10361:0.32 10400:0.32 10437:0.16 12794:0.1521 14302:0.1448 15070:0.1396 16823:0.126 17306:0.1205 18191:0.1033 18211:0.1026 18273:0.1005 18296:0.0996 18348:0.0973 18465:0.091 18646:0.0339 18647:0.0335 
0 28.32746765213826 0 0 0 0 0 0 0 0 0 0 0 0 0 0 0 0 0 0 13140:0.255 17379:0.2027 17794:0.1916 17931:0.1869 18465:0.1546 18478:0.153 18523:0.1477 18605:0.1287 
20001.23076765076 26880.91433986903 18748.98174133432 22365.81855755494 19331.48959885099 28240.12720489332 18878.33492251691 19029.95997705135 14665.65027002125 18988.06282349745 36853.16137247279 29495.36106728621 18229.13695703629 14381.6576795233 14545.96798147615 15071.10696239687 36879.5883333243 20366.42936636411 16145.74884163632 11326.02660422576 3022:0.197 6553:0.3645 14586:0.1556 15233:0.1515 18485:0.0974 18504:0.0955 18560:0.0908 18605:0.0821 
23461.63494984893 26850.01788152342 22696.03818515379 27903.49611013113 22144.80817929966 31515.83699371845 26021.75093727597 9282.877039874618 15208.26285448481 25085.66169374925 28362.17042174765 27900.09046777367 25627.35517446979 14052.65525070222 17885.54592047153 34664.02102046641 35406.6046789192 25401.55928282398 18853.33218234584 24597.82761128031 4499:0.2767 5415:0.2767 6111:0.2677 17005:0.1982 18373:0.3064 
6842.143325789943 10845.69835002964 8312.214907478232 6637.962980783003 6852.545583318316 12283.33349667443 13962.93653254228 5702.139889885188 2510.327553921491 8556.921062120104 5591.570333787795 4546.875697471514 2232.133775737234 2254.031860300095 9218.314098964096 3954.872839513309 12876.96812909304 3313.977501057966 6317.93275384063 9122.623741358451 8751:0.298 12183:0.2812 13806:0.2667 14955:0.2564 17460:0.2157 17769:0.2058 18121:0.1913 18335:0.1784 18482:0.1638 18646:0.0617 
18631.63585883636 22711.91700234172 16957.58951500462 21504.07506013894 16213.34183801053 24008.20367120246 21643.53296639007 11679.49202017466 14970.75948489157 22572.88742727784 20647.09288308454 27597.79662993491 22266.15070690346 14799.95797454069 17022.18535213286 17278.69789224563 28750.75975562818 21323.09191522179 14623.11719570073 22383.90804227988 4145:0.3689 6322:0.3569 8192:0.3569 11714:0.3336 18504:0.187 
57545.22691144756 49336.39789793213 51155.18361250274 65830.94536811934 44430.24163186389 54055.63392159635 52096.03441910727 35988.53133240673 37769.25554590789 75779.53721808486 60707.50143603591 70906.91597596803 65705.29494749515 44819.21296555643 33452.96967541336 43892.90946570836 101916.6773525966 72045.90974405476 34649.32576192567 66550.36396906008 15687:0.3598 17350:0.1052 18232:0.0898 18404:0.1663 18594:0.0696 18639:0.0952 18647:0.0294 
29425.01635373367 7479.838260984582 25565.81651680711 35862.4842087001 14089.53579998143 13423.96673091287 15452.69461693154 7408.244360973159 7130.874118659905 48379.99915678239 0 19348.98287570483 43182.95616843933 20780.01247055259 0 8069.558460534015 57273.24536768035 44861.5384671773 6271.608368136497 30481.99166340732 3540:0.1703 9075:0.1604 12010:0.1514 12691:0.1491 14633:0.1393 15263:0.1358 18199:0.101 18352:0.095 18434:0.0913 18605:0.0742 18639:0.1062 18647:0.0328 
0 2985.443261610153 0 0 1007.902288549293 0 12581.17187708387 0 0 4745.104747607127 0 6164.179018879989 0 0 0 1526.515203725561 5063.142461409489 141.2953212733007 2415.336397170819 0 13140:0.2732 15724:0.2467 17261:0.2203 17917:0.6037 18504:0.1603 18555:0.1531 18646:0.0617 18647:0.061 
9557.759311784986 19594.96228009797 10950.54564423337 8561.472740841826 9219.023233812355 13854.23365691007 17568.54561199554 5002.186877494417 8654.44168093573 8243.873787547613 11515.99482244117 13717.61697084752 13611.53643960223 1022.726480463855 3969.211585753978 11398.15293539305 21917.30238462156 11103.74694116542 11477.08937950421 14950.86673743592 3817:0.1526 13611:0.2605 13806:0.3862 14077:0.1287 15081:0.1227 15574:0.2399 17685:0.1007 17735:0.1002 17758:0.0996 18133:0.0922 18160:0.0915 18637:0.0543 18646:0.0298 18647:0.0294 
8225.857482106121 3480.74421287121 8848.291573133314 7244.849650915944 6016.858016754081 7606.144180850168 4211.935996422189 2762.675735959837 4439.536768005681 5187.227050941075 7009.547088573863 5128.603423359453 4770.213677973222 5640.181218065712 6750.776623022461 4051.740728957751 6719.41479028986 5481.893602320073 3583.61302754758 9680.383546652834 15708:0.7799 17692:0.0942 17959:0.1801 18351:0.0798 18549:0.0699 18584:0.132 18618:0.1177 
1484.13957949522 0 1316.71200108585 1053.666483207806 0 0 0 1366.549003648216 153.515290493526 1292.143166514446 0 0 120.3783470234495 656.3249368081205 1467.583501534582 0 3379.020184572353 1491.761842928429 0 2418.316123302161 14914:1.0257 16417:0.9457 17210:0.8878 17379:0.8687 18560:0.6093 18639:0.3943 
0 0 0 0 10366.27666831546 0 0 0 0 0 0 0 0 0 687.9498222421305 83530.26040063915 0 0 0 0 5949:0.168 8305:0.1636 10043:0.16 12382:0.4562 17070:0.1233 17308:0.1205 18010:0.1083 18273:0.1005 18284:0.5 18496:0.3551 18571:0.0819 18632:0.6005 
17201.88980217815 13834.18269681578 15408.64545339267 13106.09494329965 11929.83546152307 13940.96529017008 9993.377071801537 18816.20106827627 15692.24562620533 13696.8916689361 13896.40341923522 23269.95095331832 8578.179577437741 5787.219768255675 15072.69236192267 11279.6806431248 12367.39626768164 12873.65042147756 22863.54377922514 19214.72591992845 4420:0.2213 14700:0.1811 18471:0.1154 18523:0.5539 18614:0.0934 18618:0.1825 
5983.393342740854 0 0 0 0 0 2416.351844842289 0 2777.774065440568 2443.167679824297 0 0 0 2236.947103339058 0 0 0 0 0 0 7298:0.3295 9946:0.9626 13140:0.2942 17611:0.2266 18174:0.4068 18471:0.1775 18633:0.2535 
0 0 0 0 0 0 0 0 0 0 0 0 0 0 0 5554.917696490401 0 0 0 0 17735:0.2234 17758:0.2222 17769:0.4433 17850:0.2194 17959:0.2147 18284:0.1962 18522:0.1706 18605:0.1485 18611:0.1452 
0 48.18620138062153 0 0 3924.41897349522 0 12307.44090774101 3386.847831157887 184.1990582772519 0 10002.91481027287 3046.248255264449 1224.502116142962 225.0214170613755 0 21237.62638549052 0 0 96.95776222999564 0 10676:0.6045 17210:0.2302 18487:0.1688 18538:0.1622 18575:0.154 18610:0.1406 18632:0.126 
0 0 0 0 0 0 0 0 0 0 0 0 0 0 0 0 0 0 0 2853.886492230137 16201:1.1222 16668:0.4346 17180:0.8286 17308:0.6146 18296:0.1692 18465:0.1546 18518:0.1482 18580:0.1375 
9309.735172447557 8350.065607409624 1229.875714530933 9325.34317799296 3029.910828943018 2914.321049314599 6227.449825911334 2739.448000595326 20006.17748394879 7533.038587611731 10891.6813028471 8580.112977432782 10082.44306610836 4578.157835867521 11360.52923408819 3735.144721014692 10676.62888501487 12281.56977532512 3293.314931202211 29010.03907217279 13499:0.2518 14701:0.2415 16668:0.4346 17180:0.2072 18335:0.4996 18613:0.2511 
7637.403809377865 216.1736838582996 8774.088680185041 1293.875782827024 6779.506675829924 7079.408161797529 2875.69905533342 4580.763097847266 0 3893.871974644042 578.4084335773975 0 0 5271.056318963616 0 2171.633395541087 2226.039590319411 0 1184.358502267399 0 6689:0.3173 12794:0.2872 14701:0.2683 16668:0.7243 16783:0.2391 17265:0.4569 18573:0.1545 18618:0.2703 18633:0.1221 
29005.46528466442 34085.27187128383 22444.93126319422 29611.30997391163 24375.85324844838 35021.16803669684 33756.80731661369 12783.61002893015 22645.84883306207 33201.31834535847 32673.87779744601 32849.56802149596 29368.77132012316 19911.25758132669 24452.73404124073 19636.05077309465 42378.64592973603 30988.0254970252 22201.19543803201 36515.16226190089 7106:0.2596 12388:0.235 13310:0.2318 16619:0.1975 17865:0.1724 17888:0.1716 18273:0.1553 18482:0.139 
2099.901687867292 3825.61518025323 347.069932065845 5786.195448074666 2220.700348394564 3823.53189314026 3537.556480000995 1322.682883683936 2639.973231941702 3630.6607616387 3933.756433772922 3529.339030372019 2975.489877819092 3168.18393629073 2230.739313873075 715.4480787574862 5907.860170686894 4073.64270370657 2237.979008411594 20863.75150850585 2970:0.2437 7106:0.2254 16619:0.1715 17865:0.4492 18273:0.1348 18482:0.2414 
9742.085660498351 7684.067058538006 4196.213110867991 8462.934163659595 8385.75366221162 8689.156754648078 7912.763667467508 2686.43562352671 4553.894241622294 9814.696347476944 7515.248200583784 8637.684499935584 8757.410081597871 6585.633543400987 3372.166445031766 12607.34751826637 12291.73613529361 13001.14811532289 6030.276451395359 7265.811326668654 7119:0.3569 8763:0.3476 13904:0.3111 14517:0.3047 14885:0.2992 15811:0.2878 16175:0.2806 17769:0.2401 18585:0.17 
11121.7586714119 21492.08410080605 12314.05864495169 12275.9406402008 12078.70127405649 21248.91825475105 16182.25596888678 8466.184653505747 18590.82735007537 9879.676172952975 20957.68572121714 17468.19195405118 8814.537262079924 9142.329096927777 23236.08232065856 12893.87189498021 12029.40858325253 10124.54802385183 13868.28586079388 20248.20315000983 3540:0.2683 9075:0.2528 10157:0.2473 13218:0.2318 13616:0.2289 13904:0.2263 16985:0.1922 18471:0.1398 
7924.577892841664 0 0 0 0 0 0 1215.249897610161 0 21258.52882943103 0 0 0 31534.65274770465 0 0 0 0 0 0 13806:0.2334 14683:0.2264 16003:0.213 17005:0.1982 18288:0.4774 18402:0.1509 18523:0.1385 18567:0.1312 18633:0.103 
0 790.0458269213011 0 878.311857296772 0 0 1113.428900661732 0 0 569.5971751430718 463.9965612760048 1382.354747647503 1091.285128447689 0 0 0 2753.518603389499 978.5751335109925 0 403.0505314506619 3702:0.6324 5545:0.6324 6063:0.6119 17966:0.3979 18174:0.3778 18288:0.3637 
0 0 873.6343808371032 0 0 0 0 0 0 0 4851.410616093555 4082.273181076256 0 0 16167.85351411378 0 2600.198631960698 0 0 0 16312:0.4463 17248:0.4127 17937:0.3739 18350:0.3303 18485:0.3051 
0 0 0 0 0 0 0 0 0 0 0 0 0 0 4849.515411257389 0 0 0 0 0 3401:0.4024 5960:0.3894 8303:0.3792 13499:0.3434 17460:0.5491 18010:0.251 18518:0.4043 
0 0 4779.877252560816 0 0 0 0 2872.001238818623 0 0 0 0 0 0 0 0 0 0 0 0 3613:0.1925 3842:0.1925 4679:0.1925 4933:0.1925 5014:0.1925 5374:0.1925 9088:0.9068 15590:0.1512 17735:0.1263 18288:0.4428 18504:0.0976 18605:0.0839 18611:0.0821 18618:0.476 18637:0.0685 
16330.86468497826 28596.63243509754 7294.884480414341 26117.21344497547 18377.52940694367 27904.6715462391 27595.95283429233 7151.891279335257 18309.50166829959 15742.24781450371 32092.96959785974 25744.28617108411 25147.28811424567 0 24296.6918375351 19880.07238246987 34783.72440178684 25914.41939694497 19249.00596647789 25727.67900291253 8374:0.2035 15431:0.1709 16871:0.156 18288:0.621 18485:0.1116 
0 0 0 717.5406903415644 0 0 0 0 0 0 2853.903291181746 0 0 0 0 4933.290622658036 0 0 0 0 3404:0.2159 14302:0.1802 17001:0.1547 17571:0.1446 17917:0.2749 17966:0.1359 18348:0.121 18482:0.1119 18518:0.1085 18618:0.178 
2194.448339519151 3151.637800950457 3913.891566319396 7331.423188287025 1707.639347692532 0 0 8013.241994542449 0 6395.634200416544 0 0 2596.410406561851 0 0 10235.15159855306 853.2477716591225 2113.974499382037 0 0 2808:0.1235 11616:0.1068 15580:0.0928 16603:0.0873 17268:0.2467 18296:0.0677 18373:0.2615 18443:0.0629 18459:0.1872 18478:0.0612 18549:0.0578 
0 0 0 0 0 208.0705578515751 0 1089.470473496143 0 0 228.0878832158552 0 0 0 0 0 0 0 0 0 6053:1.0078 9535:0.4908 15911:0.4036 17308:0.3615 18345:0.2923 
803.6975507207688 44294.23813826252 576.279118804671 0 3105.788647465426 4477.293005851471 19801.84072221157 7783.697939836138 12580.86572197793 0 6071.440896471706 4299.676646390149 18957.60803394901 12014.66249804324 13347.93524604555 4244.4254239047 0 0 15708.81316923065 19186.53081593227 14740:0.2131 17654:0.1728 18373:0.1442 18434:0.419 18532:0.1293 18637:0.2779 
0 0 0 0 0 0 0 0 0 0 0 0 0 0 0 0 0 0 0 7434.615865910705 3935:0.2012 9169:0.1896 15199:0.1618 17611:0.1339 17702:0.2648 18043:0.1247 18345:0.4517 18537:0.0996 
0 0 0 0 0 0 0 0 0 0 0 0 4194.350716775692 0 0 0 0 0 0 0 9158:0.3627 15517:0.3047 17611:0.2562 17769:0.2505 17959:0.2427 18465:0.2017 18571:0.1816 18575:0.3617 
0 3633.852497062939 0 1512.449069036624 608.9874745693414 0 0 0 0 0 4776.382725597889 941.2914920693339 2394.979370835338 104.9141754520749 638.4533637195593 0 0 0 0 0 8974:0.3209 9782:0.3209 16008:0.2622 16619:0.2507 17265:0.2372 17956:0.2147 18351:0.1903 18605:0.1485 
0 0 0 0 0 0 0 1926.775976501254 0 366.1869578495098 0 0 0 0 0 302.9268583840818 0 0 0 0 18373:0.3922 18478:0.1836 18487:0.1823 18504:0.1795 18532:0.1758 18549:0.1733 
13837.48627670468 12136.88324961948 13204.10890442766 13281.52997655947 10753.26644078578 15172.21587289212 11437.47588565301 7837.333438646736 7782.794852039809 17016.13403980139 16363.37396413982 14358.11050617788 12161.12382343243 10503.85232315 7465.05646185595 0 11768.82420571397 13166.22326335121 8319.70416379398 25911.10877440556 15911:0.3921 15960:0.3921 18010:0.1578 18326:0.1434 18335:0.1428 18373:0.1401 18465:0.1325 
0 2750.380775471281 0 0 0 0 6341.306786268695 0 0 0 2504.164420622896 0 0 0 0 0 0 0 0 0 9047:0.1703 10043:0.1665 16008:0.8347 17268:0.3776 17918:0.115 18351:0.101 18373:0.1 18538:0.0894 18584:0.167 18593:0.0824 18610:0.0775 
1957.009229881646 12166.71201018362 5010.94181814858 0 4083.969593831098 0 0 9954.156600989158 16.04791170833287 3032.240477129769 2671.889953183538 3023.336746556056 4260.584914847827 4084.21409225319 17521.0526081729 3979.69981800704 0 3820.668340867267 4357.683348277936 36691.17116829456 13515:0.2518 16106:0.2258 16902:0.4265 17027:0.2105 17268:0.2056 18335:0.1665 18478:0.153 18580:0.2751 
0 834.6643832851837 1155.689899808873 2771.444756764938 352.0553016803671 1924.579124824275 0 579.578626928126 4272.073843143884 0 0 1538.040166872764 810.5715535790811 0 4857.982563762456 0 0 0 317.8794372199725 10269.51254967817 7657:0.6589 15102:0.5476 16457:0.5092 17005:0.4878 18443:0.3628 18471:0.355 
0 0 0 0 0 0 0 0 1615.253835505634 0 0 339.9663124257863 208.8720047092218 1301.411593260883 0 0 0 0 0 0 15648:0.3865 17615:0.3273 17688:0.3245 17769:0.3201 17819:0.3177 18010:0.3067 18605:0.2145 
-50749.29749954589 40760.02673456828 39636.23931876335 32067.09116135598 42930.75350315052 64072.24395041166 127779.0848808924 40077.96607659441 43273.91631180669 112120.0213493436 34310.54461049242 61012.17853945885 51199.9226554587 48071.93635428366 28029.91203959991 61595.00905358862 71774.71558545463 45956.87914206329 56353.14102894635 63040.6334796764 12350:0.4037 18610:0.0973 18643:0.0625 18644:0.0543 18645:0.0451 18647:0.0438 18648:0.0432 18649:0.0421 
-25983.19403396754 21428.5782163585 21463.43793431493 21290.37826012493 21997.62073496425 32551.83631268099 46613.59437203766 12262.48205879984 20596.7843141344 45270.49737322256 22273.67297553044 26339.94819005422 28714.98325091676 22860.66191580081 18058.87909727349 19503.83069645707 46318.44445964844 26167.63809086556 20244.48877855607 29311.04464913155 571:0.1342 573:0.1342 574:0.1342 632:0.1342 730:0.1342 858:0.1342 1011:0.1342 1029:0.1342 1117:0.1342 1442:0.1342 1454:0.1342 1788:0.1342 1936:0.1342 2158:0.1342 2235:0.1342 2282:0.1342 2297:0.1342 2428:0.1342 2577:0.1342 2615:0.1342 2726:0.1342 7041:0.1241 18633:0.0478 18645:0.051 18647:0.0247 18648:0.0244 18649:0.0238 
-2019.595002886777 3052.68396670383 3655.828990093758 2275.348727228416 3404.545440596234 6611.233730216504 15229.55132748614 2613.417840825076 2509.097927329336 10559.54778119284 1883.189826641405 5204.532417212758 4516.161107251231 3316.014368823229 1530.800503197735 4656.469791529775 6079.898794318391 3783.744387012648 4993.809715555945 5605.962882793444 810:0.7558 1062:0.189 1342:0.3779 2384:0.3779 6490:0.1748 6527:0.1748 18456:0.0958 18643:0.0498 18644:0.0432 18645:0.0359 18647:0.0348 18648:0.0344 18649:0.0335 
-4857.391118591702 1997.981398526864 7858.602972553625 5575.295385432805 6002.900361603412 13093.84583894939 9389.13940567266 0 6586.545081679589 7412.239496660664 4029.65972398917 1814.248759361516 4791.591536267794 2845.743461908671 5393.392754033572 1672.478090867765 8881.386426495344 7140.55361858441 2301.965845016299 10776.46878038471 1067:0.2374 1138:0.2374 1383:0.2374 1956:0.2374 2008:0.2374 2009:0.2374 3195:0.227 8443:0.2139 16570:0.336 18552:0.1106 18641:0.0655 18645:0.0451 18649:0.0421 
-150000 150000 150000 150000 150000 150000 150000 150000 150000 150000 150000 150000 150000 150000 150000 150000 150000 150000 150000 150000 18570:0.0909 18579:0.0901 18582:0.0892 18645:0.0383 18649:0.0357 
-16833.28185347648 48254.05536970409 4972.507201039752 10134.58782860099 82326.34539475013 0 150000 37742.38064849899 23813.14295379241 136300.1588135394 39794.81971798134 112285.3280180872 81385.75562402056 21516.77483436153 10564.12055135257 28244.38580283245 66598.05163539422 68539.99181765075 65939.11095044488 0 2443:0.3193 18552:0.1488 18643:0.0841 18644:0.1459 18647:0.0589 18648:0.1161 
-6488.278038579443 7489.761254710656 0 6439.22270362699 4572.15212514057 0 0 5249.12561718568 0 0 4998.709308727328 6841.13378965938 11298.40944231819 0 11574.08068906539 0 10861.70855292863 6815.186812151028 7978.363305168851 16743.71157563894 5115:0.5902 5625:0.5902 9112:0.5562 17714:0.3883 18570:0.2787 
-30720.03573287514 20799.46388358789 18157.7825559925 22477.47197414067 15810.03238260529 32157.52883615207 47538.36449179858 19431.00541318697 22403.75668412027 52279.57921390922 26259.77584734764 19999.02826703813 20308.20898332597 24488.93579841823 20703.0029303892 16122.86517025281 31034.14790275639 24772.9743947407 18648.01009116256 37679.76880971596 511:0.197 575:0.197 999:0.394 1447:0.394 18549:0.1843 18613:0.0801 18631:0.1449 18642:0.0525 18645:0.0375 18649:0.0349 
-0 0 7142.524047935068 0 0 19523.27650325744 14369.56332353721 0 8922.344556794849 25251.03440705979 0 0 0 9880.202747577239 0 7394.043552722142 0 0 0 0 5115:0.5208 5625:0.5208 9112:0.4908 18570:0.2459 18641:0.1502 18645:0.1036 18649:0.0966 
-0 0 0 0 7105.888992120599 0 21068.56780338507 5981.038995420821 0 12595.37495009605 0 16086.87026123754 14846.09726842281 2350.432240686579 0 2276.122110866528 11572.85654471678 10779.37012440536 6817.516933545391 0 1497:0.7122 2645:0.7122 18638:0.2385 18644:0.1628 18647:0.1313 18648:0.259 
-14961.37157024432 17246.28121700641 11277.92819603282 16532.90384333261 12813.00165164471 16125.55535755239 37005.57669972406 15238.10516034875 11653.53538629999 43091.18587325679 17895.74364976221 23069.5545041845 20605.85519413032 15319.29513318296 13679.20082174022 12780.16968658031 22931.94339777916 18768.26970569822 20601.67884546778 18641.73951320503 620:0.189 869:0.189 896:0.189 997:0.189 1248:0.189 2049:0.189 3891:0.3614 5431:0.1807 8498:0.1703 18626:0.0704 18640:0.0522 18642:0.0503 18643:0.0498 18644:0.0432 18647:0.0348 18648:0.0344 
-28526.28756313576 17942.98693869583 15333.0193051924 14352.48791300638 18282.30886451331 24599.25996620761 46477.84017099463 17640.46485246487 19493.0689706168 40512.02730169723 13571.75968632573 25086.62149833896 20663.69552170167 20129.63631615649 12605.0900591651 31621.43504781632 28427.41675804511 21035.30590916676 23226.2446209776 23459.135416828 447:0.591 1097:0.197 18572:0.0889 18585:0.0868 18610:0.1615 18643:0.0519 18644:0.045 18645:0.0375 18647:0.0363 18648:0.0358 18649:0.0349 
-18278.58421740494 17111.70232576995 22998.62354293033 18138.29131324535 23078.15819129609 33035.60511363875 52752.18645703378 16213.23444038875 20321.16813376889 47911.03905851644 16042.19132642947 23502.24986244916 22947.33940986284 20638.40839959935 19441.85037650461 19790.58894448223 30744.56510626993 24227.47195993427 22472.95593616824 30784.1349419775 358:0.1624 938:0.1624 960:0.3249 1323:0.1624 1326:0.3249 2316:0.1624 18638:0.1088 18641:0.0448 18643:0.0428 18644:0.0371 18645:0.0309 18647:0.0299 18648:0.0295 18649:0.0288 
-0 0 2188.796717877417 5006.41665467349 3486.994688108628 0 17780.5106024417 5359.626320766838 9046.299897707866 27468.97332836841 0 2158.013649561482 9298.580100010642 10858.82760472815 0 3764.129946388226 19517.93473629724 14411.35121780075 2529.5957703184 7623.719193721503 691:0.6614 16435:0.3152 18552:0.1027 18628:0.0818 18631:0.0811 18639:0.1314 18641:0.0608 18644:0.0504 18645:0.0419 18647:0.0406 18648:0.0802 18649:0.0391 
-0 0 0 0 1052.881888181394 10406.03553748355 25028.28561726489 4783.82463084769 3587.315001450609 18794.59605110799 0 2146.047978975991 5429.832320530397 6983.753049553424 0 7631.625670144622 3502.437740884824 0 9460.832765971583 0 363:0.1715 615:0.1715 675:0.1715 719:0.1715 952:0.1715 1440:0.1715 1920:0.1715 2485:0.1715 2515:0.1715 2989:0.1715 11015:0.1483 12169:0.2916 16708:0.1201 17456:0.2237 17577:0.1098 18520:0.0822 18605:0.0715 18626:0.0639 18634:0.0597 18643:0.0452 18644:0.0392 18645:0.0652 18647:0.0316 18648:0.0935 18649:0.0608 
-80560.62420156592 88001.73027155528 76236.69510381443 81713.13904195614 69435.910494314 126171.5377366562 147512.0354723447 45302.30766152658 67673.55562019235 142133.5303726791 87178.31099246473 84146.93805639306 83359.94566672677 72554.64807879555 68684.91595495536 70151.39700515337 130209.9863734214 85336.96584302216 68328.87743146361 116240.082086906 679:0.2058 722:0.2058 1179:0.2058 18631:0.0757 18645:0.0391 18649:0.0365 
-17276.94146984469 19551.57604592845 12179.37347891711 18209.735242763 9160.502620165313 2185.522958011263 0 5928.741595775764 10453.83955294063 20281.62769570064 6240.25906544295 15811.30740224343 30085.42165766104 9548.987503673654 15697.25395657062 6848.117467831851 36204.37218091427 29327.81079097741 7522.812413730889 23131.51402591986 2848:0.2315 2922:0.2315 3862:0.2213 7594:0.2141 11015:0.2002 12169:0.1968 17456:0.302 17577:0.1482 18578:0.1037 18620:0.0898 18639:0.138 18647:0.0427 18648:0.0421 
-0 0 0 0 0 0 44315.05491756768 10727.24573328845 0 69773.55875813717 0 28097.13794228986 0 3188.057767596261 0 9737.676279720046 0 0 62062.16676565758 0 600:0.2058 658:0.2058 1135:0.2058 1352:0.2058 15689:0.1546 18456:0.1043 18503:0.0998 18614:0.166 18641:0.0568 18643:0.0542 18644:0.094 18645:0.0391 18646:0.0384 18647:0.0379 18648:0.0748 18649:0.0365 
-23044.94906071933 27221.78172484122 18256.41168995765 22862.11620304828 17989.56878463032 26971.97810026692 24438.02601316014 9941.169193053847 16452.16204026685 30391.69075762874 21261.5412667467 20483.45511596293 20813.8022171953 14269.33613879311 17372.8377223219 14642.10935008446 32776.607755261 20271.73137281844 15822.27620724588 25622.76548329711 890:0.2315 1590:0.6944 2196:0.2315 18640:0.064 18646:0.0432 
-10334.33101136851 10898.35620283225 18515.37511608652 16988.1629309719 8407.734640395185 32867.07627086446 19594.65820975021 11770.6053273849 26472.10106851632 38354.45238596133 10486.66817682318 10751.60979576157 11469.35008508155 21112.50200461009 20510.46776733334 19227.48211428828 18093.94297015225 19416.74643984012 10987.01634162902 29651.43246134855 523:0.2013 876:0.2013 1758:0.2013 2362:0.2013 2647:0.4026 3001:0.2013 4658:0.1925 18572:0.0908 18636:0.0687 18640:0.0556 18641:0.111 18645:0.0383 18649:0.0357 
-0 0 0 0 0 1518.848382459225 16310.41039625961 0 0 7680.803655932894 0 0 0 0 0 1873.391870804828 0 0 4103.525355333794 0 361:0.2645 584:0.2645 1070:0.2645 2517:0.2645 3557:0.5059 7594:0.2447 13467:0.2158 15807:0.3947 17577:0.1693 18602:0.1118 18643:0.0697 18644:0.0605 18645:0.1006 18646:0.0494 18647:0.0488 18648:0.0962 18649:0.0938 
-0 0 0 0 0 0 0 0 0 1906.48776788075 0 0 0 0 0 0 0 509.6868087887274 0 0 6693:0.2763 8625:0.2691 8913:0.2691 16570:0.2113 17456:0.1948 17577:0.1912 18456:0.1514 18578:0.1338 18639:0.1781 18641:0.1648 18645:0.0568 18647:0.0551 18648:0.0543 18649:0.053 
-8054.093709415988 7420.531569814187 6236.605200818135 5835.418902635801 7210.350412855532 8659.938663848365 8610.8305879217 737.9374858824367 3246.602457349422 5951.163851398698 8463.245326366276 4837.666219787124 5673.943229856365 2033.017226283212 5021.684733850733 1797.701216349333 10030.34101018218 5963.879028007944 4118.784150029556 7969.700409107098 417:0.2572 861:0.2572 1176:0.2572 1195:0.5144 1637:0.5144 1676:0.2572 2036:0.2572 2559:0.2572 8720:0.2317 10059:0.4534 18552:0.1198 18646:0.048 
-55341.48760873083 118584.0665875931 64957.22274580858 81868.93889760722 150000 117278.1646614864 150000 123126.8235372405 62524.41841281365 66961.61917027469 150000 35826.92739652812 39107.56230920537 116292.102505865 72264.06871279047 150000 74468.05616974816 31622.89200748584 46623.70868290449 116714.6213507939 18552:0.1961 18583:0.1862 18600:0.0901 18636:0.1437 18642:0.0561 18645:0.04 18649:0.0373 
-33594.06691016633 41901.20380744136 31702.23177278784 39659.41088851516 25360.81766115811 68921.70608351254 80441.16923184124 19592.22373496317 39764.50984268402 70329.77069899793 39332.88961574557 26908.54440932615 27046.24977992434 43431.57331585901 28892.51637497374 35255.99027790714 61895.78485301342 25093.21181956224 36751.56369702627 71843.47429558264 550:0.197 551:0.197 1749:0.394 18628:0.0731 18642:0.0525 18645:0.0375 18646:0.0368 18649:0.0699 
-6399.033782024997 7500.992064020164 7290.039784390141 6696.645414446879 3805.102441675378 0 0 6081.059271601805 5684.258839374485 0 8792.741632090612 8131.728815797909 7595.332599141372 0 4819.813630705628 0 0 5880.846279095588 10495.25647334395 0 5980:0.1748 6557:0.1748 6902:0.1748 7745:0.1748 8705:0.1703 9224:0.1703 10997:0.1634 11593:0.1634 11971:0.1607 12351:0.1607 12761:0.1583 13345:0.6245 13919:0.1524 15511:0.143 16042:0.1391 18597:0.0818 18640:0.0522 18642:0.0503 18643:0.0498 18644:0.0432 18645:0.0359 18646:0.0353 18647:0.0348 18648:0.0344 18649:0.0335 
-0 0 0 0 5307.879750973403 0 24728.22080619007 0 0 4656.259443942554 0 0 0 0 0 0 215.7366494794164 0 0 0 2462:0.5144 2953:0.5144 13345:0.425 18552:0.2397 18644:0.1176 18645:0.0978 18646:0.0961 18647:0.0948 18648:0.0935 18649:0.0912 
-43257.97316601346 15875.69756213038 10354.84686999746 44278.66661359827 8368.641592380318 0 57565.62998812107 58478.71036189417 36250.47316003578 47890.06788161016 359.0406083115992 48645.58633033078 100968.1941081194 45214.12207628407 9631.599721254333 28545.21156358909 109118.1008294534 97532.37157180638 8384.947968354174 0 1591:0.1323 1729:0.1323 11581:0.1144 15807:0.0987 16558:0.0936 17577:0.0847 18456:0.0671 18500:0.0645 18543:0.0623 18562:0.0607 18600:0.0567 18627:0.0492 18636:0.0903 18637:0.045 18639:0.0789 18640:0.0366 18645:0.0252 18647:0.0244 18648:0.0721 
-60949.35910951974 37788.48631861665 36193.05241460832 50995.49171502664 41817.60939036177 36156.15165707886 41361.07180925712 22393.50183530196 28490.57355019454 58365.23104243635 47555.50423648468 44205.55100329052 57597.58300870714 30877.73462945242 31069.22666817599 38317.49490509508 80276.93775031231 80879.66326508972 32915.12195218699 44543.11738671001 420:0.1624 672:0.1624 945:0.1624 1158:0.1624 2353:0.1624 2900:0.1624 3006:0.1624 15807:0.1212 18585:0.1432 18602:0.0686 18634:0.0566 18638:0.0544 18639:0.0968 18647:0.0299 18648:0.0295 
-53184.70225994584 27452.09564504987 49831.83430195646 58550.32431491942 39849.40183892177 57325.48267005611 86487.14852874693 47169.01664008961 45428.75527036518 121374.3078859349 44271.79626467554 45680.03756599608 76777.15371496799 65748.72634557862 26773.30994291488 42969.36264385268 113982.0834623581 141995.845775448 41476.28632408645 82397.64087023986 624:0.2437 1580:0.2437 18596:0.211 18602:0.1029 18639:0.1453 18645:0.0463 18647:0.0449 18648:0.0443 18649:0.0432 
-0 0 0 0 0 0 0 0 0 545.9829526936007 0 0 0 0 0 0 0 0 0 7704.504897578453 3172:0.1054 3493:0.1054 3580:0.2108 3898:0.1054 5166:0.1054 5357:0.1054 8461:0.0993 8644:0.1986 8856:0.0993 8920:0.1986 9005:0.0993 9288:0.298 9399:0.0993 9637:0.0993 9769:0.0993 9857:0.0993 9898:0.0993 10563:0.0971 10664:0.0971 10801:0.0971 11185:0.0953 11987:0.0937 12114:0.1874 12123:0.2812 12985:0.0911 13804:0.0889 14582:0.0871 15086:0.0848 15198:0.0848 15366:0.0841 15612:0.0828 15807:0.0822 16435:0.1576 16570:0.078 16819:0.0765 17577:0.1411 18025:0.0656 18540:0.0521 18626:0.0411 18627:0.041 18641:0.0608 18642:0.0881 18645:0.0419 18646:0.0206 18647:0.0203 18648:0.02 18649:0.0391 
-15343.59454656077 15841.69410380153 9635.183027469073 13143.27375791729 11042.5990961516 0 0 6387.726195257547 8246.69013802581 0 13731.73078260505 16702.80750808091 17570.62176583931 0 11794.50999581201 9587.876656618235 21981.27488266309 18020.90590094988 11813.61122070668 0 3271:0.118 3272:0.118 3581:0.118 3728:0.118 3768:0.118 3980:0.118 4040:0.118 4355:0.118 6304:0.1142 7835:0.1142 8461:0.1112 8644:0.1112 8856:0.1112 8920:0.1112 9005:0.1112 9288:0.1112 9399:0.1112 9637:0.1112 9769:0.1112 9857:0.1112 9898:0.2225 10563:0.1088 10664:0.1088 11185:0.3203 11987:0.105 12114:0.105 12123:0.105 12985:0.102 13804:0.0996 14582:0.0975 15086:0.0949 15198:0.0949 15612:0.0928 16435:0.0883 16819:0.1714 18025:0.0735 18456:0.0626 18641:0.0341 18646:0.0231 18647:0.0228 18648:0.0224 
-20885.27789219546 30783.43243477194 22361.9538196662 23558.16626944245 23380.4246387874 36495.53757910979 59304.30456215738 17964.9063403621 24861.67594489798 62347.99661136904 17151.3010759944 32648.91843978346 27650.69082044129 23989.36919289261 19510.70039981355 27126.27180432772 41633.23514718202 28405.79066859229 28323.59776663671 36897.65473630412 454:0.1493 471:0.1493 608:0.1493 709:0.1493 726:0.1493 729:0.1493 753:0.1493 978:0.1493 1241:0.1493 1310:0.1493 2460:0.1493 2676:0.1493 2677:0.1493 18582:0.0662 18641:0.0412 18643:0.0393 18644:0.0683 18645:0.0284 18646:0.0279 18647:0.0275 18648:0.0543 18649:0.0265 
-118317.2165680435 77161.76694426242 58125.39323038689 53098.19802631873 55867.93081188193 130586.0821828536 150000 64132.73897186121 95863.01920808325 150000 63089.57441197734 74119.85302317915 72745.07332037142 82564.92071647794 53871.45774806883 57343.00093046604 132935.5105565647 68235.17384531842 74934.55805170286 114165.226872262 426:0.1116 492:0.1116 665:0.1116 673:0.1116 1362:0.1116 8694:0.1005 18571:0.1007 18601:0.0954 18606:0.0462 18613:0.0907 18626:0.0416 18633:0.0794 18643:0.0294 18644:0.0255 18645:0.0212 18646:0.0208 18647:0.0206 18648:0.0203 18649:0.0198 
-80728.71595518687 125816.3676323075 102347.0567525152 57668.30220684061 96178.95937786317 137319.4635883312 150000 150000 87068.06447028514 150000 65025.4558367521 99611.151119713 65054.16146221024 150000 49653.5470427758 120923.0427181484 136795.2191117225 82820.76903506185 103000.169101945 129388.6408698061 18499:0.1883 18543:0.1211 18560:0.0592 18600:0.0551 18636:0.0439 18638:0.0861 18643:0.0339 18644:0.0588 18645:0.0489 18646:0.024 18647:0.0237 18648:0.0234 18649:0.0456 
-0 0 0 0 0 4869.181605308738 0 0 0 0 0 0 0 4107.707155758495 0 0 0 0 0 0 3172:0.1029 3493:0.1029 3580:0.2059 3898:0.1029 5166:0.1029 5357:0.1029 8461:0.097 8644:0.194 8856:0.097 8920:0.194 9005:0.097 9288:0.291 9399:0.097 9637:0.097 9769:0.097 9857:0.097 9898:0.097 10563:0.0949 10664:0.0949 10801:0.0949 11185:0.0931 11987:0.0915 12114:0.1831 12123:0.2746 12985:0.0889 13804:0.0868 14582:0.085 15086:0.0828 15198:0.0828 15366:0.0821 15612:0.0809 15807:0.0803 16435:0.154 16570:0.0762 16819:0.0747 17577:0.1378 18025:0.0641 18540:0.0509 18626:0.0401 18627:0.04 18641:0.0594 18642:0.086 18645:0.0614 18646:0.0201 18647:0.0198 18648:0.0196 18649:0.0573 
-0 0 0 0 0 13069.84295386731 17650.81710535799 0 0 17742.96040769792 0 0 0 8752.420496762483 0 0 0 0 0 8345.853680253644 3271:0.115 3272:0.115 3581:0.115 3728:0.115 3768:0.115 3980:0.115 4040:0.115 4355:0.115 6304:0.1112 7835:0.1112 8461:0.1083 8644:0.1083 8856:0.1083 8920:0.1083 9005:0.1083 9288:0.1083 9399:0.1083 9637:0.1083 9769:0.1083 9857:0.1083 9898:0.2167 10563:0.106 10664:0.106 11185:0.3119 11987:0.1022 12114:0.1022 12123:0.1022 12985:0.0993 13804:0.097 14582:0.095 15086:0.0925 15198:0.0925 15612:0.0903 16435:0.086 16819:0.1669 18025:0.0716 18456:0.061 18641:0.0332 18645:0.0229 18646:0.0225 18647:0.0222 18648:0.0219 18649:0.0213 
-20534.63790003882 23234.74354361457 17423.70375183177 16356.10356539019 17748.87863046463 21506.46377317318 24622.03264156249 8855.10305360673 11660.66795724194 19946.2021725643 16562.87171724199 13078.37132034534 15954.83872217267 9914.465099990635 13492.80062936945 11088.94630603616 27362.46981382922 14794.78034546883 4941.938737571622 20883.03506641458 818:0.4026 2856:0.4026 5310:0.3849 6592:0.3724 18638:0.1348 18646:0.0752 
-7550.100872681692 8753.398381468585 5853.737101970449 6539.650069210056 5516.150932063101 8756.755169993725 7799.819741755643 3042.575212798281 4774.878553865097 8725.677487868008 6756.741250378165 6434.9978681905 6771.386652849158 4184.440528529731 5495.696640207084 4826.12038182405 10859.72667052797 6542.420968943875 4613.128516254977 8251.459276891796 702:0.3193 951:0.3193 1173:0.9578 1671:0.3193 2562:0.6386 2761:0.3193 6592:0.2954 18646:0.0596 
-0 0 0 0 0 0 0 0 0 0 0 1717.553712805514 0 0 0 0 0 0 12097.57731469464 0 2100:0.6614 5310:0.6324 6592:0.6119 13329:0.5464 18614:0.2668 18638:0.2214 18646:0.1235 
-10648.17417723406 0 6145.012544178167 12268.55999783729 2631.69669377573 0 3590.887970031962 4784.212308884112 4923.510413545867 23806.87315106705 0 5647.195930575744 19668.73743588793 6998.47290338622 6.31072709077635 2882.98259820799 25181.15371691333 24377.45184778237 3013.310337993533 10287.31226775056 529:0.7122 11912:0.6056 15447:0.5391 18639:0.4246 18647:0.1313 18648:0.1295 
-1661.715362246787 9084.055407494392 12982.96965551258 7773.691396520074 15669.98260933645 11677.2155478614 0 8954.342448828329 5006.086803859506 16605.72582942724 5285.221310307642 3238.023658824331 5910.263403741203 7597.711551658223 16292.27888170571 7292.289114427264 4129.709374197526 12589.30444308659 1584.686749588492 9424.221900945477 1068:0.3704 1069:0.3704 8694:0.3337 18503:0.1797 18621:0.143 18638:0.124 18641:0.1022 
-8201.067247309455 18088.69520274383 11272.0815942624 3271.266479000067 10125.05741965076 24580.69098544525 30988.49121690496 9782.812515215322 22025.07057744679 52587.56056821383 2059.378952764964 18363.90418246093 13912.7513307584 31526.87645477412 15160.44083944119 15798.91834587501 25673.10033388386 19522.95520109569 18844.14686798423 19720.97746574798 958:0.3858 959:0.3858 15807:0.1439 18579:0.0863 18600:0.0826 18641:0.1064 18644:0.0441 18645:0.0367 18646:0.036 18647:0.0356 18648:0.0701 18649:0.0342 
-19765.40600342017 20230.97133645438 17749.64208548533 16880.31817478589 15845.90312325923 28267.2459017912 36949.89261598197 13389.59305887243 16947.19146478063 37106.26734243891 17677.77435174585 19630.84394889767 18736.80227618423 18678.04926701899 16655.99615566697 18728.95670140631 28193.3426320636 19670.74612481739 19468.22727211494 29251.73948063664 531:0.1382 555:0.4146 721:0.2764 953:0.2764 1313:0.1382 1551:0.1382 1703:0.1382 1817:0.1382 1942:0.2764 3000:0.1382 18610:0.0566 18641:0.0381 18642:0.0368 18643:0.0364 18644:0.0316 18645:0.0263 18646:0.0258 18647:0.0255 18648:0.0251 18649:0.0245 
-2472.251665088113 0 1986.1564764292 0 5168.55311170113 9594.473299130153 42327.32739221349 2125.293021114428 7633.465805161439 37329.29988649317 0 0 8287.150215178597 10066.44331516417 0 11059.16260261987 30568.29189089574 2787.267044623257 11336.68223153932 9856.244326139971 966:0.8417 18645:0.1601 18646:0.1572 18647:0.1552 18648:0.153 18649:0.1493 
-0 0 0 0 3595.59052277365 0 0 0 0 0 20511.25276743827 0 0 0 0 0 0 0 0 0 1622:0.2502 18456:0.2538 18532:0.1188 18552:0.3498 18610:0.1026 18641:0.069 
-41250.92343255935 32516.98212164764 30680.91224492485 40677.87674616677 28612.25837810813 58434.14290009585 53291.94391080749 26450.48241046688 36680.58764969891 53073.47940238799 34907.55066785291 33690.75269389393 33706.43104309151 27170.23300788546 27426.31210682856 39569.34188779331 52450.8737870144 52588.30376445749 27455.39426808767 46959.11341903476 678:0.463 10801:0.204 18548:0.2168 18565:0.1055 18645:0.044 18649:0.041 
-40795.11237225129 114729.4684637222 45752.4418696408 60733.14416622038 43234.23046386515 93478.71127535903 112476.9202258767 28683.9266122216 47271.90887409182 69318.8888241058 62844.70671447549 43748.0479713282 40667.38121205969 43598.43513185195 43724.28352177746 26734.62601742293 101097.1781355496 60882.95635195278 46380.66069501292 102207.503801521 718:0.2153 1370:0.2153 18533:0.1022 18565:0.0981 18602:0.091 18620:0.1671 18638:0.0721 18645:0.0409 18649:0.0382 
