svm_type c_svc
kernel_type rbf
gamma 9e-06
nr_class 21
total_sv 5438
rho 8.12838 -2.93938 0.296997 4.74786 -1.7257 1.75998 -8.07673 14.9728 6.72543 -4.06696 4.26033 5.97175 -3.34544 8.50465 7.21439 -4.26733 -2.34403 1.45274 6.39484 -3.41342 -10.459 -7.65846 -3.43788 -8.82854 -9.0976 -22.4998 9.83033 1.1793 -18.6638 -3.11905 -3.47245 -12.0729 3.52269 -1.21227 -7.54417 -16.559 -7.34829 -0.553811 -14.2463 5.46877 5.93882 -0.0183893 3.92254 -1.20514 18.4304 8.64664 -0.320516 6.05758 7.05739 0.344166 11.0679 8.04456 1.95275 2.5044 4.33093 8.24949 0.21291 3.46731 -2.42915 -0.366518 -9.11029 13.464 6.52118 -4.52539 3.35361 5.16198 -3.16063 9.02915 5.05564 0.977332 -2.64736 1.56316 5.15034 -5.06873 -5.78289 -5.64123 -11.2642 10.4494 3.20512 -8.20708 0.120533 0.744536 -8.00302 4.44309 2.01267 -4.64501 -9.05972 -3.07008 1.84478 -7.60881 2.87334 -4.75065 15.3608 8.06967 -1.68255 6.04341 6.56143 -0.177487 9.98632 7.10699 0.950987 -0.401909 3.5776 6.78074 -1.09745 -9.85343 15.7917 8.68005 -3.75028 2.85283 4.8756 -2.91982 10.1549 5.11958 0.0737473 -5.89209 0.234528 6.26214 -4.5438 24.9092 16.3271 8.26314 9.85311 12.8806 3.41919 20.718 12.7951 8.64506 5.13391 9.22602 14.8942 5.4748 -5.62374 -20.537 -9.74085 -10.7212 -18.0462 -7.09833 -8.58601 -16.1226 -19.4721 -13.039 -7.34743 -17.7274 -11.8954 -2.58798 -3.68206 -8.71585 0.83067 -0.37188 -8.08822 -10.1703 -4.98062 -1.20165 -10.8844 6.54113 8.57236 -2.52826 17.6758 8.53439 5.42298 -2.15104 3.56372 6.78986 -1.1148 1.6849 -6.24748 4.59754 2.19705 -4.92628 -5.40515 -1.78039 2.92969 -7.61327 -9.43875 4.39317 0.508693 -5.63047 -9.51976 -2.60207 1.90958 -8.76882 11.0435 9.06553 2.49672 1.44445 4.87408 8.43778 -1.04706 -2.38821 -9.3001 -13.7952 -6.91386 -2.08346 -14.8577 -5.8523 -6.54723 -3.64895 0.473476 -10.0489 -2.96171 1.74523 6.91291 -5.51082 5.48365 9.45991 -2.44845 4.97248 -5.98725 -9.57049
label 1 2 3 4 5 6 7 8 9 10 11 12 13 14 15 16 17 18 19 20 21
nr_sv 216 153 234 244 338 234 375 370 116 183 385 212 216 321 173 233 237 417 302 166 313
SV
57.08260933883793 42.94054835888275 64.07921050930148 81.49236478248126 47.50005233522103 75.16527634393702 73.36573554590049 21.19086633195655 49.6096066498968 71.00837668574789 59.26589980186633 64.60507004018997 78.40389966389928 46.31781911152356 33.89778917999958 70.66466949575924 117.8140742838941 67.40329585778321 36.47597506084207 37.23171398727316 7348:8.565983 13545:7.554382 16902:12.79386 18133:5.347108 18160:5.307887 18518:4.446946 
21.7954620902073 10.85620663363091 27.76479341511372 38.93960711233323 43.2645352865214 37.04252538214297 0 7.197109057509541 25.35806317844304 11.53203916813723 32.90597438713535 41.5417662173214 14.75478885492703 18.27704401487541 26.4130934345914 114.7016177077674 38.07738162944657 18.1437124280708 9.637636788983915 20.47888407833851 12450:7.755053 15153:14.238128 15186:7.119064 17919:11.243088 17959:5.58283 18232:5.207346 18351:4.948331 18504:4.488446 18632:3.402627 
0 200 60.42888415009888 32.8143204831216 0.7586613704585028 13.19956014898043 171.9323578695705 0 10.99394179916442 19.1061309591162 0 0 0 0 0 25.06834385430254 75.37186398533227 0 21.48835567414623 79.12542281907676 17470:6.020452 17758:5.77789 18357:4.934998 18518:4.446946 18646:1.728919 
60.35307087238274 176.0108836061716 73.70163519879419 36.63978581354858 44.48577683109019 69.31484100093975 147.670547198286 80.94904498844592 46.42747366085715 101.9202882462206 39.00040163985783 60.44916304991975 98.25058953135124 61.26062760159915 40.85876555724118 32.74275611147044 141.0677956584961 75.46440120076723 72.50464191911414 122.5843878123314 12440:7.755053 15153:7.119064 15516:7.007839 17079:6.288716 18611:3.774334 18637:3.149883 18646:1.728919 18647:1.706893 
1.371368296408341 0 0 10.70223148808205 0 0.2294546072566427 0 1.76482017884615 0 0 0 0.8212570822844627 0.7657036759628173 0.5345789276927488 0 0 0 1.457637869065044 0 0 11251:8.006368 11707:8.006368 13355:7.649693 13384:7.649693 13437:15.108764 14816:14.488456 14983:7.179689 15824:6.907755 16312:6.694181 16730:12.973084 17027:6.314692 17667:5.857933 18518:8.893892 
200 200 200 200 200 200 200 200 173.5944053448615 200 200 192.561800402667 200 146.8282976605837 195.2610718337168 200 200 200 143.1569872573763 200 15516:7.007839 16486:6.584982 17721:5.809143 18560:4.265302 18646:1.728919 
54.90810530304278 95.00652874949657 76.24461953507237 59.84314590811206 62.29129885405065 78.46489915737817 114.0759643005411 32.79939744353737 4.166060443092291 86.97762096686196 37.13024985012312 74.21074266357726 134.6831962262227 41.49180526052891 34.6496322656667 77.14922979496879 160.0606443247027 85.39570406465253 48.62149095715721 88.53687812558897 9074:8.34284 15291:7.061906 17937:5.608472 17954:11.16566 18229:5.216079 18523:4.430817 18562:4.248495 18646:1.728919 18647:1.706893 
0 0 0 0 0 0 56.04362246944386 0 0 0 0 0 0 0 0 0 0 8.359035047963495 0 0 8417:8.34284 15153:14.238128 16427:13.240146 18434:4.748271 18555:17.143404 18637:3.149883 18639:5.520192 18647:1.706893 
41.67526527366611 200 69.89391805154908 0 36.81938342330113 68.45288186193164 200 0 0 104.5051127142116 10.7134028997863 52.37008516293714 106.963154704077 0 1.674685284124148 84.74193731266291 200 66.43247376309749 29.66843521203891 155.0883256721685 13834:7.467371 17098:6.263398 17143:6.238706 18637:3.149883 18646:1.728919 18647:1.706893 
200 200 200 198.6438922885704 198.5705335961151 200 200 199.3862596630245 194.6922880848443 200 200 200 200 199.878745745757 200 196.806320783343 200 200 200 200 13834:7.467371 17098:6.263398 17143:6.238706 18637:3.149883 18646:1.728919 18647:1.706893 
2.489845424781891 0 2.40201573046134 5.610157784933956 0 4.951577769026675 0 0.3268567949107847 9.19038711697587 55.31927129364398 2.961192668108093 7.233422274542094 31.20070685489382 61.56990567137021 11.44152720496458 0 0 0 1.701928965356791 0 6629:8.565983 9993:8.160518 16514:13.169964 18357:14.804994 18562:4.248495 18567:4.199705 
200 200 200 159.7797017481395 200 200 200 117.0945421264739 140.4405717107671 200 168.7836539640974 200 200 160.5159696971443 172.1854332197863 200 200 200 181.4136344245492 200 15516:7.007839 17904:5.648213 18160:5.307887 18585:4.08016 18646:1.728919 18647:1.706893 
0 34.06576980047249 9.406723283666848 0 8.773713262531864 5.039950147463806 53.06676474143382 0 98.88895146589569 23.41222570054946 12.16089510190291 0 0 0 38.24971412143397 0 86.2205770682544 0 0 123.3004088243983 6883:8.565983 18229:5.216079 18325:5.025024 18404:4.822379 18465:4.639072 18471:9.22948 18646:1.728919 18647:1.706893 
64.53559529753835 71.10210297063668 75.4758162762401 70.9196272285799 67.42969268329325 74.85323036521295 68.98232176707802 49.08511840448612 46.13179505584409 70.32160495463656 57.04420519748086 76.0847027651083 160.2129677232295 54.99707387025549 88.42304515356602 116.3795701589845 85.1354285102836 66.94089171859778 50.36986120211785 86.81801960500897 9762:8.34284 12421:7.755053 14586:7.31322 15338:7.061906 18405:4.810614 18482:4.586302 18575:4.159264 
0 0.9058713900701778 0 0 0 0 15.05474152039914 0 0 0 0 0 0 0 0 0 4.449031281354442 0 0 0 5281:17.70733 11499:8.006368 11615:16.012736 14568:7.31322 15708:6.907755 18191:5.270146 18351:4.948331 18555:4.285851 18646:1.728919 18647:1.706893 
0 0 32.09315900601213 0 0 0 0 0 0 0 0 0 0 0 0 0 0 0 0 0 3495:8.853665 4898:8.853665 6090:8.565983 6117:8.565983 12795:7.755053 13136:7.649693 18563:8.490334 18610:7.590598 18637:3.149883 18646:1.728919 18647:1.706893 
76.01788196501049 141.339834411123 115.0291218617407 64.60547293809336 63.67797501837656 85.80456124241813 129.867497868387 82.74977014478635 61.72238392943773 78.19289644551183 64.59911371207919 71.20129680485832 67.95529614416357 85.49396791637911 58.70525617684711 94.08750755204669 104.1988495454817 67.49489516663807 68.53118092369779 105.3783650754668 3495:8.853665 4898:8.853665 6090:8.565983 6117:8.565983 13136:7.649693 18563:4.245167 18610:3.795299 18637:3.149883 18646:1.728919 
0 0 0 0 0 0 0 0 0 0 0 0 0 0 0 0 0 0 90.39847065296635 0 14260:7.387328 16631:13.036582 18191:5.270146 18325:5.025024 18351:9.896662 18593:4.038775 18605:3.860968 18614:7.471344 
0 0 0 0 0 0 0 1.206706313084261 0 0 0 0 0 0 0 0 0 0 0 0 4517:35.41466 10361:8.160518 10400:32.642072 10437:8.160518 14225:7.387328 14302:7.387328 17440:6.040255 17526:5.963294 18191:5.270146 18465:4.639072 
10.79737531802084 48.81835705943596 34.23927455634361 13.36423778323637 15.97037566783043 25.2221874069029 17.97989522518805 32.82971825027935 15.88192722520998 23.19404926048261 22.41488978773974 8.08308360118799 21.31506129699975 9.334879743908987 49.99569171806017 11.91769598998692 24.82974457694121 0.8831396201934992 12.96426100057184 30.38570774988461 9149:8.34284 11377:8.006368 14024:14.934742 15223:7.119064 17819:5.718171 18284:5.100247 18357:4.934998 18496:4.527328 18532:4.39545 18646:1.728919 
93.16670482093316 69.89557044043249 84.22841109592579 77.15532864952546 113.2142588630991 79.11125681973729 75.88623732481368 53.57186239815476 63.24510102060731 57.45761641560979 71.665064013547 63.56156909383722 80.62097754610664 47.66138925694448 63.15472380731902 126.3236308494574 80.98038396470459 117.9934726500494 63.67859953034244 92.10624118790365 11381:8.006368 11615:8.006368 17227:6.191078 18357:9.869996 18585:4.08016 
0 0 0 0.9485400218971536 0 0 0 0 0.598187950588597 0 0 0 0 0 0 0 0 0 0 0 8549:8.34284 8984:8.34284 11082:16.012736 11612:8.006368 12865:7.755053 13908:7.467371 14062:7.467371 15057:14.238128 18350:4.955065 18518:8.893892 18605:3.860968 18613:3.766069 
94.74916326537087 99.1821787988298 98.06123111972722 99.75470677624811 97.45849928122638 118.0403208649532 121.972199345683 54.03834321959205 84.8148126685182 75.29296254481973 102.5639952441952 105.3326397489009 107.4182470883191 68.65633819640402 91.16277579800423 114.8995673672996 120.6399876055124 96.85270053555917 70.55338638891116 103.7781469452391 5626:8.853665 10776:8.160518 12255:7.872836 17033:6.314692 17147:6.238706 18357:4.934998 
1.479024060517078 0 0 1.533387167794954 0 1.446276895398257 0 4.842071281550726 0 0 0.4764043337314576 0.3728493537066783 0 5.336800031963693 0 0 0 0 2.578883050563008 0 6121:17.131966 8293:8.34284 8468:8.34284 9022:8.34284 10424:16.321036 11763:7.872836 13218:7.649693 13291:7.649693 13576:7.554382 13671:15.108764 14818:7.244228 14955:14.359378 16412:6.620073 17350:12.20426 17546:5.944945 17819:5.718171 18487:4.55865 18605:3.860968 
126.1204151985807 145.8274624457892 143.0684199968492 133.1342809874366 125.4606987859868 143.7047163567715 159.7151073754213 96.58182404575116 101.2148388853773 141.0296801834337 130.9606128498193 135.688839954046 150.9659852830521 99.49795387148444 118.8329576287031 139.4246699858992 171.2255350184831 145.3383728619901 94.01955355719238 150.8781978068598 4220:8.853665 5679:8.853665 12741:7.755053 13234:7.649693 14948:7.179689 15517:7.007839 
36.6443216847066 45.52713788927259 43.34017368913958 38.87262165858764 26.69159541089342 38.5532079523146 47.61699336623173 30.91426782248212 30.93000228244362 34.80208573462802 57.60002598978397 43.67426947621582 34.81789694854432 27.26063480755742 61.13344928147822 30.55790839942167 42.10517651311373 32.73242192647238 27.04900136381065 43.1135698620582 7842:8.565983 9923:8.34284 15081:7.119064 15118:7.119064 15263:14.123812 15570:6.956545 15759:6.907755 15811:6.907755 16191:6.733402 16744:6.486542 18252:5.181593 18485:4.576999 
22.73578910324563 22.45926297086433 36.89626355904824 34.99868809465762 28.38046649333431 40.00851069751732 29.79471540793968 22.96462475507457 21.55610616691912 20.6063630779901 58.95899474336571 49.95203269212598 44.29550875906166 18.26910882949259 67.55369316189594 33.48107420538413 61.27461499967077 34.93007315884511 20.99381099121637 40.082401368974 4182:8.853665 6372:8.565983 15824:6.907755 16300:6.694181 16463:6.620073 16814:6.425917 16985:6.34136 18150:5.317549 18357:4.934998 18485:4.576999 18504:4.488446 
0 0 0 0 0 0 0 7.171392432748998 0 0 0 0 0 3.699753212044146 0 0 0 0 0 0 3023:9.259131 6481:17.131966 6676:8.565983 6738:8.565983 7655:8.565983 8098:17.131966 8539:8.34284 13485:52.880674 14273:7.387328 14738:7.244228 16631:19.554873 16778:6.45577 17307:6.145615 17974:5.557829 18028:5.49793 18229:5.216079 18237:5.198688 18316:5.039623 18345:4.968671 18485:4.576999 18508:4.475814 18562:42.48495 18618:14.598636 
0 0 0 0 0 0 0 0 0 0 0.2409736467832042 0 13.5594457275472 0 6.774217609791357 0 0 0 0 0 6481:17.131966 6676:8.565983 6738:8.565983 7655:8.565983 8098:17.131966 8539:8.34284 13485:45.326292 14273:7.387328 14738:7.244228 16631:13.036582 16778:6.45577 17307:6.145615 17974:5.557829 18028:5.49793 18229:5.216079 18237:10.397376 18345:4.968671 18485:9.153998 18508:4.475814 18562:33.98796 
28.69272523412721 25.37276536538387 20.42953909139348 24.53190210134055 29.8295951887029 22.69017599000125 27.10824857640487 17.27772260482076 16.64088503094766 22.76920741673096 21.47642883333003 19.37479569308447 19.06819302291529 14.87842054741632 19.01903589896192 28.18337632056292 22.64849054026935 20.02953889603255 16.0928874361536 24.11325438685673 4145:8.853665 7841:8.565983 7867:17.131966 14790:7.244228 16814:12.851834 17350:6.10213 18523:4.430817 18573:4.171534 
2.733798443556685 0 0 0 0 0 0 8.097842186909034 0 2.289342171413182 0 0 26.12092185062005 0 0 0 1.295720583422921 14.84766561043361 0 0 9882:8.34284 12691:15.510106 14818:7.244228 16616:13.036582 18482:4.586302 18485:4.576999 18575:8.318528 18618:3.649659 18639:5.520192 18647:1.706893 
8.937336541560455 0 0 0 12.11383635697523 2.671765577960908 0 12.91916084285796 0 0 0 0 26.35581570197712 19.77476256161458 0 47.16460821846467 0 18.36877459073543 0 0 3818:8.853665 14948:7.179689 15570:6.956545 16647:6.518291 16814:6.425917 17721:5.809143 18522:4.434825 18585:4.08016 18605:3.860968 
97.88247521887003 119.0324659443194 112.7186768579011 121.0891157338402 94.56305923575336 116.3618290132141 130.6214261426452 60.24161936308528 68.0499537207503 109.216701684507 102.5766873144507 105.0714505839892 110.0434483180631 72.57064045481178 101.0708029109675 109.2815862197365 140.26035003984 113.8330410785208 62.08131969671134 120.9996650343879 12691:7.755053 13904:7.467371 15147:7.119064 15244:7.119064 16985:6.34136 18351:4.948331 
134.9334657735766 130.9868804673997 121.8911185736655 106.9915275251037 114.319732596963 180.2924919847943 109.7305001747365 130.6374161487814 80.42814194781553 87.49264667749337 103.849931058778 124.9167193584865 100.4310974993293 129.6173245559124 147.0780867124958 140.4893164183813 158.2636817608308 128.733315988157 89.80276975138361 187.0828654636742 16185:6.733402 18280:5.108091 18296:5.07708 18584:8.182982 18593:4.038775 
131.3288129255091 192.4343230542117 133.6703160327338 143.9978356041887 144.5293207541765 105.4680346019369 131.1852333993022 103.1769258219919 75.03612739433483 87.62459886557093 173.8021446985162 132.947014296636 200 108.8697211556551 200 155.0127521843508 107.2131493732021 170.072724521667 114.1960074940054 143.6275074924179 16661:6.518291 17537:5.963294 18487:9.1173 18562:4.248495 18584:4.091491 
90.37107049738928 75.03721458024209 101.7102416700883 61.54886817786155 76.51140869276685 104.5782288775929 129.0127646081089 57.86137561410134 65.17662617578044 57.19873499425103 130.6014967447036 72.94053802540108 88.82866672466778 81.52133854151964 53.90136651113565 69.09553686278282 94.53070122312768 76.7905241714104 37.93819858015772 64.07348719030391 6455:8.565983 6764:8.565983 17917:5.63479 18538:4.380124 18605:3.860968 18618:3.649659 
200 200 200 200 200 200 200 200 200 200 200 200 200 200 200 200 200 200 183.1600803039474 200 17168:6.238706 17442:6.040255 17845:5.703782 18459:4.679278 18593:4.038775 
21.58193551792293 14.30777182607859 34.80932460886239 51.82644622668294 24.72900346332162 54.80037108063966 55.84314473600934 0 17.08645130629288 26.01638740499815 35.54964246390149 40.91879028607892 70.82357338714431 21.76032178312989 27.2286883148479 0 46.4554155807524 20.96995299910936 1.498866579983858 16.97396942902221 14580:7.31322 17210:6.214608 17840:11.407564 18351:4.948331 18434:4.748271 18605:3.860968 
49.64090982959173 36.14922475360783 39.44916630752125 45.73468621666982 33.75172203306797 37.81314758029135 41.29719715662731 44.56571295548239 35.57345644057223 45.5443318861443 37.30380647769987 37.09321342750656 40.64563253297134 27.57811616906546 35.90337951918154 99.18197866973266 68.89091768366065 87.23347432449225 29.88510522052356 41.4715673029207 5828:17.70733 17921:5.621544 18133:5.347108 18232:5.207346 18374:4.889683 18518:4.446946 18548:8.671014 
106.9958878554505 129.2654495580566 117.4460195660594 119.7972993558267 109.3025942524875 115.615550063491 200 75.6818705020714 101.4884026711118 128.6288810807385 190.4103066247558 122.6059618710309 137.9654192509343 76.22003057924806 91.004097018745 147.7120446435358 131.866071064 126.3516679625773 74.5445569954592 96.27304709832882 13139:7.649693 15817:6.907755 17005:6.34136 17408:6.060457 18296:5.07708 18538:4.380124 
95.98086777166007 177.7219229729563 81.50496284949105 200 113.1004235080343 164.5613171006477 126.2098312765368 168.2241895769958 80.98273847086439 73.91096147309382 119.6213214640355 91.46587628644038 113.2820524862076 93.48248144502233 100.6715128828634 200 123.3568942520256 200 75.97971889645932 131.1208479274545 3548:8.853665 18284:5.100247 18548:4.335507 18549:4.331877 18575:4.159264 18619:3.629712 18630:3.434606 18632:3.402627 18637:3.149883 
7.980094257745209 15.99069432741562 17.81156920088547 33.89031900890977 22.94035092817973 26.13271132737099 18.23655591396224 4.535171257073151 15.19484112053022 15.09909805862477 18.64680348716243 20.2059478605692 2.963002651464093 17.76544682550465 35.00212585859133 12.34138435479207 20.62122719350039 0 15.96166413452806 9.060575510334202 10623:8.160518 12691:7.755053 13515:7.554382 14252:7.387328 16119:6.774224 17350:6.10213 17773:5.762623 18252:5.181593 18518:4.446946 
66.68511060481505 27.58254486766898 73.61807523304401 86.21092187776431 80.72184628913817 135.9349409016912 52.3970470775246 43.5745794462412 46.37722814805531 110.6838104141879 77.38630785778892 70.16119220030404 94.08583099725743 52.82413621016848 78.19438772365949 74.66262316402802 111.2254739109569 100.0607161951715 57.26114670911017 86.32412728567408 10155:8.160518 16191:6.733402 17470:6.020452 18237:5.198688 18357:4.934998 18571:4.177726 18580:4.126278 
0 0 0 0 0 0 0 0 0 0 0 9.896904684005969 0 0 0 12.66576292906726 0 0 0 0 3160:8.853665 3232:8.853665 3430:8.853665 3748:8.853665 4704:8.853665 5667:8.853665 6504:8.565983 6990:8.565983 7238:8.565983 8147:8.565983 8614:8.34284 17209:6.214608 17470:6.020452 17721:5.809143 17850:5.703782 18133:5.347108 18160:5.307887 18357:4.934998 18504:13.465338 
62.69758106979909 0 0 13.9576015246445 0 0 67.19486480500878 0 13.34575928115439 113.544644013301 0 4.947876342447215 51.4010272942453 46.51148230221249 200 0 0 13.98931401014995 2.765954158115389 140.2925709274698 15233:7.119064 18237:5.198688 18280:5.108091 18496:4.527328 18580:8.252556 18605:3.860968 18633:3.295551 
32.85771445217448 24.61303231721426 36.23705325934706 36.21336521011273 31.65015442089467 31.80476743280479 33.51424911497268 25.03667264450381 26.52154200685652 34.2869589483573 36.14245300417549 37.1396686031046 34.31934265961035 26.11989170575698 65.19501040943034 22.58860956929678 38.1585637630522 37.22110219767372 26.9002536126639 69.01389819640684 9073:16.68568 17306:6.145615 18211:5.233779 18296:5.07708 18482:4.586302 18549:4.331877 18580:4.126278 
30.93632224296029 0 26.9530909330281 30.89577059995108 34.65503218354062 47.7296570168136 15.22180335672422 12.36665913748916 23.55021448453845 58.75300730728786 41.79769041533281 44.0853525327728 40.93818100322635 17.8646886327287 74.88385764368799 16.22500799169467 41.14601162088401 47.06885054552223 26.13789102550023 25.10989758601844 7662:8.565983 13018:7.649693 17070:6.288716 17086:6.288716 17138:6.263398 17758:11.55578 18549:4.331877 
109.3765150108222 136.516829577612 135.108730877927 110.3482689246341 117.5188338506777 146.4877606233921 135.6334486810566 91.64996985205548 90.97000048244699 105.9803527134335 111.3085428612818 126.806783814245 143.5889283018649 94.75964266862972 75.41375740280542 130.6041183683685 155.551155436569 131.389532967047 88.72414474478616 112.6333583950306 4260:8.853665 7046:8.565983 15233:7.119064 16008:6.816784 18605:3.860968 
7.810357279962945 14.20552974727459 10.54407660702489 16.2841501459118 0 17.07161377696605 0 6.002940903642793 8.607522012758416 5.003433740160153 10.71217391425992 15.55066850796369 15.09046137344405 16.21874127647856 9.973878328583394 0 12.06808684753115 7.112742397047199 6.130558982448968 16.69779851289153 9213:16.68568 17265:6.168088 17587:5.909226 17944:5.595569 18191:5.270146 18374:4.889683 18605:3.860968 
0 0 0 0 0 0 0 0 0 0 0 0 0 0 7.271705597272368 0 0 0 0 2.217817820425488 13545:7.554382 17227:6.191078 17408:6.060457 18191:5.270146 18357:4.934998 18571:4.177726 18580:4.126278 
0 0 0 1.335662293859011 0 2.58707184310529 0 0 0 0 5.781169790056868 0.6812133533656564 0 0.1384245964971142 0 0 0 0 0.5601270873164315 0 4247:8.853665 11615:16.012736 13136:7.649693 14173:7.387328 17070:6.288716 17526:5.963294 17657:5.87474 17692:5.841404 18202:5.242748 18373:9.804844 
0 0 0 0 63.53218596864571 0 0 0 0 0 0 0 0 0 0 87.20545472021379 0 0 0 0 15960:6.861235 16902:6.39693 18191:5.270146 18573:12.514602 18605:3.860968 
0 0 0 0.6735658507937443 0 0 0 2.559723882968434 0 0 1.665589295639164 0 0 0.3064231091296378 1.572996850950721 0 0 0 0 0 3070:8.853665 3300:8.853665 3381:8.853665 3391:8.853665 3582:8.853665 3645:8.853665 3840:8.853665 3841:8.853665 3953:8.853665 3973:8.853665 4021:8.853665 4364:8.853665 5275:8.853665 5297:8.853665 5543:8.853665 5731:8.853665 6936:8.565983 7096:8.565983 8135:8.565983 8801:8.34284 9807:8.34284 17265:6.168088 18174:5.288839 18191:10.540292 18229:5.216079 
31.27468395520842 33.82439668167577 32.92153902029235 32.62526540652273 25.79086939110498 34.93790812808619 33.42488016737169 27.43060376362258 25.57516262734379 28.76227447602555 32.62033615797522 34.1793179250627 32.89654851592059 21.67373043860377 32.28071087174103 30.28846404645268 39.77658599017133 34.1614669174345 22.87515829497202 34.05843237106387 3122:8.853665 3389:8.853665 3502:8.853665 3947:8.853665 4157:8.853665 4467:8.853665 5250:8.853665 5844:8.853665 5988:8.565983 6833:8.565983 8704:8.34284 10255:8.160518 11433:8.006368 12405:7.755053 16514:6.584982 18191:5.270146 
134.2978818809218 156.4494642934371 137.199670317529 101.4303792395873 111.114169542648 156.3493516156691 174.3943013848907 92.53854530535045 135.610564317854 108.5622156592549 151.9517309145182 142.353672532788 200 70.86636960382447 124.4518487139946 200 145.0015141717844 200 66.1423843189213 142.9265605199503 17350:6.10213 17899:5.648213 18191:5.270146 18405:4.810614 18548:4.335507 
200 182.6743566478055 200 200 200 200 200 200 136.1978711453434 200 200 200 200 200 200 200 200 200 162.0725182922109 200 18191:5.270146 18284:5.100247 18555:4.285851 18618:3.649659 18647:1.706893 
0 0 0 0 0 0 0 0 0 0 2.125387312351 0 0 0 0 0 0 0 0 0 2888:9.259131 14225:7.387328 15215:7.119064 16201:26.933608 17460:6.040255 17571:11.853852 18150:5.317549 18465:4.639072 18518:4.446946 
0 0 0 0 0 0 0 0 0 0 0 0 4.872262894318904 0 0 0 0 0 0 0 17147:6.238706 17702:5.825143 18518:8.893892 18549:4.331877 18562:4.248495 18611:3.774334 18633:3.295551 18647:1.706893 
0 0 0 0 0 0 0 57.59232922371364 0 0 0 0 0 0 0 0 0 0 0 0 17379:6.081077 17621:5.891835 17899:5.648213 18434:4.748271 18518:4.446946 18537:8.767866 18560:8.530604 18605:3.860968 18611:7.548668 18647:1.706893 
45.11176803080116 13.72058639066394 68.46168188130592 38.86443588703181 59.69014538675921 76.59273113489087 3.766391985893016 33.00056290077836 35.23195925238721 0 12.45888181880255 69.98795803846056 45.00948715677386 0 167.0219155994974 0 50.4361403939239 36.48177681791065 44.44217945137987 125.1823341077321 17654:5.87474 17888:5.661818 18288:10.18493 18580:4.126278 18605:3.860968 
161.2501874572135 129.193339820096 133.8523408703333 132.2742423090034 111.2643150119462 146.4439336542008 180.9144170217877 95.18887659143044 88.55590738377315 155.2872892541631 115.3815711938286 122.7147895370118 154.733557163894 95.28287411536608 134.6120154562296 134.7858600624054 159.1202470950227 146.850935365342 78.47795543257656 125.7704675788423 12940:7.755053 15235:7.119064 17773:5.762623 18174:5.288839 18288:5.092465 18633:3.295551 
200 200 200 200 200 200 200 176.1720813810804 156.5620272620784 200 200 200 200 200 162.4918630429037 200 200 200 151.2647673287638 200 5773:8.853665 17758:5.77789 18325:5.025024 18633:3.295551 18637:3.149883 
0 0 0 0 0 0 16.16576879470795 38.87713223977351 0 0 0 0 0 0 0 123.7547723643248 0 0 0 0 7732:8.565983 17959:11.16566 18373:4.902422 18549:4.331877 18575:4.159264 18610:11.385897 
121.8067139975861 150.7203302323491 114.5717733306752 110.5824535572237 113.6318828202157 119.3754765069219 164.6220665032998 95.33616680432357 86.65302572829455 152.4479400736334 109.1446496437125 128.0220292002739 170.9830080994512 76.5512898944536 96.51801566620655 151.9260916917459 178.5114527197463 152.6003311035689 94.21812255268586 113.5282067803597 9630:8.34284 13347:7.649693 14568:7.31322 17959:5.58283 18357:4.934998 18478:4.590986 18647:1.706893 
32.1578313314835 2.472317930440033 16.72295510603627 26.55279475319008 11.17836780867951 3.728305587323342 13.60540113538928 27.8828388399496 33.93270398554296 35.21251637168931 17.06520129700873 19.16176113353455 46.44123471799026 25.6833818852882 25.01991302349081 0 39.92797922719931 56.75757900532525 14.32233784415186 53.44226216008849 2908:9.259131 6966:8.565983 8870:8.34284 11202:8.006368 12325:15.745672 13416:7.649693 16783:19.36731 17481:6.020452 18508:4.475814 18613:11.298207 18639:5.520192 18647:3.413786 
0 0 0 0 0 0 0 0 6.835946767013303 0 0 0 0 0 0 0 0 0 0 0 5986:8.565983 8429:8.34284 9169:8.34284 13611:7.554382 16631:6.518291 17138:6.263398 17440:12.08051 17758:11.55578 18350:4.955065 18605:7.721936 18613:11.298207 
31.9826876247724 35.5896781210162 33.2601471297676 32.53427045143557 28.5758290109782 35.08712782871233 33.35953430461593 28.55390645831175 26.57794808162864 28.94339315862088 30.30282515061795 34.78420768783582 34.97469940243158 29.14608159448339 39.5923889508135 33.01880557878203 39.67590754723825 35.79434357670188 23.91709565298305 47.02326729266795 10807:24.481554 11057:8.006368 17306:6.145615 17408:6.060457 17526:17.889882 18580:4.126278 18593:4.038775 
17.81741942234999 8.256604631021458 12.60549925456501 14.52623383529918 11.55444552275827 15.44016217319534 13.7353655248552 12.39545842578698 11.45144422844267 10.31612298979221 14.77259473029983 18.17084476063255 18.07575100215409 12.0610420265759 13.18152593219389 15.08583118592857 20.01356371402863 18.76027339767477 13.47339176162584 9.864371561203024 4415:8.853665 5868:34.263932 13047:7.649693 13144:7.649693 14790:7.244228 15215:7.119064 15796:6.907755 17209:6.214608 18316:5.039623 18373:4.902422 18647:1.706893 
29.48378527094985 0 0 0 0 0 0 32.13835612545262 117.0883610243452 0 50.13537094807108 0 0 21.28751271915194 111.1576161567495 28.3959903679508 0 0 0 161.7034556407969 17038:12.629384 17954:5.58283 17966:5.570251 18508:4.475814 18584:4.091491 18613:7.532138 
14.8361256714301 13.49748012917832 6.333281168933514 18.60070010817089 0 0 0 10.01661499479953 0 39.87377773366345 0 0 36.49001500527645 15.51216014514465 0 0 52.13566124637493 55.95647656307838 0 17.43599840282892 6236:8.565983 14951:14.359378 17147:6.238706 17168:12.477412 17654:5.87474 18316:5.039623 18532:4.39545 18637:3.149883 18639:5.520192 18647:1.706893 
73.30029510555221 70.27751517863599 100.9408735716447 105.9833912338223 94.14778373494931 118.9004063725754 110.1271716109956 61.63735125275839 37.2555608496042 79.28143777983675 101.4593489767848 84.96394785967274 124.7770939773386 47.80052073693549 66.26206846094907 57.05405912945145 113.8395157010895 100.268076410099 56.78071057090228 55.48774956609429 3149:8.853665 5949:8.565983 16550:6.55108 17038:6.314692 18373:4.902422 18459:4.679278 
0 0 0 0 0 0 0 11.82566937102361 0.8383932563450001 0 0 0 0 0 0 0 0 0 0 2.750291996635368 11995:7.872836 13944:7.467371 14724:7.244228 18273:10.247928 18326:30.106824 18459:23.39639 18613:3.766069 18633:3.295551 
17.97922797850896 32.95428213277748 25.35861968118589 27.62116663239646 20.69732057481848 24.48388192281662 14.81221699352381 22.99232616114137 57.3178966406137 15.30443299338175 20.8182808233545 27.3259050356152 25.71062841633269 20.92648881631071 26.27572835281596 34.55670501031355 25.38504918335913 30.47039132837502 21.03957816261435 53.19439206108606 8450:8.34284 11995:7.872836 16208:6.733402 18028:10.99586 18237:5.198688 18326:20.071216 18459:4.679278 18637:3.149883 
23.40506132241717 100.3745040522159 5.06651978776926 15.97007039556572 28.95995361933276 35.47605387665934 42.69738407411416 110.9048990265314 6.83341188326213 128.1481437508805 30.97460376542526 30.8939574552531 46.19748381929554 39.56324888032314 0 0 23.28623107323899 0 29.30836961186302 8.72632378774707 11995:7.872836 16091:6.774224 17147:6.238706 18237:5.198688 18459:9.358556 18532:4.39545 18549:4.331877 18637:3.149883 
71.90857018186122 63.42511451855459 70.70265829159962 77.46532730635303 54.58335578892743 25.92908211993612 50.93750791364815 70.55562792096447 8.607554363804157 124.2061748255986 17.62851355330056 36.24758291810537 154.1193894271551 73.35045003528995 25.8043423799016 20.19487180851597 146.7119211356139 149.1043909086514 45.61945403047362 83.05959773316506 2906:9.259131 12864:7.755053 15493:7.007839 17038:6.314692 17899:5.648213 18575:4.159264 18637:3.149883 18639:5.520192 18647:1.706893 
200 32.9812731853368 11.93218561693035 200 200 200 106.7229098760617 200 161.0877625627543 36.26937622748947 200 200 200 186.7393845286587 200 200 52.32106532738934 200 155.7198171232263 125.304032100295 13085:7.649693 17917:5.63479 18348:4.961845 18465:4.639072 18610:3.795299 
153.2221681679414 185.7202166258957 177.0765549540758 168.1821468727426 163.8016960244327 189.2789098426035 200 123.4816622609508 126.4481223098263 177.058043087009 170.4289080034287 178.5285791732296 200 131.9413041573372 200 200 200 187.9331156762239 121.7227149297982 192.7132076894646 2883:9.259131 16744:6.486542 17562:5.944945 17773:5.762623 18405:4.810614 
26.73363699928058 35.93247327838974 14.79923423161876 16.93969758414338 15.33468712676279 25.83101607125271 39.100028880967 19.4527292178608 22.76750810029521 36.47162150399107 13.50628839755015 37.13316952047272 40.4770044115408 34.86212572844176 25.09998993476351 8.447152165313584 47.85192205152561 16.78370540087343 22.01380020323964 19.0622556033425 13839:7.467371 15972:6.816784 16550:19.65324 18605:3.860968 18647:1.706893 
0 0 0 0 0 10.71180936603422 0 0 0 0 0 0 0 0 0 0 0 0 0 0 7121:8.565983 11381:8.006368 11507:16.012736 13934:7.467371 17501:6.001034 17657:5.87474 18199:5.251797 18335:4.996451 18357:9.869996 18571:4.177726 
28.28188452429803 33.58146819214023 21.16782234023251 41.95466027342901 10.18002868296438 2.23233043849017 38.92326896420684 54.61976456583474 38.04175705643634 51.72036171782347 33.03107837582164 22.99920529417441 109.1476060836792 25.15893834114371 24.20878223222272 24.68138432938908 34.60607295795835 22.28453828289398 0 70.62097790659884 17758:5.77789 18351:4.948331 18522:4.434825 18549:4.331877 18575:4.159264 18593:8.07755 
50.36985237587005 44.81205148178312 44.00957615408105 42.60707572992289 39.31837819495026 46.72533121160382 48.30825050781195 33.50542398276325 46.08291465381222 50.51588457674495 47.66813499300849 45.53687314384029 45.66911069070906 51.91932674850421 47.87302024469181 44.97425157790461 45.70227310393054 42.80343233438575 35.34856159875849 53.8584490332703 9003:25.02852 9660:8.34284 14790:7.244228 14951:7.179689 15360:14.123812 17209:6.214608 18579:4.144135 18613:3.766069 
0 0 0 18.48216184796353 0 0 0 0 0 0 0 0 12.69883605153949 0 0 17.24306331262125 0 6.261766058761088 0 0 6972:8.565983 9047:16.68568 16427:6.620073 18284:5.100247 18405:4.810614 18518:4.446946 18605:3.860968 18630:3.434606 
0 0 0 0 32.72551873723569 0 0 0 0 0 0 0 0 0 18.4210213467451 173.0409642606132 0 0 0 0 9105:8.34284 11202:8.006368 16778:6.45577 18316:10.079246 18325:5.025024 18373:4.902422 18459:4.679278 18575:4.159264 18580:8.252556 18632:6.805254 
59.550808832743 0 0 45.79900109366834 119.6960253284962 48.76443978107872 39.42049672892403 42.36215126586276 0 29.76159475136923 43.52712666763149 56.55806950657497 62.11274022415877 31.61559053504848 14.87022983245181 85.89890367263327 47.13905222643068 155.4572455847212 16.34269440760018 0 15077:7.119064 17436:6.040255 18325:5.025024 18345:9.937342 18585:4.08016 18647:1.706893 
74.46045971731624 122.4333453478557 50.31871325991948 71.24361259555565 58.57780296460164 87.06153986545154 115.5282870845353 95.89601223137295 78.80273529899702 69.98455060934731 90.42263222189212 104.0647936081971 90.59050640017368 80.18129158323667 94.55890748039035 71.54610871252332 95.61584523628852 54.63506480790665 83.91624858169396 108.9705299954285 3616:8.853665 12766:7.755053 18345:9.937342 18637:3.149883 18647:1.706893 
139.06321973216 200 200 138.52080666887 154.1921388930109 187.7767749837492 200 93.50948026304928 118.1165020131025 200 123.7594428377209 131.0039493677946 200 101.8458701837515 120.1827002737401 200 200 142.2734097417609 127.9496728384011 200 14954:7.179689 17917:5.63479 18296:5.07708 18405:4.810614 18646:1.728919 
97.63821686136171 83.0374873415774 51.17530647097828 14.32640824808187 45.05146255364411 48.48471306428632 148.7715246336537 43.99472112932823 7.56259153649014 104.5192126693335 109.6927675112126 47.32718785441581 48.29136383741645 45.52466236132809 0 50.73783322105607 71.08808902255659 38.55048371296753 54.53073281139894 75.62776741697701 15102:7.119064 15117:7.119064 17571:11.853852 18028:5.49793 18150:5.317549 18633:3.295551 18646:1.728919 18647:1.706893 
200 174.3596052751223 200 200 200 200 200 200 143.38663737126 200 134.5448550074118 200 200 200 136.4237506218045 178.903296296254 200 200 108.7328171095818 200 16293:6.694181 18351:4.948331 18605:3.860968 18639:5.520192 18647:1.706893 
0 4.195682031272192 0 0 0 0 4.119517069552229 0 5.566230442582396 0 21.07585133283913 0 0 0 87.44764191075004 0 0 0 7.100924135134802 93.66432881235639 15077:7.119064 16778:19.36731 17147:6.238706 17416:6.060457 18459:4.679278 18485:4.576999 18580:16.505112 18646:1.728919 
103.4651967524914 194.4152613858698 110.8050896538889 76.86696538155238 82.46330538955502 124.2070094386942 187.4760847797567 71.41634439726738 88.83038652832968 142.829069159629 83.26596955837812 102.9689569687663 112.8843145419371 71.36069830288943 87.56642080338172 106.7171231841834 193.4252309830393 57.8828036210897 92.27649109902291 130.154815325438 16773:6.45577 17759:5.77789 18043:5.48637 18345:9.937342 18352:4.941642 18646:1.728919 18647:1.706893 
0 0 0 0 0 0 0 0 0 0 0 0 0 0 25.50759432073538 0 0 0 0 0 6236:8.565983 12621:7.755053 16208:6.733402 16405:6.656441 17096:6.263398 17654:5.87474 18284:5.100247 18373:4.902422 18555:4.285851 18575:4.159264 
0 0 0 6.266087389401065 0 0 0 0 0 0 0 0 0 0 3.240492533124153 31.90012552645301 0 0 0 0 2823:9.259131 10639:8.160518 11226:8.006368 16670:6.518291 17070:6.288716 18345:14.906013 18351:4.948331 18632:3.402627 
0 0 0 0 0 0 0 0 0 0 0 0 14.09045456840149 9.51872989881373 13.25537525078669 55.57950183044113 0 0 0 0 12588:7.755053 17654:5.87474 18405:4.810614 18504:4.488446 18580:4.126278 18605:7.721936 
0 0 0 0 0 0 0 5.924841652150379 0 0 0 0 0 0 0 0 0 0 0 0 3846:8.853665 3882:8.853665 7952:8.565983 12588:15.510106 13581:30.217528 15186:14.238128 15308:7.061906 18191:5.270146 18351:14.844993 18478:4.590986 18522:4.434825 18571:8.355452 18610:3.795299 
0 0 0 0 0 0 0 0 31.23454466881998 0 0 0 0 0 0 0 0 0 0 56.65648963409411 10639:8.160518 17096:6.263398 18150:10.635098 18316:5.039623 18373:9.804844 18482:4.586302 18487:4.55865 18613:3.766069 
15.39575947365759 0 0 3.04700871294063 0 0 0 18.34303368284015 0 20.50311655606728 0 0 22.66282528492926 8.03614227035502 0 0 41.11616776159075 35.51782422727833 0 8.147591785725593 9862:8.34284 11040:8.006368 11116:8.006368 11960:7.872836 17584:23.707704 17944:11.191138 18560:4.265302 18639:5.520192 18647:1.706893 
62.41999005317355 124.0153696491012 97.01062944410016 88.44568422137854 84.70317739895015 107.4422476817523 102.5333874852429 67.56043745027534 63.83329356958789 79.03294201422791 97.01973491826895 88.88478018291249 90.10498089846392 59.50299219532555 93.22229700108866 96.4479620430638 79.04866726490295 69.30089012036663 65.3412356838577 95.79807454360622 5249:8.853665 9862:8.34284 15147:7.119064 17584:5.926926 17944:5.595569 18174:5.288839 18478:4.590986 
0 0 0 0 0 0 0 0.03282861554442922 0 0 0 0 0 0 0 0 0 0 0 0 3404:8.853665 4967:8.853665 8456:8.34284 15708:6.907755 16661:6.518291 17033:18.944076 17602:5.909226 18028:5.49793 18150:5.317549 18443:4.715836 18478:13.772958 18482:4.586302 18532:4.39545 18571:4.177726 18646:1.728919 18647:1.706893 
5.392819300782725 0 0 1.600833319867589 0 0 1.603026282703928 0 1.50878844698187 2.966004366835246 0 0 0 1.594002627356107 0 0 0 0.8649601275490002 4.945583634829029 0 13472:7.554382 14632:28.976912 17692:5.841404 17919:11.243088 18316:10.079246 18351:4.948331 18443:9.431672 18549:4.331877 18610:3.795299 
0 0 0 0 0 0 3.248800371805293 0 0 0 0 0 0 0 0 0 0 0 0 0 7952:34.263932 18202:10.485496 18555:8.571702 18571:8.355452 18584:8.182982 18646:1.728919 18647:1.706893 
178.2520945942996 200 157.1996693438019 67.70652071274807 200 110.0394093324137 200 114.2504794919992 200 200 90.78869436545401 164.0840266395737 200 124.8743315543511 99.0001183322787 191.5470743411682 200 170.1419880079476 121.5738093038631 200 18174:5.288839 18325:5.025024 18555:4.285851 18610:3.795299 18613:3.766069 18646:1.728919 18647:1.706893 
8.659511068811391 3.76239267060599 8.310394577068365 15.06402489139592 7.664471002861066 12.46418314088088 2.696646064278864 15.52823406385915 5.445140389918091 4.69514572723044 10.25780080888596 11.8681422320773 5.931840713601795 8.971066382306507 13.17581968362353 7.116549546372328 8.058576727754627 9.721832590569846 7.613695381658157 17.26156755084227 4180:8.853665 9630:8.34284 11350:8.006368 11616:8.006368 16088:27.096896 17758:5.77789 18465:4.639072 18508:4.475814 18518:4.446946 
16.82006834114251 23.17047490013051 28.31931227114763 19.83042518886657 25.56876630869287 28.07868229963225 29.97593148683921 66.76029484979519 15.3357575361264 8.745287955346061 46.68724238518734 20.61150749379785 20.55865929575048 20.6608548824234 23.85289112025955 48.58558439651523 108.7679717324046 11.69711214315216 5.44886647986143 24.680300089505 4973:8.853665 14632:14.488456 16737:6.486542 17735:5.809143 18133:10.694216 18523:8.861634 18560:8.530604 18611:7.548668 
46.85573221121226 0 62.16741609217979 0 32.10322487115987 26.25781761956162 0 25.27022772785346 0 0 0 0 0 21.90464125581273 0 0 0 0 0 0 7116:8.565983 8374:8.34284 16427:19.860219 17758:5.77789 18518:4.446946 18618:21.897954 
118.7185119919285 114.0827407466462 121.9477454271793 156.5193128544257 114.3986539855306 141.6123701022828 183.0503811675983 65.27200510292943 73.58226162396846 138.4110221052346 119.8562048091876 127.6519708745758 167.8527659652231 88.00312165891725 133.4481969509259 141.774253273781 168.1104259542437 140.3021765544431 77.19342469744572 158.9656313423546 12899:7.755053 17442:6.040255 18121:5.357158 18518:4.446946 18584:4.091491 
21.06416977568021 43.39240471857047 68.06317685059204 82.77897623030749 52.55149479646978 59.75557948725889 7.516145656922084 18.45996817249812 39.71331461075656 50.12259436291563 180.5255167070399 57.14036567864397 98.71722592003604 44.42629436151223 33.04509185985447 60.30022850215956 74.14461417355255 103.5977209798307 24.82576527023143 74.54392711866576 13647:7.554382 14914:7.179689 16417:6.620073 17571:11.853852 18639:2.760096 
27.56265835550643 23.47614295726331 27.42752057531828 28.8907512235595 26.36715968264566 27.23214833102126 22.50971123308283 22.63470384974464 18.69932623329285 28.1193731475889 26.68271507811452 28.59107607276906 30.97357699606965 19.12382201424857 52.12663015746753 14.15353248501192 35.44146026026228 32.81607843138675 18.98028659929044 27.45574070298596 3812:8.853665 8970:8.34284 14948:7.179689 15075:7.119064 15796:13.81551 16201:13.466804 17769:5.762623 17917:5.63479 
0 0 0 0 0 0 0 0 0 0 0 0 0 0.9500023818328593 0 0 0 0 0 0 5548:8.853665 7839:8.565983 10718:8.160518 15109:7.119064 15338:7.061906 17350:6.10213 17667:11.715866 18605:11.582904 
4.63597401215381 0 0 0 0 0 7.760454463286913 6.109745768638759 5.07139842878062 0 3.198905875989752 0 0 3.824933467170595 0 0 0 0 0 0 12356:7.872836 14260:7.387328 15440:28.031356 16240:6.733402 16985:6.34136 17919:11.243088 18284:5.100247 18538:4.380124 18605:3.860968 18633:3.295551 
0 0 0 0 0 5.565704764477426 0.4607947295934472 2.297899364001376 0 0 0 0 0 5.218421534970137 0 0 0.4744103738032173 0 0.5814036914784194 3.18126388964825 16289:20.082543 17921:5.621544 18160:5.307887 18174:5.288839 18373:4.902422 18605:3.860968 18611:3.774334 18646:1.728919 
0 8.463281506584776 4.904124979021682 2.3453067739556 2.468392649124961 2.101883081702206 8.581284375250576 0 0 2.81721946046324 1.313354299120242 1.295723035378237 0 4.478975766735238 0 22.63187019143829 3.905110223331451 0.6103861736043622 0.6853178727486897 0 11686:8.006368 13047:15.299386 13711:7.554382 17501:6.001034 18482:4.586302 
7.584637951110978 0 0 11.02622211952759 10.6588995167863 12.16166723299282 0 1.880897710831778 51.53726658099052 11.35366943204028 16.05615985946076 8.205792935630862 24.18992424431788 0.6205351097401883 35.2808878651414 6.092559200959809 6.861550324741367 21.51910967099144 0 34.78906271932973 8960:8.34284 11686:8.006368 13136:7.649693 13711:7.554382 18471:4.61474 18482:4.586302 
74.3856248985969 85.59481654349062 83.70073878071247 78.07614276498708 72.6021789338167 87.69597383308172 94.01941488315457 58.4554969484873 48.57396419706615 80.12806941093277 75.57174294723531 82.06347818771738 87.89543867187227 61.5943557625129 67.71279626172873 81.25506265336669 100.2446783528714 83.30945884767938 57.10370714599454 85.96071000901918 3792:8.853665 5669:8.853665 11686:8.006368 12415:7.755053 13711:7.554382 18482:4.586302 
104.4820230557763 122.5891331352863 119.3484021705071 110.4113683924151 103.9443806013397 124.8180299295192 135.8398924208414 80.11793380526925 68.79032623413782 115.0650508741128 110.797909580381 115.9835942602179 126.0643786714383 85.90633158703942 97.08237459751639 117.6906275167066 143.5721636190352 118.4900977338914 79.96357856755795 123.3563966242447 3825:8.853665 7875:8.565983 11686:8.006368 13711:7.554382 18482:4.586302 
36.99213718446412 43.72517272314242 40.70861129839273 38.08837456417135 38.84486688649156 46.63929508631123 58.49693362476238 29.13076450097065 28.18966380249357 45.45661798301238 40.23207090097477 39.1415130248058 83.29375030568882 33.9781493134536 39.93902506575981 44.78067572798576 65.80460894581866 44.96926312818494 26.50644431794198 51.93568688769923 10157:16.321036 11889:15.745672 18232:5.207346 18523:4.430817 18562:4.248495 
0 0 0 0 0 0 0 0 1.366347824058674 0 4.942221293326032 0.2255440519547725 0 0 2.808545239669137 1.034387623018095 0 0 0 0 10361:16.321036 11093:24.019104 12415:15.510106 12440:7.755053 14302:14.774656 15235:7.119064 17657:5.87474 18191:5.270146 18348:4.961845 18538:4.380124 18618:3.649659 18647:1.706893 
27.5455086481682 32.08205373053939 30.73418794829265 31.27385677134461 23.36208683326129 32.51778451499572 34.10391544898822 27.67681298317922 20.60112729409387 32.10250671680053 30.55989834084682 34.60219164507741 35.55561239226057 26.43930142848933 31.39938214654865 28.93301551715286 39.58483693057108 29.41797506268592 21.99806993289227 23.97801398499844 7121:25.697949 11381:8.006368 14701:7.244228 15934:13.72247 17033:6.314692 17227:6.191078 18335:4.996451 
15.23029242791457 40.38773977529673 17.49265554199376 4.595213802992484 4.941635357698472 15.82641211948992 27.79555212740462 12.97492063261471 11.75939105088623 31.1317164792929 3.232065077604469 1.657742953931552 6.381917998210505 20.00019060289434 9.379378756590681 0 45.65983114113842 0 15.0766888510095 0 17096:31.31699 18006:11.042922 18487:4.55865 18532:4.39545 18584:4.091491 18646:1.728919 
110.0867150106496 80.86559017445823 115.2964973445253 116.9475692474113 90.78282960360045 91.81780373781393 99.28800621378552 86.06185013129851 67.53299791376665 147.1346000167942 80.99908008041236 91.64367664991494 169.5556162652131 89.37247868521342 81.42039696431118 131.729123290616 182.2685202088805 179.7560653906763 64.32208150518541 136.1611686473733 13125:15.299386 13728:7.554382 18202:10.485496 18639:5.520192 18647:1.706893 
41.46723155861659 74.4463634223405 66.05089882100178 37.98862428332901 39.73461217029768 50.7005947682658 70.50360499109703 31.38955735988239 73.11035516566874 71.55355007334421 44.51363278458435 44.13176085070769 51.28713966226567 27.20467737202881 38.21150089532745 19.08078019637486 71.42264244120186 35.17983060623592 37.51789022557903 90.38277240207981 4049:17.70733 16647:6.518291 18010:11.042922 18237:5.198688 18575:4.159264 18646:1.728919 
0 0 0 0 0 0 0 0 0 0 6.384111675165986 0 0 0 7.221192064075316 0 0 0 0 0 8081:8.565983 15057:14.238128 15582:6.956545 16315:13.388362 16737:12.973084 16773:6.45577 17005:6.34136 17937:5.608472 18211:5.233779 18485:18.307996 18549:12.995631 18633:3.295551 
0 0 0 0 0 0 0 0 0 0 0 0 6.533574467040982 0 40.05378402378722 0 0 0 0 0 13085:7.649693 13611:7.554382 17350:6.10213 17917:5.63479 18252:15.544779 18496:4.527328 18605:3.860968 
125.8876667328075 130.7824417328849 132.1248823868169 126.645039045124 117.4766763804795 140.2510422092439 151.1374576040564 100.0486932163196 92.75682799580593 131.354332886758 129.0788277250394 133.3024547652152 154.9415093858531 94.38506718470485 130.4810578685322 83.97592284421373 157.1690864034571 135.4325265791372 92.81507286094772 156.0828875646316 7324:8.565983 8305:8.34284 13047:7.649693 14885:7.179689 18402:4.828314 18584:4.091491 
10.35435441056198 0 0 0 0 0 0 10.42277732882793 0 0.7920461779285317 23.46924036609032 0 0 11.13781300610691 13.1763088641281 0 0 0 0 0 3652:8.853665 11082:16.012736 11612:16.012736 13908:14.934742 15291:7.061906 16457:6.620073 18485:9.153998 18532:4.39545 18605:3.860968 18610:3.795299 18633:3.295551 
163.5615162135276 200 200 123.0228834559398 146.6570641377919 200 200 140.0014691000751 129.3296492578088 200 135.4348909533524 158.0457691915613 188.272264961924 137.117274610896 104.6895181991039 195.219528813318 200 145.4029662473447 125.2817293353741 200 12621:7.755053 14077:7.467371 18284:5.100247 18605:3.860968 18646:1.728919 
43.72356334103367 63.1317542538776 52.6915619718594 35.9419088640376 43.16229947595097 50.31877645497579 65.51335836791692 55.39727926053255 20.99873863462279 62.95857862699294 37.82358699027352 45.51109723713153 50.53456363432964 31.31031323351299 34.38341485023556 25.05073919393976 67.26093128358617 49.68473916483875 38.83596861990379 78.40302560329816 3912:8.853665 13533:7.554382 14724:7.244228 16670:6.518291 17033:6.314692 18173:10.577678 18229:5.216079 18482:4.586302 18508:4.475814 18646:1.728919 18647:1.706893 
36.0681598948868 13.65918803771078 33.83462754326243 39.52852049204568 29.66528758215048 45.79099912631082 58.06559989731544 11.43685381990112 33.27907890900482 13.62515716846416 35.61615646093174 39.96141315179561 50.53913300128578 28.07770692151377 100.2371894020316 200 78.14531446751343 41.24517357033615 25.04965472484767 0 15911:6.861235 17692:5.841404 18006:5.521461 18173:5.288839 18232:5.207346 18348:9.92369 18373:4.902422 18610:3.795299 
6.443224777721693 22.17095000333812 16.36137601504542 11.4730962990299 13.00199591835797 13.26466186108892 13.34963828256763 7.24444449143291 0.1332425806939438 7.220298738070678 9.954764810667365 6.431858040756017 3.056125867328714 6.55550126915343 19.84605470316179 0 14.55926716911383 2.087261103502104 4.196540754151605 30.26898950377619 8457:25.02852 12160:7.872836 12356:7.872836 17615:11.78367 18325:10.050048 18580:4.126278 18593:4.038775 18646:1.728919 
0 0 0 0 0 0 0 0 0 0 0 0 0 0 0 0 0 0 0 33.85997271638659 9158:8.34284 13806:7.467371 15199:14.238128 15724:6.907755 17460:6.040255 18273:5.123964 18443:4.715836 18518:8.893892 18522:4.434825 18580:8.252556 18613:7.532138 18646:1.728919 
0.8856973267935095 14.92296605942297 4.719173905031538 0 0 0.3311186059024708 42.30765732839017 3.78251726711034 0 7.089811330885214 0 6.33690234886635 5.367837263959371 6.54954753950611 0 0 20.00811284922902 0 11.38974268816829 2.821103913995104 3648:8.853665 4183:8.853665 8042:8.565983 8771:8.34284 12940:7.755053 13173:7.649693 15081:7.119064 17944:5.595569 18555:4.285851 18605:3.860968 18646:1.728919 18647:1.706893 
0 0 0 0 0 0 0 0 0 0 0 0 0 0 0 1.433631932134067 0 0 0 0 4183:8.853665 8751:8.34284 11040:8.006368 11764:7.872836 15081:28.476256 15223:7.119064 15570:6.956545 15640:6.956545 16661:6.518291 17944:5.595569 18443:4.715836 18632:3.402627 18646:1.728919 18647:1.706893 
13.78404717657146 0 13.90225727270556 22.43347148076967 19.32999164294805 15.95434095629388 0.9179785057481962 16.42145673932235 4.758205955333604 0 24.59354582519894 24.69698267466982 18.28699161479055 4.809581026483539 7.721917609893105 17.87387014334649 2.143007976379725 29.80606636519005 7.719612383651993 33.43000245569835 5708:8.853665 13839:14.934742 17096:25.053592 17919:5.621544 18006:11.042922 18465:9.278144 18522:4.434825 
0 0 0 0 0 0 0 0 0 0 7.83982812067612 0 0 0 0 0 0 0 0 0 5121:8.853665 8081:8.565983 15057:14.238128 15582:6.956545 16315:6.694181 16737:6.486542 16773:6.45577 17005:12.68272 18211:5.233779 18485:18.307996 18508:4.475814 18538:4.380124 18549:4.331877 18633:3.295551 18639:5.520192 18647:1.706893 
19.19458881614175 10.60924810621453 1.104111517014843 0 0.9787315287545981 4.421384245528975 30.14340824292335 22.82189900731392 2.727890770111291 24.89385511381612 0 1.70901603217815 14.1538431801446 3.188608175500079 0 14.13795018847915 15.33165539727085 0 5.828548149461875 0 4415:8.853665 10361:16.321036 15215:7.119064 16985:6.34136 17657:5.87474 17704:5.825143 18202:10.485496 18459:9.358556 18633:3.295551 18646:1.728919 18647:1.706893 
10.48508895781042 0 118.1513407469301 25.47846900700934 0 0 0 16.89955750508868 0 51.99979467020678 0 0 71.01787990480956 0.6820958462506697 0 0 37.90253538462093 83.68773942738203 0 3.861793166265735 17147:6.238706 17611:5.891835 17735:11.618286 18345:9.937342 18459:4.679278 18639:5.520192 18647:1.706893 
200 200 200 200 200 200 200 137.2780868790517 131.5598267872572 200 200 200 200 158.0202478032771 154.5525436743202 200 200 200 200 196.8389475657698 17966:5.570251 18404:4.822379 18434:4.748271 18518:4.446946 18646:1.728919 18647:1.706893 
0 52.05683101956566 0 0 0.4646639776726965 0 12.87890279308686 11.80188373332758 0 0 0.9891495087240139 0 0 0 0 1.176980603454978 13.07051637161751 0 2.70585804150908 3.389981842825367 12406:7.755053 12446:7.755053 13238:7.649693 13445:7.554382 16078:6.816784 17826:5.718171 17921:5.621544 18160:5.307887 18352:14.824926 18434:4.748271 18560:4.265302 18585:4.08016 18637:3.149883 18646:1.728919 18647:1.706893 
45.81490407885362 46.73452250912778 49.21734059640384 47.2123958499761 44.09313726071484 52.44545466205343 53.5419540011682 43.84148070287529 56.66775020822033 42.75555839869159 49.00537130109313 63.52431872725074 60.23489006197779 39.95086547934049 59.61153572150642 61.55441304338954 56.55958022909087 52.55848640015944 36.74855173912692 60.78307906727462 15184:21.357192 16347:6.656441 17587:5.909226 18471:4.61474 18504:4.488446 
26.76286142728587 8.1991071068556 5.075700536927692 5.427531397776109 0 17.21184526731778 36.55138369254659 25.95006612056119 76.76435373677215 19.75634124376945 32.16627426877319 9.383583272210208 3.030953168789681 13.20049246827073 150.0384668618854 10.27494194840381 137.4776278644455 4.864529438554492 0 1.215293195748327 17571:5.926926 17667:5.857933 17937:11.216944 18350:9.91013 18633:3.295551 
129.3068598796285 175.0526186344684 140.4677641485395 116.390933194035 120.9677788363321 140.4326148482387 198.2747189953905 98.84122210125953 95.64370055200865 151.8583900672643 113.7718882323087 133.070897187744 162.1291280302633 99.15581661707297 139.2035560318868 154.8109524006436 200 143.9745738455902 103.9009374621199 151.3971208545329 2949:9.259131 8528:8.34284 9554:8.34284 13018:7.649693 17138:6.263398 18646:1.728919 18647:1.706893 
4.249702873165819 0 21.17576637399807 0 0 0 0 0 0 0 0 0 0 0 0 0 0 0 0 0 9554:8.34284 14790:7.244228 15836:6.907755 16289:6.694181 17481:6.020452 17667:5.857933 17769:5.762623 17917:5.63479 18518:4.446946 18618:29.197272 
157.0736125665526 159.9781099409175 156.2574531295161 187.586384196185 144.7806077597596 180.0570155602902 200 142.0600232587163 126.5148371135536 165.1284292063979 156.7520441410773 174.8028580483646 193.3833808211071 134.4910678371814 144.5474552478294 200 196.6367483692183 175.4731579344018 108.5770791048173 163.8683040980234 6808:8.565983 12783:7.755053 17378:6.081077 18518:4.446946 18610:3.795299 
11.2125345310165 35.58870051476394 10.28515646923111 11.42582251081499 6.088973875482543 11.59740860565912 11.55048949286267 24.0635600065272 15.82840317349961 4.181628455335608 13.97163417296343 13.53799508724246 3.68821175175759 18.29775409625215 11.47609932952344 11.37007535008111 6.59617476588414 7.83425807801641 14.74408026993539 20.34127253182265 7680:8.565983 9249:25.02852 10824:8.160518 10953:8.160518 12612:7.755053 13726:7.554382 17289:6.145615 18173:5.288839 18191:5.270146 18522:4.434825 18637:6.299766 
0 0 0 0 0 0 0 0 0 0 0 11.93273770677121 0 0 0 0 0 0 0 0 13136:7.649693 18202:5.242748 18316:5.039623 18373:4.902422 18459:14.037834 18478:4.590986 18548:4.335507 18549:4.331877 18580:8.252556 18594:8.072152 18633:3.295551 
55.33656016404782 57.55476736018412 59.10163278580287 57.63228943783404 63.41845817980596 59.64206695505919 63.01418214801581 50.07335318611342 68.25070496227269 56.36358461555796 58.44279918168684 58.07461590127483 71.43170442589771 46.20758459249164 75.28323393294215 74.69342756750603 59.5536043150136 65.23959246002937 39.74417760586545 72.41778721211267 4268:8.853665 4659:8.853665 7203:17.131966 8944:8.34284 16785:6.45577 18350:4.955065 18471:4.61474 18573:4.171534 
95.78574730109018 81.55072137058482 129.3594509417725 106.2454461296864 94.58729013564803 148.2190991313759 200 42.78448942177086 72.13378189721945 153.857020889092 98.01542931905301 108.9035155899976 117.5900396905307 59.40650080142882 66.39502696069317 55.46178359560805 183.785170276772 92.95584973090895 47.44368907497611 118.3089154291664 16208:6.733402 16661:6.518291 18191:5.270146 18549:4.331877 18555:4.285851 
54.75791579081761 39.60362987442385 42.84861843012303 41.85704263902166 39.17619685680433 48.84171621796964 62.25196019685571 29.41049380802214 37.96620065333983 46.06409522493669 37.89191624168853 45.2921113431285 45.17657579738902 38.37915742065457 38.27279392940731 78.54014794817158 51.93542966885702 42.70864870965723 32.48717993001628 40.73487765430548 4970:8.853665 13291:7.649693 15541:21.023517 16417:6.620073 18373:4.902422 18633:3.295551 
48.75623774739267 49.66197774519733 51.54166967761088 63.35816051819999 50.78265294304074 57.95484128816424 58.9406497505227 36.05276936194394 36.61386472107766 51.78334614999855 52.87221728835557 56.03278406074551 58.89568758508501 37.76505702849625 53.78206904360773 57.74880017040407 57.71969924347673 51.96291533666718 37.62557415867585 46.34318295001134 4689:8.853665 8421:8.34284 12255:7.872836 13136:7.649693 15199:7.119064 16041:13.633568 16864:6.39693 17584:5.926926 17944:5.595569 
118.4551228992495 124.1160601773125 106.7997259741451 113.2581997270048 200 173.7595715951754 112.8796780907536 67.05666230756955 72.45357510161209 112.5405885806308 94.82047155699034 90.24508715794062 137.327145572504 88.5496166542072 80.62431734607178 200 171.9613868105572 127.1295216148279 71.59792125079424 101.6413763267166 13487:7.554382 15081:7.119064 18191:5.270146 18571:4.177726 18573:8.343068 
76.86126048004519 92.87794767764191 98.88310842437591 87.21679354168603 60.11320348944263 40.1829297517909 123.9384448463105 58.26188563232344 32.29565336688762 126.8742163673279 70.34983548150784 97.43661518176934 131.6929471151299 62.12667260037097 120.6865022777509 65.51423743812721 89.44913257257984 102.0456083441371 64.89933479225195 111.5157868368044 14016:7.467371 17537:5.963294 17919:5.621544 18191:5.270146 18584:4.091491 
0 22.73203941910494 2.896241763432271 11.35878296496887 0 17.53378506966458 30.37386457463035 3.641682600963628 19.33189458931085 0 18.77903418184207 19.6041049025161 0 7.356790785274741 25.86658198083664 35.81941081304425 0 0 10.46780693328707 0 12325:7.872836 14738:7.244228 14948:7.179689 16201:6.733402 16668:13.036582 17440:6.040255 17704:5.825143 18202:5.242748 18610:3.795299 18613:3.766069 
0 30.56433290822116 0 60.98488515732707 0 26.86465141704797 0 0 13.45309390697225 26.43477068195212 6.669417940476291 46.48834720126776 52.72222414380203 12.16194016376361 10.9317159230732 0 44.61481953415774 35.16380675761631 13.97054645065168 8.261744301798146 10718:8.160518 16427:6.620073 17917:5.63479 18518:4.446946 18605:3.860968 
107.7743197183907 99.25127929199023 90.493229412707 67.10571270762432 74.13183655815708 86.9936089895393 137.0457542146556 61.73802481136802 64.36982287192373 116.2015190809587 67.54494738610005 86.36447739632118 111.8617617562185 70.89884882941455 69.93167448380549 71.67277902167953 118.2674827505996 87.07332705346549 67.85993662959346 111.0395906358031 8187:17.131966 17702:5.825143 18229:5.216079 18575:4.159264 18633:3.295551 18646:1.728919 18647:1.706893 
38.97758596157612 32.608808192904 26.02471579634711 28.96075565265261 29.28485410596603 27.45787228696055 59.38806135436924 10.61466637683652 25.73314139213943 45.47246207339906 16.14268264901258 41.81638381569707 38.91064436115553 26.3480271174957 3.498482709477285 38.20735776433452 66.4275980793049 51.79439115567239 29.6217056873132 18.04464006610779 3912:8.853665 14024:14.934742 16463:6.620073 18296:10.15416 18646:1.728919 18647:1.706893 
0 24.66503162863059 4.169232498505958 0 0 0 10.19438096377533 0.3005873005226973 0 6.449717516814442 0 0 0 2.13216201176385 0 0 4.953972159774613 0 1.858143754741486 0 4161:8.853665 4967:8.853665 16814:6.425917 17769:17.287869 18605:3.860968 18646:1.728919 
74.00691460948718 33.48037785634067 69.51786255620533 36.75461538958292 56.65201036933683 48.74816626071239 55.24175914554611 52.91470612021035 50.7573584933049 58.03554403457575 52.34404764545586 44.60448952769584 50.64709222022674 33.11010518594033 50.7457063079306 131.4571603841642 62.55657176621742 108.0385537868907 49.2097532157478 76.36083953589706 8974:8.34284 14062:7.467371 14580:7.31322 16119:6.774224 16550:6.55108 18373:4.902422 18548:4.335507 18549:4.331877 
52.03078750879454 50.91651533146194 40.78039674843439 21.46555620955147 11.61039980951667 161.9814590243679 55.8680409895253 40.06862433937486 98.81711203388187 32.71695579557129 34.73268237147457 21.83225464626663 0 47.25096076476143 12.74485062859703 0.6421503607268082 151.549024444044 20.49652465031767 16.25173471214468 73.61865151866348 4690:8.853665 17537:11.926588 18571:12.533178 18613:7.532138 18646:1.728919 
58.99028209308594 64.23019579454001 66.16797958974372 64.97578012039222 57.62523520927721 67.31354195493097 73.49958762613394 37.54450218979613 29.50761321209773 71.44452820934012 59.27633532217769 59.42251082318722 74.44961171770343 42.89411620225123 49.59893048340579 47.20173941696054 79.33410029741044 69.78754588591325 37.62338855747156 75.02332734740827 8450:8.34284 9675:8.34284 11389:8.006368 11774:7.872836 15184:7.119064 17794:5.747585 17904:5.648213 18465:4.639072 
41.01209012073314 108.557350814493 85.1343837469888 49.25882438441292 49.25282966781313 107.2539770340904 81.07412001530143 88.10634250961847 34.61936144179078 47.1713482380739 21.69705307704635 50.70030007133977 50.06258796759019 38.84364618601687 138.6603642168392 80.50251393562587 147.9596836529268 56.83373526316111 64.35341433216085 193.2469680883936 7298:8.565983 15817:6.907755 17794:5.747585 18402:4.828314 18522:4.434825 18571:4.177726 18580:8.252556 18646:1.728919 
20.28454532517641 56.57528941897833 31.55896178198657 3.725707001961015 14.04259552314067 22.0297660883356 47.86899731158863 28.28530125036674 7.911945860170196 47.56188220437463 0 6.876810465694911 1.767697015235969 20.71571464962421 5.793524715851799 12.67870258486944 42.0029111293172 0 21.24856784827027 33.63399307322298 4499:8.853665 5415:17.70733 13908:7.467371 18335:4.996451 18373:4.902422 18584:4.091491 18646:1.728919 
0.9697211747302019 200 200 0 0 16.27300751894892 200 0 0 200 0 0 0 0 0 160.436573301184 200 0 0 200 13085:7.649693 17917:5.63479 18348:4.961845 18465:4.639072 18610:3.795299 18646:1.728919 
69.48908521681049 76.83990174527271 79.4427914346825 72.19817721400155 76.09900595570309 87.68563250130423 79.71366296603351 50.37751578939547 47.02557498037131 72.06612023516722 84.83386079736771 71.67733283751183 91.15970572288727 57.69921513198066 75.0660562853481 90.27214082794961 128.6077698795776 83.34483216032561 49.95322821279336 75.98931824401207 10400:16.321036 13437:7.554382 17470:6.020452 17937:5.608472 18404:4.822379 
0 0 0 0 0 0 0.4796867115548954 0 0 0 0 0 0 0 0 0 0 0 0 0 10527:8.160518 14062:7.467371 15934:6.861235 18555:4.285851 18584:4.091491 18605:7.721936 18646:1.728919 18647:1.706893 
6.582711540265061 34.29384012721842 18.86780284769806 8.097559104238107 10.57500486162056 21.56029792374456 28.08558862549751 2.206012454759778 0 13.11800332596605 0 35.0555037741595 0 9.778820622143879 0 25.26722971977017 13.80552853502807 0 16.39609909156058 0 6552:8.565983 13485:7.554382 14983:7.179689 16616:6.518291 16785:12.91154 17038:18.944076 18504:8.976892 18532:4.39545 18646:1.728919 
76.75995964821045 81.06294132796528 80.81504891669198 75.09365479502307 72.00396335126425 93.10057172102992 154.2224205476864 51.16500010170611 77.24421265244585 86.28197523064112 130.1726554248364 79.28720905190151 80.27819067011667 67.47736317399981 56.63487316233199 138.9865754761448 95.9552434473342 87.55581456973189 54.67885031270046 62.21004065825822 14959:7.179689 15338:7.061906 17587:5.909226 17794:5.747585 17931:5.608472 18538:4.380124 18605:3.860968 
65.58254019404193 56.71414601580936 65.95747761535092 67.41232349751698 60.1792546803127 72.96299716230824 56.94789452129297 48.15512726877754 39.37721833103867 66.5205154539657 42.98683224526392 72.72426734685915 84.97124571311176 57.62746891841737 50.01692334261509 88.10640547826218 73.50345948362774 68.08520400617432 43.81102999947223 85.53830953314073 8594:8.34284 10527:8.160518 17133:6.263398 17769:5.762623 17794:5.747585 17931:5.608472 18605:3.860968 
0 0 0 0 0 0 4.21788413053277 0 10.23746622937523 0 51.58829690216104 0 0 16.05237805737436 0 45.29952667009582 0 0 0 0 16427:6.620073 16603:6.55108 17794:5.747585 17931:5.608472 18538:4.380124 18605:7.721936 
0 30.84124463585436 0 0 0 0 0 0 0 0 0 0 0 0 0 0 0 0 0 0 13140:7.649693 17379:6.081077 17794:5.747585 17931:5.608472 18465:4.639072 18478:4.590986 18523:4.430817 18605:3.860968 
8.745642639276264 6.69963840879796 9.012597561923901 8.544091053528938 6.821702786108481 16.90882506571314 8.491059037055022 27.90786650026178 5.568038060139526 0 42.3307872418666 22.24047485217797 2.161244230587599 10.27695877552317 5.576974231324891 6.368587743294088 33.12576805610058 8.979492801189851 7.039168756667074 0 3022:9.259131 6553:17.131966 14586:7.31322 15233:7.119064 18485:4.576999 18504:4.488446 18560:4.265302 18605:3.860968 
50.40725601989953 31.10105960606064 55.21987695805115 48.1250710912494 14.8306188364213 41.73650500395676 61.32423241383398 85.96883483393022 37.98773832201383 39.84501417432161 89.93631287421981 138.8864849122832 66.28895513697275 16.43707433306701 81.827107330261 22.2941298951173 104.8586868408584 44.37557328865137 28.06518269414329 61.70379059580166 13487:7.554382 17248:6.191078 17470:6.020452 18199:5.251797 18357:4.934998 18560:4.265302 
50.80718576719876 0 49.18057054265898 70.13791195024923 55.56238674959929 62.65280067249576 32.84903777610683 6.672668065662039 37.84103238690313 0.3240822882723361 65.06820192915052 59.00917290468207 78.4001285181681 26.60790209068756 61.39010295614435 93.17833195667205 58.41372393741072 80.43408004819194 37.94005316707456 45.94911839417139 4499:8.853665 5415:8.853665 6111:8.565983 17005:6.34136 18373:9.804844 
51.47146763814268 90.07624128379382 72.84468680414723 41.74995716741036 52.71222907327854 64.59265525550813 100.8389185633083 40.68308044060649 32.70866035000052 57.96924781973096 48.02283160117258 46.56332856057411 43.26915834659067 25.97127710733771 58.75671166582884 66.50849140156605 90.22260804063751 48.0782633953955 43.10140293304242 63.28044976181253 8751:8.34284 12183:7.872836 13806:7.467371 14955:7.179689 17460:6.040255 17769:5.762623 18121:5.357158 18335:4.996451 18482:4.586302 18646:1.728919 
140.319627867184 157.2199155872421 160.0550977271529 150.3566990516144 139.730406609409 168.9110744333519 187.3631441505632 112.7739525303066 116.095539146725 152.1678030124009 149.238918206283 180.7335663759869 187.8226625106708 118.1091952202465 148.0071749639086 177.8406814913842 193.5460128728067 167.4084970673364 107.8947902912859 174.6656847635771 4145:8.853665 6322:8.565983 8192:8.565983 11714:8.006368 18504:4.488446 
42.05494882743368 16.44048308813756 37.60134161673188 41.24760600370237 22.3251291272471 21.10090417675217 27.08962110599808 40.15905252941636 13.72374512590229 64.22373396286307 31.25326123660715 64.0131577923551 69.21657828359113 36.99683007571043 16.14582252402474 23.55174481797385 103.6859699998076 75.26654186360024 16.28854806381339 43.21699218675253 15687:20.869635 17350:6.10213 18232:5.207346 18404:9.644758 18594:4.036076 18639:5.520192 18647:1.706893 
0 0 0 0 0 0 0 0 9.908979357477673 0 0 0 0 0 0 0 0 0 0 0 3652:8.853665 10527:8.160518 11082:16.012736 11433:8.006368 11612:8.006368 12865:7.755053 13908:14.934742 16457:6.620073 16603:6.55108 17306:6.145615 17959:5.58283 18350:4.955065 18459:4.679278 18471:4.61474 18518:4.446946 18613:3.766069 18646:1.728919 
4.608689686395874 0 0 0 0 0 0 0 0 28.71870471303602 0 0 58.4944915407191 5.155193795078099 0 0 33.60929526150737 51.49487442936086 0 0 3540:8.853665 9075:8.34284 12010:7.872836 12691:7.755053 14633:7.244228 15263:7.061906 18199:5.251797 18352:4.941642 18434:4.748271 18605:3.860968 18639:5.520192 18647:1.706893 
0 0 0 0 0 0 0 0 0 0 0 0 0 0 0 0 0 0 0.7444327208122385 0 3817:8.853665 13611:15.108764 13806:22.402113 14077:7.467371 15081:7.119064 15574:13.91309 17685:5.841404 17735:5.809143 17758:5.77789 18133:5.347108 18160:5.307887 18637:3.149883 18646:1.728919 18647:1.706893 
0 0 0 0 0 0 0 44.62577933232046 0 0 0 0 0 0 0 0 0 0 0 42.89903191631443 14173:7.387328 17168:6.238706 17702:5.825143 18150:5.317549 18345:4.968671 18443:4.715836 18459:4.679278 18562:4.248495 18610:3.795299 18637:3.149883 
6.009602524515254 0 2.192042397895997 0.1926781929430084 0 0 0 5.513799317747455 0 0 0 0 0 4.363938440498293 1.420773279610015 0 0 0 0.471354360295777 0 15708:48.354285 17692:5.841404 17959:11.16566 18351:4.948331 18549:4.331877 18584:8.182982 18618:7.299318 
188.2491163801194 170.3868279469572 186.8755608310711 164.1015663399208 149.7555839172991 167.3632057049318 196.4443048393093 181.2057775913572 114.62386965873 200 93.0423671870268 135.3835937416904 200 131.352882600384 169.3491034082699 156.8281761123446 200 200 114.1819572312266 200 14914:7.179689 16417:6.620073 17210:6.214608 17379:6.081077 18560:4.265302 18639:2.760096 
0 0 0 0 0 0 0 0 0 0 0 0 0 0 0 170.728093872072 0 0 0 0 5949:8.565983 8305:8.34284 10043:8.160518 12382:23.265159 17070:6.288716 17308:6.145615 18010:5.521461 18273:5.123964 18284:25.501235 18496:18.109312 18571:4.177726 18632:30.623643 
48.02945056400917 25.16068625854103 48.71269805019906 32.54590036763487 35.6622858036948 41.23954341198526 23.65236577472526 50.54409553966498 43.58315057064766 36.1899569230813 26.04243556660927 42.4716525082901 25.43199118769142 22.56079270897349 41.36863189787979 23.96939390592336 1.597183305212831 35.75477704810907 57.9408040324574 42.11844609692105 4420:8.853665 14700:7.244228 18471:4.61474 18523:22.154085 18614:3.735672 18618:7.299318 
23.52564635338801 0 0 10.19579556135875 0.06195525919023041 2.350759441364889 12.71209583587343 8.53929421248877 17.15615912034696 13.15577610865467 9.835517911522821 6.210593969777767 0 15.33037644193604 0 0.7745225906216027 0 3.895449257397586 1.927673549223825 0 7298:8.565983 9946:25.02852 13140:7.649693 17611:5.891835 18174:10.577678 18471:4.61474 18633:6.591102 
73.18346329749143 71.85774076324729 66.09008475529127 69.31426476290602 80.69145546389227 84.02710752122816 73.92345975075729 55.76241237635504 29.20932076605342 65.14646473068667 62.65679589806491 71.86042824065773 80.95865453842164 68.71186823268307 63.24293569744952 91.31090503018204 92.65277688259434 103.0576557098206 55.97284783379237 47.47201291065131 5627:8.853665 16647:13.036582 16668:6.518291 18585:4.08016 18605:3.860968 
33.02597512514145 42.62343537196036 33.4220441810232 24.35582320407833 47.62012649605204 42.92417031616922 94.93557189850623 44.28465835189752 44.84611959217187 25.69186005922614 83.34593398692981 51.22661007534535 51.42237330635749 30.3349620844171 43.18785559275435 128.3005978340679 62.39890897134996 30.52309797869458 28.77912594639158 31.96093320659982 10676:16.321036 17210:6.214608 18487:4.55865 18538:4.380124 18575:4.159264 18610:3.795299 18632:3.402627 
0 0 0 0 0 0 0 19.41456173294547 0 0 0 0 0 0 0 0 0 0 0 0 17571:5.926926 17615:5.891835 18121:5.357158 18518:4.446946 18522:8.86965 18571:8.355452 18605:3.860968 
28.02719346260707 17.31265776686951 24.01059406012988 42.99036299690738 23.1485808266489 23.35385439908509 21.26445310053097 18.09484387637173 65.75367309952416 25.13509561633958 49.68613217626983 37.89149371284578 51.06641727598043 30.26695485032587 36.29736781955516 29.20212499991263 28.99812386330721 51.05826920524326 21.35646451804616 126.3960742243342 13499:7.554382 14701:7.244228 16668:13.036582 17180:6.214608 18335:14.989353 18613:7.532138 
34.06877740419947 12.53451461565218 32.04183480207805 0 28.86294269111115 16.78037495548761 19.38241479776015 18.32859149494173 0 19.26960139149777 0.1343826992607982 3.255437509705335 1.712408219443371 10.53047413332379 0 16.30160154037758 14.1167563072021 0 3.54039512758116 0 6689:8.565983 12794:7.755053 14701:7.244228 16668:19.554873 16783:6.45577 17265:12.336176 18573:4.171534 18618:7.299318 18633:3.295551 
0 0 0 0 0 0 0 0 0 0 0 0 72.69727533854578 0 0 0 0 0 0 0 15960:6.861235 18296:5.07708 18373:4.902422 18459:9.358556 18465:4.639072 18575:4.159264 
100.3880799369945 122.4263034426813 113.1593314756234 102.5974843913686 101.9437928280053 116.6478009328923 140.7265995402292 75.24017980626429 81.23112162879359 120.8272793888389 111.5602810754059 107.6251816879043 131.409468608502 82.90709252781626 87.06616144328488 120.4800859981863 140.8715515007552 121.5321709009031 74.07023603904582 132.5045011050231 7106:8.565983 12388:7.755053 13310:7.649693 16619:6.518291 17865:5.689598 17888:5.661818 18273:5.123964 18482:4.586302 
9.056939727731359 2.45517027107935 6.92921602317248 9.707679575989417 5.992277860316961 9.917322256018133 0 7.624791602857353 5.909024336206493 1.360152717352339 6.820716813737887 10.47182444582224 0.6457405052857261 7.736412658744971 11.88456968087061 0 5.375928359483958 6.720728220704581 7.304747545232238 70.40522583713866 2970:9.259131 7106:8.565983 16619:6.518291 17865:17.068794 18273:5.123964 18482:9.172604 
0 0 0 0 0 0 0 0 0 0 0 0 0 0 7.021429441948582 0 0 0 0 0 12463:7.755053 13458:7.554382 15299:7.061906 17248:6.191078 17819:5.718171 18443:14.147508 18532:4.39545 18549:12.995631 18575:4.159264 18580:4.126278 
51.90398752032138 44.97310862294058 46.69387846330179 44.94453107932497 61.81233903792503 48.03330696985256 53.46352882428646 40.3905513818239 53.15820245050669 49.44005904417642 45.70336058291559 45.3379132196338 56.04385558363116 42.65960030315542 39.05068361420636 87.99564717758138 60.10724334710058 74.16260111669591 38.23857538041133 46.99405039073967 7119:8.565983 8763:8.34284 13904:7.467371 14517:7.31322 14885:7.179689 15811:6.907755 16175:6.733402 17769:5.762623 18585:4.08016 
52.20185932406439 63.34472818214459 62.36879447486588 56.0053540207204 52.90026370628819 66.03063199520858 62.02068139934575 46.35115619880764 65.26068597111384 48.32958347906814 58.03196372353426 61.84972298264406 41.87549162970638 43.96592879981967 71.34676654792563 60.64433642083254 51.50022829173566 44.73944747754666 43.85188699989682 70.71436563388683 3540:8.853665 9075:8.34284 10157:8.160518 13218:7.649693 13616:7.554382 13904:7.467371 16985:6.34136 18471:4.61474 
4.63101810605936 0 0 0 0 0 0 0 0 59.98505520576202 0 0 0 69.0080140168735 0 0 0 0 0 0 13806:7.467371 14683:7.244228 16003:6.816784 17005:6.34136 18288:15.277395 18402:4.828314 18523:4.430817 18567:4.199705 18633:3.295551 
71.41221895817372 100.3405602787161 99.26934458978945 96.65997979057825 81.92514809393342 108.8182205064121 111.5975980960742 60.96723710881081 49.40166274014326 85.12623703743665 85.84226523862355 94.71392534484448 114.5665784717999 55.87630291542426 67.32648506438835 97.7070650312322 128.2199526281817 104.0387606819027 57.8211711285024 81.52515502365432 3702:8.853665 5545:8.853665 6063:8.565983 17966:5.570251 18174:5.288839 18288:5.092465 
200 200 200 200 200 200 200 169.0199812302708 200 200 200 200 200 200 200 200 200 200 186.5085604534358 200 16312:6.694181 17248:6.191078 17937:5.608472 18350:4.955065 18485:4.576999 
18.06309599181341 11.18005107383511 14.53119969500521 42.47805680315481 20.10769484546009 22.67604207156479 11.3037378073369 14.17300116736636 27.25014523178606 18.96951778817843 20.37714006578049 22.04355212045254 25.79663185359632 17.18409791995554 71.08228590984511 12.42886674813098 19.2068893527787 22.98871853699072 11.1066750912155 15.26807745761877 3401:8.853665 5960:8.565983 8303:8.34284 13499:7.554382 17460:12.08051 18010:5.521461 18518:8.893892 
0 0 0 0 0 0 0 0 13.66543954395527 0 0 0 0 0 0 0 0 0 0 0 12940:7.755053 16175:6.733402 17138:6.263398 17602:5.909226 17944:5.595569 18288:10.18493 18402:4.828314 18518:4.446946 
0 0 0 0 0 0 0 3.899294034860254 0 0 0 0 0 0 0 0 0 0 0 0 3613:8.853665 3842:8.853665 4679:8.853665 4933:8.853665 5014:8.853665 5374:8.853665 9088:41.7142 15590:6.956545 17735:5.809143 18288:20.36986 18504:4.488446 18605:3.860968 18611:3.774334 18618:21.897954 18637:3.149883 
0 21.30115692575205 0 9.390619571254916 0.981625755700766 0 19.6264959361049 4.276337333955088 6.901156547938243 0 36.57568847643888 3.684171354705276 9.882695257133337 0 0 33.5185178490505 11.28858159088011 11.81669857003589 5.445342911907101 0 8374:8.34284 15431:7.007839 16871:6.39693 18288:25.462325 18485:4.576999 
0 0 0 0 0 0 0 0 0 0 0 0 0 0 0.9836795594085685 0 0 0 0 0 8519:8.34284 9379:8.34284 10293:8.160518 12588:7.755053 13728:7.554382 15308:7.061906 18202:5.242748 18273:5.123964 18316:5.039623 18335:4.996451 18345:9.937342 18532:4.39545 18575:4.159264 
75.79698838286279 86.44196966729503 84.78387781128065 83.06622001736362 73.76417701077031 92.97525692679903 90.64978561288001 95.08437679530758 64.67576724461146 82.87666161427939 85.11528575065708 84.32874423726379 90.68507589940963 63.64273411111427 77.30653511646098 55.46268681602623 94.84053644079236 80.67062507979516 56.87140573042441 81.59214537535556 6053:17.131966 9535:8.34284 15911:6.861235 17308:6.145615 18345:4.968671 
0 117.1919297597535 0 0 0 0 162.6910625757448 27.1491650178383 18.22170455153071 0 0 0 57.14274657598404 31.92994344476171 21.73086753962728 1.00188388542642 0 0 16.67294634877789 55.96941763244843 14740:7.244228 17654:5.87474 18373:4.902422 18434:14.244813 18532:4.39545 18637:9.449649 
0 0 0 0 0 0 0 0 0 0 0 0 0 0 0 0 0 0 0 12.38840934840748 3935:8.853665 9169:8.34284 15199:7.119064 17611:5.891835 17702:11.650286 18043:5.48637 18345:19.874684 18537:4.383933 
0 0 0 0 0 46.88151178605671 0 1.182268197313907 0 0 15.63998745827937 17.97539338569882 52.16226957753373 6.333725508588914 47.22042949723193 0 16.38726104111361 0 6.706129854144123 3.423063879664938 9158:8.34284 15517:7.007839 17611:5.891835 17769:5.762623 17959:5.58283 18465:4.639072 18571:4.177726 18575:8.318528 
14.97642277642691 36.96262516054365 19.51654316404267 43.2974545384988 15.69783300906627 36.0286795315674 32.55239956171791 11.70420060746703 18.00324641850409 23.31388046760894 33.24232009102522 30.28990809372676 34.67148625700952 23.39320769581397 36.35461228956601 0 35.24389040246718 19.8646600293227 8.632313551109313 17.38960712384825 8974:8.34284 9782:8.34284 16008:6.816784 16619:6.518291 17265:6.168088 17956:5.58283 18351:4.948331 18605:3.860968 
32.26170134214091 176.7487936025295 49.07257793538436 29.05736706464221 22.12700660707136 42.91327802865486 0 94.82066119142998 17.40524997021842 183.9501327706207 32.95046493265985 81.48867369907927 0 52.24931718281477 0 115.8310098837026 52.34327297891497 11.56985233948643 8.948386383663085 3.581101922639068 18373:9.804844 18478:4.590986 18487:4.55865 18504:4.488446 18532:4.39545 18549:4.331877 
0 0 0 0 0 0 0 0 0 0 0 0 0 0 0 0 0 0 0 57.55351711568942 15911:13.72247 15960:13.72247 18010:5.521461 18326:5.017804 18335:4.996451 18373:4.902422 18465:4.639072 
36.29420719390261 87.62810169076471 43.1149904907866 33.81544676116539 28.01799025799895 37.60581522825887 48.98470654783469 59.21313228031543 27.94998224555724 36.64411676920238 46.20983280907968 41.60001037685689 50.7903263917314 29.89058439131879 95.90816056763178 15.13982852034983 32.49915782394758 46.22275760553582 37.24836956600825 114.4813193195459 13515:7.554382 16106:6.774224 16902:12.79386 17027:6.314692 17268:6.168088 18335:4.996451 18478:4.590986 18580:8.252556 
59.45246651029797 78.46796794018161 67.2062340741583 75.74361951653496 49.07546394870499 72.30569042725155 47.6645850680118 52.09180500515522 48.89596314967125 52.11873356039061 71.02364667796789 69.77390208294223 42.11882134558792 50.57136145494837 70.5483812686041 49.57842723292038 44.30248886981349 72.24745485237209 36.42480162871993 28.66115404041667 11889:7.872836 13834:7.467371 15960:13.72247 18352:9.883284 18611:3.774334 
86.81009722124628 105.8474599266287 104.3288099858206 120.4455309122735 98.59769298468817 116.3676448908459 109.0783708904562 68.83667439167468 76.65062051993577 95.70316422442363 133.688320285835 106.7436871439711 119.0115789908714 73.51542496554416 97.27121592986566 111.8972879033622 111.5143257836783 105.9402331918163 69.32281280524502 106.0073251112764 6498:8.565983 7396:8.565983 14719:7.244228 16049:6.816784 17571:5.926926 18518:4.446946 
125.823607497332 168.589748279143 162.7403331794345 154.0904567490675 141.2454911714296 174.1663895685912 156.8519338801021 110.5095150805496 151.7451008427453 143.90267326444 116.0974063930111 155.6420544613472 184.9579630320693 103.9932867049946 171.0441113663877 161.1330858749037 192.514056168198 167.3052071813079 101.0555736170048 200 7657:8.565983 15102:7.119064 16457:6.620073 17005:6.34136 18443:4.715836 18471:4.61474 
56.05139955032467 75.06905847011677 58.57588873547555 81.48060305198626 48.6505125301717 68.26632453789753 64.0764937473319 35.62743146367028 42.19352642939668 67.46950020151857 60.0792365451394 59.55043983894981 66.20849648318693 61.99397693281573 34.8838914837294 55.88417029428179 74.60109837550239 63.39063938644657 43.501370628553 59.49581171810075 12380:7.755053 16008:6.816784 16864:6.39693 17210:6.214608 17888:5.661818 18605:3.860968 
22.26522723810004 0 0 0 15.57300406365391 0 0 32.78091968077276 0 0 0 8.31734134174221 0 28.3789209827081 0 82.19220163809338 0 65.14153589662445 0 0 15151:7.119064 16078:6.816784 16240:6.733402 17268:6.168088 18357:4.934998 18504:4.488446 18532:4.39545 18548:4.335507 18585:4.08016 18605:3.860968 
109.5297434173194 102.9285785953651 106.8554625343064 109.3119979909627 100.6116724985217 130.8430513033221 127.8907354610812 76.36056369862564 116.9034058349901 107.1646963882771 109.5787987644752 121.3977312948344 138.2074167788118 102.5501989800813 77.04372202354688 93.52082093955764 136.4400899067934 127.7812919124614 76.2752531686768 146.8381279399818 15648:6.956545 17615:5.891835 17688:5.841404 17769:5.762623 17819:5.718171 18010:5.521461 18605:3.860968 
-146.4807728281534 121.4241149743802 132.9625623432107 93.43915589283043 132.7659266704969 180.8809155378432 200 148.4534951054532 120.0607822238083 200 88.11996753423472 177.7363686635099 170.3154983566642 143.4527896994134 92.0734234052199 200 200 147.2535068889222 141.9762405709222 181.1297879998033 12350:15.745672 18610:3.795299 18643:2.439114 18644:2.115908 18645:1.760815 18647:1.706893 18648:1.68329 18649:1.641863 
-10.84924463796305 1.77049393962248 12.79816076036345 6.393749194249748 10.63331217215919 16.7487188021247 30.85681673359726 16.00669823419172 14.32896880935171 28.56970526745539 5.391101162378191 12.64776641811518 13.97577578633011 19.47261658635158 7.555618074593184 13.67798828942901 26.61913597286212 13.02130136493749 12.13458140025656 14.49361321032935 571:9.259131 573:9.259131 574:9.259131 632:9.259131 730:9.259131 858:9.259131 1011:9.259131 1029:9.259131 1117:9.259131 1442:9.259131 1454:9.259131 1788:9.259131 1936:9.259131 2158:9.259131 2235:9.259131 2282:9.259131 2297:9.259131 2428:9.259131 2577:9.259131 2615:9.259131 2726:9.259131 7041:8.565983 18633:3.295551 18645:3.52163 18647:1.706893 18648:1.68329 18649:1.641863 
-0 0 0.08370784465736072 0 1.160360250076973 4.369450255389665 17.24890516106276 7.788642527405426 2.71754750450975 5.21199680091156 0 5.798071758593401 1.172043339030815 5.330531043491552 0 3.370308330511792 0.8717022847003294 1.070595970748033 6.641378716376296 0 810:37.036524 1062:9.259131 1342:18.518262 2384:18.518262 6490:8.565983 6527:8.565983 18456:4.694782 18643:2.439114 18644:2.115908 18645:1.760815 18647:1.706893 18648:1.68329 18649:1.641863 
-11.61389769277367 5.799050168420581 22.48398346165917 11.71470108057578 13.08178943268493 31.25395518194627 18.4167526065963 13.69839033995044 22.06903797173903 18.43938691103523 9.085095418291136 7.593532766005624 11.3454817920017 12.66558903647218 15.5190945102319 20.40664281528116 18.88149536322648 11.8221847471768 11.01007438748563 27.83024194010317 1067:9.259131 1138:9.259131 1383:9.259131 1956:9.259131 2008:9.259131 2009:9.259131 3195:8.853665 8443:8.34284 16570:13.10216 18552:4.313923 18641:2.554104 18645:1.760815 18649:1.641863 
-200 200 200 200 200 200 200 200 200 200 200 200 200 200 200 200 200 200 200 200 18570:4.180837 18579:4.144135 18582:4.102953 18645:1.760815 18649:1.641863 
-200 200 172.947511876792 168.0732201955186 200 157.4014188607917 200 200 143.0277592300824 200 200 200 200 148.8937395963863 169.3465412167717 200 200 200 200 154.0656208751576 2443:9.259131 18552:4.313923 18643:2.439114 18644:4.231816 18647:1.706893 18648:3.36658 
-190.9448660561411 193.0207832455002 4.480638338646506 177.1610844956717 163.5521213380371 17.27228664023562 53.19633677000365 160.066027106364 0 35.21989213064562 161.1204703065696 184.7971514978805 200 20.83450961811577 200 115.421125215614 200 197.2019775064561 132.1237518637643 63.84020538851341 5115:8.853665 5625:8.853665 9112:8.34284 17714:5.825143 18570:4.180837 
-52.30993903641466 29.42807100198295 37.90675990123687 36.79959000305953 26.84295837394705 51.76403991630241 80.51349632913546 50.84201255451838 43.33464252455882 84.71299585426222 42.39389600950332 31.14499576762353 33.61832036507499 56.03851467372331 39.97795757301594 39.19623037636465 43.935770444201 49.91759819892468 32.23291631907138 66.78936510219846 511:9.259131 575:9.259131 999:18.518262 1447:18.518262 18549:8.663754 18613:3.766069 18631:6.810984 18642:2.466225 18645:1.760815 18649:1.641863 
-0 0 198.7905121154911 0 0 200 200 0 156.9167843643827 200 0 0 0 135.5880140163836 14.59227101377692 110.1401930628658 13.34301120123623 0 0 200 5115:8.853665 5625:8.853665 9112:8.34284 18570:4.180837 18641:2.554104 18645:1.760815 18649:1.641863 
-200 200 200 182.7680329821855 200 155.464256593489 200 193.1542513858303 151.4946598027894 200 178.3920881895629 200 200 175.5827733151127 179.3113326901719 200 200 200 200 153.4725868412666 1497:9.259131 2645:9.259131 18638:3.100035 18644:2.115908 18647:1.706893 18648:3.36658 
-15.95702107767465 20.13984584779944 14.5072609642385 21.74959272428447 16.73781616531766 17.79456306615286 51.44317547882477 30.0178397838541 14.51155533214439 59.99843488602237 23.23038711471161 35.30028378080571 29.75339125938043 29.07188686650157 20.096837610838 20.43654870202842 27.81048057538266 27.54787153008975 28.93994934155404 23.92339404330635 620:9.259131 869:9.259131 896:9.259131 997:9.259131 1248:9.259131 2049:9.259131 3891:17.70733 5431:8.853665 8498:8.34284 18626:3.449488 18640:2.55963 18642:2.466225 18643:2.439114 18644:2.115908 18647:1.706893 18648:1.68329 
-48.20756593217172 22.87237980366455 25.22271407593559 17.24858458181533 34.88826065582639 37.70159110653262 78.80021551937499 50.16308469906544 29.9796784033503 61.04889636917414 16.18565492070926 42.04835996644877 32.53276865434095 44.92388588371824 18.25132036825362 67.13720924667442 40.60701386481113 38.89244949707939 37.47601918674641 35.15960519876886 447:27.777393 1097:9.259131 18572:4.177726 18585:4.08016 18610:7.590598 18643:2.439114 18644:2.115908 18645:1.760815 18647:1.706893 18648:1.68329 18649:1.641863 
-4.522390741745623 2.99978508411825 36.59235936852993 5.584447156486654 25.92746080645354 28.73997270844573 56.92083836809164 23.77910573997572 22.27625960489776 37.57334566615908 1.627262517359297 20.90984524710828 16.63067197156645 17.33557205314296 11.51562433086379 17.88112995758539 18.371866068294 17.68307154336151 22.90166009094423 25.57927353586616 358:9.259131 938:9.259131 960:18.518262 1323:9.259131 1326:18.518262 2316:9.259131 18638:6.20007 18641:2.554104 18643:2.439114 18644:2.115908 18645:1.760815 18647:1.706893 18648:1.68329 18649:1.641863 
-0 0 0 0 0 0 31.90313084194851 14.35278412371231 8.073298837463708 54.17884260630554 0 0 17.45614306424662 16.58153142778518 0 0 37.57554009295968 35.61953845238675 0 0 691:27.777393 16435:13.240146 18552:4.313923 18628:3.437565 18631:3.405492 18639:5.520192 18641:2.554104 18644:2.115908 18645:1.760815 18647:1.706893 18648:3.36658 18649:1.641863 
-0 0 0 0 0 0 12.76478464053899 0 0 0.6496087929208918 0 0 0 0 0 0 0 0 0.4623432032291791 0 363:9.259131 615:9.259131 675:9.259131 719:9.259131 952:9.259131 1440:9.259131 1920:9.259131 2485:9.259131 2515:9.259131 2989:9.259131 11015:8.006368 12169:15.745672 16708:6.486542 17456:12.08051 17577:5.926926 18520:4.438849 18605:3.860968 18626:3.449488 18634:3.223649 18643:2.439114 18644:2.115908 18645:3.52163 18647:1.706893 18648:5.04987 18649:3.283726 
-158.4951663047251 159.05026191338 185.6085052157154 149.6720204493357 148.9509475766557 200 200 142.6194260959649 142.3724775836945 200 142.3143836715656 151.8284757786326 177.8301451017693 162.1481215882264 145.2287441553069 194.7817502728563 200 188.7733305637044 127.5515821867717 200 679:9.259131 722:9.259131 1179:9.259131 18631:3.405492 18645:1.760815 18649:1.641863 
-23.37334802452559 21.84891823612647 11.40603279352969 9.268586289917142 0 0 0 26.08038359525514 4.104993669764387 22.89061602937796 0 18.12702209962029 75.69074230035146 18.12410675846841 21.11236899140626 18.98386035950705 65.0069555357221 59.30517150310607 7.230288072559356 27.41296649825486 2848:9.259131 2922:9.259131 3862:8.853665 7594:8.565983 11015:8.006368 12169:7.872836 17456:12.08051 17577:5.926926 18578:4.147143 18620:3.592704 18639:5.520192 18647:1.706893 18648:1.68329 
-0 0 0 0 0 0 69.99806959040626 0 0 127.6691812570908 0 19.64862787717604 0 0 0 0 0 0 110.5248786224011 0 600:9.259131 658:9.259131 1135:9.259131 1352:9.259131 15689:6.956545 18456:4.694782 18503:4.492692 18614:7.471344 18641:2.554104 18643:2.439114 18644:4.231816 18645:1.760815 18646:1.728919 18647:1.706893 18648:3.36658 18649:1.641863 
-57.39272351705736 65.93815276865926 58.70662228393155 54.29125190959888 46.32258051035852 58.89442884775953 61.18287183488539 42.62335732538254 46.5987529352852 63.22193846441101 48.6323842168681 49.74889434394924 54.18549903175539 44.29356866065799 48.62145770940543 53.17578811301063 70.48874612441261 52.11016803283192 39.2570191412094 62.92965591380258 890:9.259131 1590:27.777393 2196:9.259131 18640:2.55963 18646:1.728919 
-13.18657138306079 7.535570408381262 39.01874022089119 25.1244105842731 9.429926362687739 53.95174217878378 31.01689113206238 36.13212062395642 41.8565549509075 61.46176874885096 10.45201389048278 13.62860021670036 15.01982696095666 39.90656223652396 33.26097088729656 41.91255268584178 19.52173755020434 26.07940894100085 13.06676004945502 52.48436866745157 523:9.259131 876:9.259131 1758:9.259131 2362:9.259131 2647:18.518262 3001:9.259131 4658:8.853665 18572:4.177726 18636:3.16218 18640:2.55963 18641:5.108208 18645:1.760815 18649:1.641863 
-0 0 0 0 0 14.19699005838643 56.78942874020053 0 0.5603695428681158 29.66219865613887 0 0 0 0 0 3.677926123993745 3.52578046384677 0 14.06622716461573 7.145438321849504 361:9.259131 584:9.259131 1070:9.259131 2517:9.259131 3557:17.70733 7594:8.565983 13467:7.554382 15807:13.81551 17577:5.926926 18602:3.912023 18643:2.439114 18644:2.115908 18645:3.52163 18646:1.728919 18647:1.706893 18648:3.36658 18649:3.283726 
-0 0 0 0 0 0 0 0 0 59.986492307336 0 0 0 0 0 0 0 34.63272878210412 0 0 6693:8.565983 8625:8.34284 8913:8.34284 16570:6.55108 17456:6.040255 17577:5.926926 18456:4.694782 18578:4.147143 18639:5.520192 18641:5.108208 18645:1.760815 18647:1.706893 18648:1.68329 18649:1.641863 
-25.78487324527456 25.67562318321334 26.54962172706725 20.59417598386147 26.38647501882857 24.85384696407098 28.01887400232334 17.27547456595652 17.09071536896518 17.35483568163735 29.28468501217579 19.84101439783088 21.97948169888572 14.52481435667447 22.10152788522738 19.09976512288084 27.99749472423805 22.20442889394335 16.28910109988673 25.5181937464623 417:9.259131 861:9.259131 1176:9.259131 1195:18.518262 1637:18.518262 1676:9.259131 2036:9.259131 2559:9.259131 8720:8.34284 10059:16.321036 18552:4.313923 18646:1.728919 
-17.28943086183424 200 42.23263022610929 49.61474760056385 200 105.0806443975166 200 200 47.77151244854358 77.52875721956242 200 0 7.56764587150067 200 50.79317286188732 200 36.37412744329132 0 28.2469539221387 148.6348889798587 18552:8.627846 18583:8.194412 18600:3.965826 18636:6.32436 18642:2.466225 18645:1.760815 18649:1.641863 
-58.6008462958827 72.16050316165227 70.61398389686087 66.83744990648752 50.27061660565845 116.1925000341686 148.5115542921891 55.1655171764916 75.90623757136501 127.7760573502701 67.25696976249486 41.51298731129398 50.97880510791315 90.07951640142429 56.17071591608386 84.12253522523788 107.1590787419484 44.0039517766384 65.62532320093203 135.277990191439 550:9.259131 551:9.259131 1749:18.518262 18628:3.437565 18642:2.466225 18645:1.760815 18646:1.728919 18649:3.283726 
-0 0 0 2.139922846730086 0 0 0 7.083900399939242 1.101110702997353 0 0 0 0 10.9710491880596 0.06413729011638661 0 0 0 3.126902065483141 4.505884121033921 5980:8.565983 6557:8.565983 6902:8.565983 7745:8.565983 8705:8.34284 9224:8.34284 10997:8.006368 11593:8.006368 11971:7.872836 12351:7.872836 12761:7.755053 13345:30.598772 13919:7.467371 15511:7.007839 16042:6.816784 18597:4.006857 18640:2.55963 18642:2.466225 18643:2.439114 18644:2.115908 18645:1.760815 18646:1.728919 18647:1.706893 18648:1.68329 18649:1.641863 
-90.36164933031723 115.992923304957 93.63075006435281 38.61289593330967 141.4857885920127 117.2817407062415 200 54.42122018176463 79.25354932071215 200 93.5690803704946 131.1668887216121 123.0574475194459 57.34034255879251 42.09356405654426 113.1187743600575 200 105.8590746003085 99.09488577127614 123.436050182852 2462:9.259131 2953:9.259131 13345:7.649693 18552:4.313923 18644:2.115908 18645:1.760815 18646:1.728919 18647:1.706893 18648:1.68329 18649:1.641863 
-0 0 0 0 0 0 0 58.64779233753501 0 0 0 0 44.17829547075041 13.97451701431693 0 0 49.57579633324198 43.12918368053693 0 0 1591:9.259131 1729:9.259131 11581:8.006368 15807:6.907755 16558:6.55108 17577:5.926926 18456:4.694782 18500:4.514198 18543:4.361291 18562:4.248495 18600:3.965826 18627:3.440532 18636:6.32436 18637:3.149883 18639:5.520192 18640:2.55963 18645:1.760815 18647:1.706893 18648:5.04987 
-65.63852670683173 14.28388610440687 42.57155468458254 37.63833194091638 57.21058280581923 7.998032985535525 37.74864190627034 47.17640276522106 22.80210326344831 46.65424848489021 34.3893883067349 33.67330980854081 71.1572410406277 43.89496671461025 18.03656370246841 51.51395091720396 85.29066322019507 120.4345827687234 29.6092000728015 27.00068344019039 420:9.259131 672:9.259131 945:9.259131 1158:9.259131 2353:9.259131 2900:9.259131 3006:9.259131 15807:6.907755 18585:8.16032 18602:3.912023 18634:3.223649 18638:3.100035 18639:5.520192 18647:1.706893 18648:1.68329 
-152.6653594097969 69.45513106584667 148.6610103312438 130.4675985353833 109.8109931928585 141.5207463949372 200 150.4268106252064 109.3432628804235 200 120.0100223781936 120.1039796350891 200 183.0680613629864 75.56496123383209 136.5174975806811 200 200 103.4436680611029 200 624:9.259131 1580:9.259131 18596:8.018956 18602:3.912023 18639:5.520192 18645:1.760815 18647:1.706893 18648:1.68329 18649:1.641863 
-0 0 0 0 0 0 0 0 0 0 0 0 0 2.248312977736925 0 0 0 0 0 0 3172:8.853665 3493:8.853665 3580:17.70733 3898:8.853665 5166:8.853665 5357:8.853665 8461:8.34284 8644:16.68568 8856:8.34284 8920:16.68568 9005:8.34284 9288:25.02852 9399:8.34284 9637:8.34284 9769:8.34284 9857:8.34284 9898:8.34284 10563:8.160518 10664:8.160518 10801:8.160518 11185:8.006368 11987:7.872836 12114:15.745672 12123:23.618508 12985:7.649693 13804:7.467371 14582:7.31322 15086:7.119064 15198:7.119064 15366:7.061906 15612:6.956545 15807:6.907755 16435:13.240146 16570:6.55108 16819:6.425917 17577:11.853852 18025:5.509626 18540:4.376329 18626:3.449488 18627:3.440532 18641:5.108208 18642:7.398675 18645:3.52163 18646:1.728919 18647:1.706893 18648:1.68329 18649:3.283726 
-0 0 0 0 0 0 0 3.154119366959567 0 0 0 0 0 0.1572970784489005 0 0 0 0 0 0 3271:8.853665 3272:8.853665 3581:8.853665 3728:8.853665 3768:8.853665 3980:8.853665 4040:8.853665 4355:8.853665 6304:8.565983 7835:8.565983 8461:8.34284 8644:8.34284 8856:8.34284 8920:8.34284 9005:8.34284 9288:8.34284 9399:8.34284 9637:8.34284 9769:8.34284 9857:8.34284 9898:16.68568 10563:8.160518 10664:8.160518 11185:24.019104 11987:7.872836 12114:7.872836 12123:7.872836 12985:7.649693 13804:7.467371 14582:7.31322 15086:7.119064 15198:7.119064 15612:6.956545 16435:6.620073 16819:12.851834 18025:5.509626 18456:4.694782 18641:2.554104 18646:1.728919 18647:1.706893 18648:1.68329 
-4.004820784088674 21.6403364937315 17.54159870702056 8.489654878320572 15.12462472882756 25.92607333675213 59.42701457160943 22.76484806489208 19.23476981491068 57.31446602914121 0 29.44960014469827 17.38978936866215 19.63834575089145 7.798484781270684 24.09309517061073 31.32706973675027 19.86058423408409 24.79228190162658 31.27503675246238 454:9.259131 471:9.259131 608:9.259131 709:9.259131 726:9.259131 729:9.259131 753:9.259131 978:9.259131 1241:9.259131 1310:9.259131 2460:9.259131 2676:9.259131 2677:9.259131 18582:4.102953 18641:2.554104 18643:2.439114 18644:4.231816 18645:1.760815 18646:1.728919 18647:1.706893 18648:3.36658 18649:1.641863 
-47.5309774483442 5.472857325106799 0 0 0 34.64141813209252 93.39375377326571 44.0421504596349 45.93064574549698 104.7510744027272 0 4.418616942850322 0 35.46865666636725 0 8.185724105535881 31.28683837315214 1.887756423306019 29.76088039678172 38.96273823585869 426:9.259131 492:9.259131 665:9.259131 673:9.259131 1362:9.259131 8694:8.34284 18571:8.355452 18601:7.916632 18606:3.836386 18613:7.532138 18626:3.449488 18633:6.591102 18643:2.439114 18644:2.115908 18645:1.760815 18646:1.728919 18647:1.706893 18648:1.68329 18649:1.641863 
-0 24.68532438551419 68.33316171880941 0 35.59315618647452 34.97043367184092 200 200 30.75808298355501 192.1380098610181 0 16.66038007343445 0 181.3420415795168 0 73.38354711876565 41.6902307390729 0 47.09752568776734 31.48622264324625 18499:13.555668 18543:8.722582 18560:4.265302 18600:3.965826 18636:3.16218 18638:6.20007 18643:2.439114 18644:4.231816 18645:3.52163 18646:1.728919 18647:1.706893 18648:1.68329 18649:3.283726 
-134.3589402105406 147.6721566223509 156.657673157704 115.2256662809168 127.6585661047461 137.8677202940949 173.4872186069409 83.95564563319154 96.02194429816956 103.0640913201955 113.4026277877303 99.92488788650729 136.2560668583904 88.93989195050571 110.833051312137 121.2526397802841 170.2398290232539 124.529425699831 40.13013680505688 142.5994982158839 818:9.259131 2856:9.259131 5310:8.853665 6592:8.565983 18638:3.100035 18646:1.728919 
-29.26497786495529 32.59228583414606 27.84947848977342 26.40417213577946 22.30287330247542 30.2401753933394 27.41809567401759 25.09340220250334 22.84665514043003 25.15264560452009 26.4735590656819 26.25372344083315 27.74975685691989 23.80874158194768 26.7630728720966 27.7202241724507 34.73581689019984 27.59692228049904 18.40889854840113 30.63038147526259 702:9.259131 951:9.259131 1173:27.777393 1671:9.259131 2562:18.518262 2761:9.259131 6592:8.565983 18646:1.728919 
-78.28494054785949 93.14379380882414 97.79631789466245 56.28662246429365 73.77847278737393 71.4892413961239 90.60481716675385 63.316038062245 50.1746672917356 114.6960080705433 55.10130005217238 93.31399912297859 66.25738108405116 41.4932277422872 56.539656647585 63.65997295219977 89.49299553469429 58.50213692879017 160.1778124884345 93.00818057377883 2100:9.259131 5310:8.853665 6592:8.565983 13329:7.649693 18614:3.735672 18638:3.100035 18646:1.728919 
-200 200 200 200 200 199.7889483194136 200 200 165.5971549884615 200 179.9248353038055 200 200 200 187.4821009142573 200 200 200 155.4227879862547 200 529:9.259131 11912:7.872836 15447:7.007839 18639:5.520192 18647:1.706893 18648:1.68329 
-123.132762434592 143.4885332957828 200 127.2988590567539 200 163.8635473071484 141.784986563925 110.351519584327 118.4788611885982 170.5056246424743 121.8393597342626 129.297454869967 158.2971757445463 104.4634471181915 189.7024641729462 146.1087363376259 150.6418549584328 153.6252100288774 79.55470704861246 165.1473836458408 1068:9.259131 1069:9.259131 8694:8.34284 18503:4.492692 18621:3.573852 18638:3.100035 18641:2.554104 
-8.532712319540741 33.39812193297362 27.98113871254665 3.011477259256854 11.12981913584405 37.35461061901216 55.54866048023706 27.77750816724537 34.2740026184543 90.61951105364047 0 34.92711976156821 25.70754801578268 54.12341519815739 20.01828860440844 27.92849531285439 47.48026308866893 31.85289986628149 26.6683018993364 38.88657884538588 958:18.518262 959:18.518262 15807:6.907755 18579:4.144135 18600:3.965826 18641:5.108208 18644:2.115908 18645:1.760815 18646:1.728919 18647:1.706893 18648:3.36658 18649:1.641863 
-8.786418015564783 8.101457651791561 11.61127075847179 6.418569136333202 5.597919852253555 16.62918457926673 25.12629498048062 19.0963192181687 13.33914797729598 25.06483553369175 7.652522975725591 11.2898057963117 6.092069388870795 19.00725059452505 10.13051263366548 14.42854603276109 11.77631596263514 8.609356082087936 14.55484522387468 19.27606055317247 531:9.259131 555:27.777393 721:18.518262 953:18.518262 1313:9.259131 1551:9.259131 1703:9.259131 1817:9.259131 1942:18.518262 3000:9.259131 18610:3.795299 18641:2.554104 18642:2.466225 18643:2.439114 18644:2.115908 18645:1.760815 18646:1.728919 18647:1.706893 18648:1.68329 18649:1.641863 
-200 200 200 200 200 200 200 200 200 200 200 200 200 200 200 200 200 200 200 200 966:9.259131 18645:1.760815 18646:1.728919 18647:1.706893 18648:1.68329 18649:1.641863 
