svm_type c_svc
kernel_type rbf
gamma 3.6e-05
nr_class 19
total_sv 5679
rho -8.03657 -10.4101 -17.545 -19.743 -0.537675 -22.6327 -14.5635 -13.5708 -10.1004 -10.0569 -1.81885 0.554526 2.46777 -23.9256 -12.7426 -10.1031 -5.17448 -17.548 -1.0904 -20.4879 -12.2234 9.36053 -12.8597 -6.00164 -2.53542 -1.92662 -1.7491 6.32697 10.2031 11.0318 -22.7882 -6.6595 -0.594263 2.4508 -6.88178 -8.04666 -10.5453 9.42177 -11.7619 -3.2135 -1.00398 -0.754083 -1.60461 8.36717 10.9256 13.3373 -12.8986 -5.00552 -0.670845 2.77934 -3.56734 -2.99284 22.6552 -3.56728 4.15135 7.89159 11.4761 3.32254 16.1209 20.7987 22.4432 -10.9614 4.65314 11.2553 10.8622 7.20383 23.3942 0.691447 6.65748 10.4516 16.9023 4.81991 15.9912 19.4149 24.5313 -6.93878 6.60745 14.9632 15.3765 8.00455 -24.5266 -15.3077 -11.1431 -13.6367 -8.65962 0.113456 1.38547 1.94664 -24.2702 -16.6805 -11.3328 -5.82627 -17.2808 5.49551 13.9516 14.6013 11.0028 9.72726 19.548 25.2422 -7.42378 8.50817 18.5727 16.7013 9.8119 3.91221 5.73093 4.88344 11.4723 17.3087 15.8267 -8.66163 0.724368 8.66611 8.62192 1.73309 -0.216118 0.991102 9.4791 13.8117 13.6214 -12.5046 -2.40344 3.09572 2.21559 -2.40569 -3.70237 10.3304 13.1868 14.6353 -17.3898 -5.94706 2.72315 5.14162 -4.35657 7.71488 11.4307 12.9508 -19.9263 -2.40191 2.03084 4.59559 -5.19179 0.338261 1.30353 -17.2457 -8.71605 -6.93068 -4.96929 -10.11 0.374532 -21.0136 -15.8401 -8.19939 -6.20977 -15.5047 -25.4521 -12.1784 -12.8475 -7.69706 -17.9792 12.0325 26.4027 17.4422 11.2277 8.21723 9.30927 0.883382 6.19252 -7.93109 -8.70968
label 1 2 3 4 5 6 7 8 9 10 11 12 13 14 15 16 17 18 19
nr_sv 257 375 187 389 353 188 414 236 377 268 319 302 241 209 425 257 371 170 341
SV
8164.65818165068 6256.128397690808 11201.0102061938 0 7095.684443086421 11993.90960506512 0 8120.745577022361 7924.415519015548 8116.217768994694 6627.647281357393 6649.398019702969 7645.363056969532 10498.95478055094 8129.166984658395 10422.52928503863 0 0 3910:0.3136 4747:0.3136 5829:0.3136 6911:0.3053 6988:0.3053 7561:0.3053 7681:0.3053 13021:0.5244 16684:0.3403 16773:0.1575 16880:0.0892 
12255.4626891023 12704.0050341428 16479.76982589116 14202.11292640659 10598.0396515477 11857.99482078454 12793.72641001979 15796.9174876681 13211.73550210263 13555.21726407332 6996.335826582476 11703.48257864994 10758.92694669176 18795.3071898019 15067.4286227639 12376.40393723702 10460.08964134373 13747.98660422248 5981:0.4233 8721:0.403 11352:0.3775 12752:0.3572 16237:0.2717 16644:0.2344 
150000 150000 150000 150000 139465.3009587585 150000 150000 150000 150000 150000 140524.648838011 145725.147437443 150000 150000 150000 150000 147459.7165398887 150000 2996:0.1307 15377:0.0916 16334:0.0792 16776:0.0634 16821:0.0586 16863:0.0499 16874:0.046 16880:0.0359 
0 0 0 0 3783.171294660272 10171.50355836532 0 0 0 0 193.700912924846 0 0 16183.06799443632 0 13117.23845671145 0 0 2776:0.2188 3603:0.2188 14801:0.1605 15929:0.2863 16791:0.1036 16880:0.0602 16882:0.0581 
1789.905549242754 317.934458819155 460.0082379879465 238.9414418489948 0 891.2779397107987 681.5622610400267 2307.553834363336 1292.298755454069 1627.358314484841 1144.428394453302 734.2085516188749 168.0689681952941 1620.588516971671 0 737.2122843746433 607.4431913587962 2689.880457533232 2529:0.4168 6046:0.4031 9695:0.3701 12599:1.0304 14163:0.3198 15008:0.6025 16136:0.2629 
22349.69183639734 18601.63380120322 25334.45368124648 23632.55392425738 17480.05959786814 24231.22419046296 23068.78366650421 25506.15365434407 24210.28079979653 23502.38603990754 19919.4041862441 20146.30420868053 13641.98910668356 27917.95109404729 30623.42376834204 23426.27433009611 17432.80301052262 24314.23237338944 2632:0.3501 2690:0.3501 2691:0.3501 15816:0.2324 16493:0.2019 16681:0.184 
51723.51899706528 34400.08887216235 68737.30900939304 45396.08517069392 36141.31776441557 45657.62256042597 45335.57819622198 51755.4863015403 43660.45215987827 41348.97232889192 32245.18689847388 36326.56171390757 29635.87809374316 53692.58517873997 51158.31763917787 52749.41887150903 34266.5528502976 44288.28337462202 4338:0.1072 13227:0.0888 13977:0.4279 16669:0.1174 16846:0.0463 16864:0.0417 16882:0.0294 
0 0 0 0 0 0 0 0 0 0 0 0 0 0 0 0 0 10142.17712085398 2776:0.2135 3603:0.2135 14801:0.1565 15929:0.2793 16791:0.1011 16880:0.0587 16882:0.0567 16884:0.0425 
0 0 0 6023.257948483262 0 0 0 0 0 0 0 0 0 0 0 0 0 0 7035:0.1963 10918:0.1798 11075:0.1798 12834:0.1701 13227:0.1671 13878:0.1621 14318:0.1579 16334:0.1264 16617:0.1134 16791:0.0987 16884:0.0415 
0 0 16835.17711459677 366.12076560201 0 22743.71684036601 1015.08493102021 70593.17633573156 0 4456.754051534043 50636.86618756888 0 0 4205.625231741783 0 0 5041.636252095414 4025.016077248366 9131:0.1882 11462:0.1775 13971:0.161 14311:0.1579 15970:0.1356 16202:0.1302 16681:0.1095 16722:0.1054 16877:0.431 16880:0.0573 16884:0.0415 
0 0 0 6068.482124481175 0 4886.994948174627 3022.75809955072 0 0 0 0 0 0 3715.041562700359 2863.609318103052 0 3424.304811323472 3225.755383089577 2910:0.5149 9246:0.2325 12156:0.2143 13363:0.2048 14517:0.1928 15144:0.1844 15906:0.1689 16334:0.1561 16360:0.1546 16884:0.0512 
0 719.1033301585302 0 0 0 0 0 0 0 0 0 0 0 0 0 0 0 0 3931:0.2288 4276:0.2288 5426:0.2288 10936:0.204 11167:0.204 14041:0.1827 14400:0.1793 14429:0.3564 16037:0.1522 16334:0.1435 16607:0.1293 16779:0.1146 16863:0.0903 16882:0.0628 16884:0.0471 
9850.864296160396 17836.30308051448 12194.28453148816 15094.3016851876 6139.137515687508 10763.0499480532 18061.44829114887 10309.06290518111 16290.42829039398 11067.64347674987 2305.451069338115 9040.771589780195 10735.50706733954 13262.23920583024 10498.72300455584 8237.341036466161 9737.225303207444 11857.43249998034 2279:0.2366 2310:0.2366 2311:0.2366 2913:0.2366 3277:0.2366 3442:0.2366 3569:0.2366 3826:0.2366 16202:0.2957 16776:0.1149 16863:0.0903 16884:0.0471 
3148.740803168847 1168.871021784961 5937.16029768768 8264.262445889271 3307.163382554587 4206.76117784985 17333.15383596954 6756.214868354334 6822.187064013203 1544.143549795993 0 3322.289182808101 3556.763732573046 1198.093278797873 0 2831.535584110558 3665.748382372987 6986.614303841963 5071:0.1411 5909:0.1411 7943:0.2687 13620:0.1151 14296:0.3337 15827:0.0965 16018:0.0941 16701:0.0758 16776:0.1417 16880:0.0401 16884:0.029 
0 0 0 0 0 0 7606.317776238848 0 0 0 0 0 0 0 0 0 0 0 7474:0.3925 15736:0.2792 16610:0.2272 16776:0.2024 16884:0.0829 
30282.77499177502 31205.33959131557 59633.92990287218 50921.89378026194 37186.42241955516 63000.05891530385 38194.91131093464 34607.28130953688 30392.92080508786 26188.77043554743 27930.7007610107 23690.55101715108 32487.77322687249 56028.47853815074 41949.68241274319 48451.74365138783 37901.14935027991 65102.32144625154 7306:0.2748 13423:0.2321 13724:0.2285 16552:0.1642 16836:0.1275 16880:0.0803 16882:0.0775 16884:0.058 
11537.93497287976 11979.04067809592 21324.9805318446 23471.0158081649 10128.02897537817 23153.52963696239 19593.85994467465 16335.87247669183 14244.69185860111 13128.33222837807 6552.959117179143 9153.141169706707 11268.16865733767 15765.2259220631 12716.36875460054 15193.63720618865 14314.99355921142 25312.84160290243 4216:0.1693 11122:0.151 12423:0.1457 13151:0.1416 14149:0.1343 14587:0.1304 15699:0.3541 16776:0.085 16880:0.0482 16884:0.0348 
18870.18397284595 16425.24560103681 22347.04201387963 24002.40684351106 13904.65269034259 21889.27123973794 22974.40042644224 22094.61083994343 20413.56783271944 17291.49325073885 13732.43249499345 16170.92374884072 11952.83316952049 22365.76444059505 12736.51434757029 20368.52733319205 16593.13488190261 23396.20242490146 4066:0.1568 5894:0.1568 6491:0.1526 6542:0.1526 10392:0.4253 12425:0.1349 13337:0.13 15992:0.1049 16493:0.0935 16776:0.0787 16880:0.0446 16884:0.0322 
9639.002367964795 9417.236706859883 10135.42641176175 9187.598367682411 7470.570983374943 11255.54774479575 11344.96208532211 11331.13808574694 11858.97055424554 10820.63067886064 8516.455236297779 9584.245930118543 7700.37728019355 13410.48889019043 11401.55610360855 6735.812062335631 7223.484437417344 7302.522597329105 2640:0.2653 7540:0.2498 9179:0.2396 11253:0.2288 11511:0.4518 13860:0.4126 14381:0.201 15827:0.351 
4475.159762238613 0 30341.59861793395 15606.22671932078 14909.42740428626 34098.22803153056 39950.6286250337 29.71210572445257 1972.36316560981 0 2988.665413195327 0 5915.886097105044 44661.49390366717 15179.08056042366 20185.70613536219 14023.71130030194 32144.04018009808 2331:0.1307 8884:0.118 12684:0.2153 14400:0.099 15640:0.1773 16776:0.1269 16791:0.0619 16880:0.0359 16882:0.0694 16884:0.026 
0 0 2576.361465241625 3201.740101902324 0 2493.499321153888 3925.465060831651 0 0 0 0 0 0 4330.071403013471 1733.942912961698 0 2240.366576700902 3361.892184265041 3332:0.2366 7460:0.2228 9610:0.4274 10019:0.8403 10161:0.2101 10830:0.4138 11417:0.204 12672:0.1949 13260:0.1897 13657:0.3734 13950:0.184 14940:0.1718 16791:0.112 16880:0.0651 16884:0.0471 
0 0 0 642.5725589335784 0 0 0 0 0 0 0 0 0 687.031614313242 0 0 0 0 4001:0.2116 4681:0.2116 4687:0.2116 5185:0.2116 5463:0.2116 5705:0.4233 6867:0.2061 7845:0.2015 8269:0.2015 8884:0.3953 9446:0.1977 12690:0.1803 13804:0.1714 14536:0.4917 16037:0.1408 16088:0.1397 16776:0.1063 16884:0.0435 
27212.84857042353 35519.22220860307 40621.8839735556 44673.86316738487 24137.46735638466 42003.3301648249 33367.21404048696 32952.54247529353 31966.77713627981 31998.76453850262 23021.35073201632 25696.04309033166 40284.95093104323 34289.52726875959 31219.49113443612 33990.64661227394 26577.23344320574 39271.11845134554 7140:0.2461 8655:0.1203 8774:0.1203 9266:0.118 13044:0.1057 13092:0.1057 13251:0.1048 15145:0.1871 15526:0.0899 15708:0.0878 15731:0.0875 16776:0.0634 16865:0.049 16880:0.0359 16884:0.026 
0 0 0 0 0 0 3407.283305161188 0 3190.619560665733 0 0 65.33906324421561 0 0 0 0 0 0 4136:0.1969 7104:0.1917 10320:0.178 10830:0.178 10894:0.178 12527:0.1677 13665:0.1606 14489:0.1525 15707:0.1368 15993:0.1317 16493:0.1174 16610:0.1109 16681:0.107 16776:0.0988 
0 0 0 0 1372.824714298494 14022.06929120291 9620.491249036482 0 0 0 0 0 0 0 0 0 356.3748074413311 2656.232584296714 2611:0.2824 14432:0.2127 15678:0.5729 16776:0.2742 16815:0.1281 16884:0.0562 
37192.85815580473 19422.24097794192 49279.45921087705 28810.18575471823 37896.16713915514 44231.79354615989 34421.70313254283 34157.31510712187 38280.50534538699 31111.65967571507 32977.98564051057 29187.81303140074 27707.18327223975 58932.66084984574 51627.02599988831 46477.81196506839 27470.47226012462 39007.44867020805 9890:0.3173 13860:0.1389 16168:0.1124 16718:0.091 16773:0.0868 16776:0.0867 16882:0.0949 
11660.65950139175 10874.50650757704 14374.06352722727 13622.39742440518 9063.140435069472 13169.07279236699 2755.972504745594 16967.77407417439 7485.036973556034 11647.4187363899 8190.461221059436 10483.59777143084 9066.786132559542 4138.681310715466 11396.67567958478 12170.25230238659 9782.830004560095 14241.16303351401 3106:0.1716 5734:0.166 8273:0.3161 9816:0.762 13950:0.267 15440:0.1194 15834:0.1136 16738:0.1716 16880:0.0472 
0 0 0 14257.31966913384 0 0 7461.466486315329 0 0 0 0 0 0 0 0 0 8005.822094591057 13775.77339995254 3910:0.3024 4747:0.3024 5829:0.3024 6911:0.2944 6988:0.2944 7561:0.2944 7681:0.2944 13021:0.5057 16684:0.3282 16773:0.1519 16880:0.086 16884:0.0622 
0 3112.121046367425 0 6293.003448109383 0 0 989.8819490973012 0 5608.766718111204 177.7548666034425 4376.186675861775 1551.854384212731 2002.149126931976 1189.59254377854 604.4020119879524 0 3841.28120542235 0 2342:0.1751 2346:0.1751 2826:0.1751 5710:0.1693 9700:0.1555 9877:0.1555 9939:0.1555 10286:0.1555 10316:0.1531 11167:0.151 11835:0.1473 13337:0.1404 15145:0.1254 15970:0.1139 16001:0.1133 16018:0.113 16518:0.0998 16722:0.0885 16884:0.0348 
0 0 0 4583.833787010625 0 3006.710532082331 8461.919340600942 0 0 0 0 0 0 3959.555249309028 0 0 3007.704131718604 2694.483450996471 4476:0.2352 6489:0.229 6500:0.229 6671:0.229 6697:0.229 6779:0.229 7608:0.229 10152:0.2159 11258:0.2097 11475:0.2071 11619:0.2071 12007:0.2046 12121:0.2046 12215:0.2024 12463:0.2004 13166:0.1967 14153:0.1866 14277:0.1854 15337:0.1712 15767:0.1624 15906:0.1595 16401:0.1444 16441:0.1426 16722:0.123 16776:0.1181 16884:0.0484 
3600.969395448582 2295.104946770225 2157.881262739921 2880.532819633212 0 1128.717052262159 3795.662743604358 3819.822161483945 3357.739171221722 3946.502532488007 3362.911540105239 2688.879295307711 0 839.6925242198357 79.0738199270846 2394.693378673088 1855.225203594822 1602.198967854519 6247:0.4849 6872:0.4849 9179:0.4651 13616:0.4063 15906:0.3377 16493:0.297 
2925.787632820387 1557.731325575219 2552.762962372594 0 589.9184056479686 0 0 3971.853584477649 2747.926241306074 2198.134331090435 2290.798889715476 1807.790972233023 1280.975174947219 0 0 1587.969557169473 0 0 2402:0.2918 3752:0.2918 5743:0.2822 6747:0.2748 9889:1.0364 10127:0.2591 11945:0.2456 13423:0.2321 13506:0.4641 13930:0.4538 15678:0.592 15767:0.1948 16641:0.1564 16791:0.1382 
1091.906283470526 979.8286430539682 1506.519904147289 0 1157.75368847038 6115.885271419535 0 4442.119534149844 1361.177980023517 3382.162448066219 3044.113083441344 2111.594318316144 2345.236174731885 3092.560034999004 2363.210683258597 4074.529714987491 0 1576.31805086029 2824:0.2084 2861:0.2084 8011:0.3838 9703:0.1851 10127:0.1851 10456:0.1823 11367:0.1798 11977:0.1754 12192:0.1735 12889:0.3402 13506:0.1658 13687:0.1632 13930:0.1621 14134:0.1599 14550:0.1561 15678:0.4229 16641:0.1117 16681:0.219 16684:0.1094 
0 0 0 0 0 0 2431.443013031674 0 0 16636.23723425043 0 0 0 11652.72909609815 0 0 0 0 8181:0.13 11743:0.1202 13641:0.4457 14134:0.1083 14273:0.1076 15144:0.1011 15371:0.099 15582:0.1929 15705:0.0949 15827:0.1868 16019:0.0911 16103:0.0897 16168:0.0888 16376:0.0845 16791:0.2006 16874:0.1492 16880:0.0388 16884:0.0281 
0 0 0 0 1664.923219003524 0 0 0 0 0 0 0 0 0 0 0 0 0 10316:0.2251 10977:0.6661 13616:0.4063 16401:0.1529 16692:0.404 16791:0.1219 16872:0.0913 16882:0.0683 16884:0.0512 
0 0 1024.816049656661 0 886.466149034001 0 0 2293.28388154706 0 0 0 0 1110.265520442294 5808.947098684801 3978.309995298753 0 0 0 6247:0.2061 7811:0.2015 9178:0.1977 11071:0.1887 11122:0.1887 11945:0.1842 15906:0.2871 16018:0.1412 16401:0.13 16610:0.1193 16681:0.115 16738:0.1094 
0 0 0 0 0 0 0 0 0 0 0 0 0 3257.410054012129 0 0 0 0 13423:0.1989 13475:0.1989 14429:0.3768 15144:0.1791 16168:0.1574 16791:0.1184 16882:0.1328 
4516.91708646242 2906.622122623285 2222.411340587406 16.81201320587062 1847.269353390513 304.9708528056479 5541.365830064226 3523.052857056967 4002.994494430156 6062.865666186653 2687.414802837906 4114.413521671036 1958.487403046778 7953.608746269941 3591.620177951383 1283.944941453317 1181.955247153475 0 2303:0.2653 3570:0.2653 4761:0.2565 7548:0.2498 9015:0.2396 9939:0.4711 10894:0.232 10977:0.2288 12966:0.6436 14215:0.2022 15731:0.1777 16791:0.1256 16836:0.1159 
59494.10822509292 70406.54067728089 92825.91184513881 99181.41088510949 71901.26804200892 119690.1331006743 102044.2771276833 104829.7630469048 90104.54090214378 78438.08066969526 56425.25560511744 93006.52831816126 42708.28023322811 137676.6812208228 118004.0690517323 64237.11515852239 66520.98395893785 79137.69002954596 12359:0.0959 15377:0.1615 16334:0.1397 16607:0.0629 16652:0.0615 16692:0.0603 16841:0.0494 16884:0.0229 
13691.32866129433 16040.52350147961 21426.81271042466 25371.43040504586 30975.47682230991 25523.15919463457 26800.09625832163 28323.10709124993 18266.46006566883 14223.59455056599 3675.891398252528 11485.88473815624 59499.78750624779 28414.92396777365 20803.91342841447 18205.04319047137 16153.66297721474 28338.46612119051 6353:0.2498 13108:0.2145 16334:0.1609 16872:0.1882 16884:0.0528 
0 5279.583434522798 0 0 0 0 0 0 0 0 0 0 579.5516516979819 0 0 0 0 3634.024597078959 3497:0.2188 9131:0.1977 9178:0.1977 11141:0.1887 13394:0.174 16334:0.1327 16681:0.115 16791:0.1036 16863:0.0835 16880:0.0602 16884:0.0435 
0 0 0 0 7023.080589095379 3802.606829217681 0 0 0 0 2934.46845845902 0 0 2838.974648358776 0 2756.864978472637 906.7595455519104 7045.711038633441 4929:0.7256 5913:0.1209 13251:0.1003 13971:0.0966 14400:0.0948 14429:0.0942 15008:0.0904 16018:0.0807 16334:0.0758 16845:0.1046 16880:0.0344 16882:0.0664 16884:0.0249 
0 0 0 1265.951697009355 0 2355.144727868224 0 0 0 0 0 0 0 0 0 0 333.2656461033334 4135.408052197472 7092:0.2748 9125:0.5271 9371:0.2635 14270:0.2225 15731:0.1954 15906:0.1914 16334:0.177 16880:0.0803 16884:0.058 
0 0 0 0 0 0 2043.775459700601 0 188.3715384507958 0 0 466.5775969547586 0 0 0 0 0 0 3983:0.2419 4072:0.2419 4841:0.2419 6857:0.2355 7052:0.2355 7118:0.2355 7247:0.2355 10936:0.2157 13108:0.2023 13647:0.1974 13971:0.1932 15371:0.1754 16334:0.1517 16791:0.1184 
5641.411777241794 0 0 0 0 0 18433.62385681586 6698.251905826063 7814.649598806884 10553.03082846319 15873.84450409207 8703.63508603397 7614.123811740218 28174.63461531177 3328.457756656675 1399.997920885268 0 0 14372:0.1579 16168:0.1312 16334:0.1264 16629:0.2254 16644:0.1116 16791:0.0987 16872:0.0739 
0 0 0 0 0 0 6210.715026053563 0 0 0 11220.81061153706 0 0 9485.565618403351 0 0 0 0 7035:0.201 10918:0.1841 11075:0.1841 12834:0.1742 13227:0.1712 13878:0.166 14318:0.1618 16334:0.1295 16617:0.1162 16791:0.1011 
21901.0241028364 0 40582.82114166721 0 0 0 0 0 0 0 0 0 0 2018.074279575741 0 0 0 0 2505:0.1592 2787:0.1592 8726:0.1466 13878:0.1238 16669:0.1686 
8967.483789818911 3825.597684065932 7944.922864639715 8374.267883411871 8823.672771387743 10055.66732268729 7130.102448366614 12907.68205102908 11651.16012529458 14958.6696743741 3219.781907169888 12633.23441616735 6601.216432353523 7693.452403246562 9754.524483302961 12053.93547572967 7881.55240301594 11319.61375902698 13241:0.2925 13878:0.2837 14400:0.2764 15170:0.2601 15736:0.2443 
9111.68070671289 8317.659178191823 11027.26718895268 9654.821638597086 6477.076119124538 7834.09089760307 8613.847627178748 10463.57477611719 9736.78301989291 9541.168955251578 7448.69714511241 7583.76296045462 3943.913735364897 12163.86916000711 10048.18787995696 8351.640514373568 7083.835069795034 8038.098043320449 7054:0.3434 7289:0.3434 13301:0.2925 14432:0.2748 14489:0.2732 14864:0.2674 15697:0.2459 15993:0.2359 16237:0.2264 16610:0.1988 
0 0 0 0 0 320.3304348621646 0 0 0 0 0 0 372.3071943063013 0 0 0 0 10.0343513985747 7054:0.7493 7289:0.7493 12535:0.6557 13301:0.6381 15697:0.5365 16237:0.4939 16597:0.4383 
0 0 0 0 0 0 25489.61455812356 0 6360.546018162858 0 0 0 0 42073.55596631313 0 0 0 0 8921:0.1757 10118:0.1727 13878:0.1513 16692:0.1018 16791:0.2763 16836:0.085 16863:0.0743 16876:0.0671 
6122.967030250772 7932.021975272424 6090.059601085035 6167.859699751577 4399.917794891428 7154.376304982189 6276.166771684726 3841.820914639812 6207.191817188845 6344.333888991769 2005.64827530823 5361.786309407476 4203.566031244575 10406.97115954017 6679.642839556213 10523.52335017045 5947.104568384364 7243.054472266922 3866:0.249 4431:0.249 4592:0.249 6528:0.2424 6750:0.2424 8598:0.2371 14377:0.5853 15864:0.1693 16334:0.1561 16861:0.1002 
0 3975.796059098599 0 0 0 0 0 0 0 7684.601526860653 0 0 0 0 21238.4170738571 0 0 0 10962:0.1049 11735:0.4141 13971:0.0939 14429:0.3663 15603:0.0828 16641:0.0652 16681:0.0639 16836:0.0531 16849:0.2015 16882:0.0646 
8967.87900706168 0 8020.52364998386 9945.040121591912 5969.719329229446 9231.465510339916 10970.3889102627 13187.12465588666 13050.67699951139 10977.77000753979 6947.638081549605 8549.535557591884 0 12669.28950207969 10692.95059120781 10433.34437513091 8033.238210001677 8813.377444206559 4240:0.2565 10972:0.4576 13616:0.2093 15672:0.1794 16334:0.1609 
150000 116576.0464633602 150000 143497.2542865788 99537.47285329105 146799.6183187215 140248.7220683877 149356.5929592188 135864.5372187725 126498.0019203173 99691.87940029326 115860.7420725761 100216.8739636085 150000 147991.5426884405 125518.605895864 103262.0432491059 132907.15802306 2505:0.1536 2787:0.1536 8726:0.1414 13878:0.1194 16669:0.1627 
14304.88859791237 17605.51938819768 21490.67421286368 27631.12103673588 13803.16122772582 15287.94160741789 22502.10610405408 29143.71251271259 22321.10637878382 14436.82704458185 23768.25287930425 16748.70295948562 15849.39706065342 16340.92254780209 13914.98160018044 13484.54384205474 16375.63601605322 13830.30964817419 13971:0.2504 15864:0.4265 16360:0.1947 16607:0.1772 16617:0.1765 16629:0.1753 16641:0.1738 
30200.03795500914 32251.69197830639 39503.51309870258 41651.81385338249 23963.12383532435 20430.2775323085 30792.73437170762 37043.93258629589 36288.89744522648 48081.69964817788 0 33466.89042862794 17618.28014690011 19076.62096116148 39892.5155499984 31458.40434160659 20940.59446618987 24104.41002346716 4929:0.1192 10576:0.1078 14311:0.1869 15107:0.0883 15906:0.0809 16018:0.0795 16334:0.0748 16360:0.1481 16684:0.0647 16849:0.0511 16880:0.0339 
33571.75914639405 0 66503.16189557653 0 1248.624730158034 0 0 0 0 0 0 0 0 0 0 0 0 13755.12237780437 11735:0.2259 16334:0.1609 16669:0.281 16851:0.1094 16882:0.1408 
29436.90239933925 19813.43423307615 31678.64298847831 25651.00243288575 17653.19468289451 29517.51438871766 28961.68546568566 24022.01793311967 22570.8410308734 0 15334.39085034644 17611.08653745268 17178.12802494546 32149.70741934642 0 22505.12861752835 18712.82928003421 27932.70625614563 2390:0.1621 2606:0.3242 2846:0.1621 2985:0.1621 3287:0.1621 3434:0.1621 10255:0.1439 11708:0.138 15929:0.212 16855:0.0655 16884:0.0322 
6712.976375037352 4720.704880657865 7720.78946618605 7379.233590034621 5624.15835275662 7040.021331114842 13010.35624139841 7829.618324376649 6959.080740167094 6530.921292123366 4889.244754803391 5625.242967240308 5117.197059750536 13532.53003725636 8051.744748962973 6755.987664261226 5774.737066459611 10135.62735796932 11295:0.1541 11708:0.1521 12744:0.1458 12906:0.2916 13454:0.7104 13953:0.1389 15736:0.1197 16610:0.0974 16791:0.0846 16851:0.0737 
25937.13552465516 23174.80946199583 29936.49212629619 31695.84760344912 25060.23543631214 28553.60608954671 30748.92842357052 26692.47791146693 23658.27311494546 20514.81608867041 21067.10760217547 22202.62846113166 22332.2384620654 45490.50893184594 31977.40129598155 19882.52111012276 23218.47046199096 30176.68269826268 6682:0.201 7313:0.201 15929:0.2793 16493:0.1231 16872:0.0758 16884:0.0425 
26223.18931682843 25592.01930243944 43832.34994236052 47891.45302808165 31357.84751935783 44516.02433285602 40607.95765761 37128.14040847724 28643.13243902499 30736.8336447509 17512.2863081758 24204.08841502423 34730.50011827785 31845.57008705012 27930.45873169526 34847.90882142343 29367.46090049175 51351.39160903035 7313:0.1873 14332:0.3015 14801:0.1459 15929:0.1301 16256:0.1229 16701:0.1034 16872:0.0706 16880:0.0547 16884:0.0396 
995.9830183742151 757.7928967621759 3719.903576813201 4665.301736631836 443.8950676240586 5174.00510970614 4417.4665756024 598.2702155738416 568.6495277338959 0 225.6680656749359 0 760.9345450635021 2443.275457635036 44.59894604786793 2787.261890237968 2700.794675493514 5561.456703579366 4405:0.166 5585:0.166 5680:0.166 5830:0.166 5932:0.166 7718:0.1616 7791:0.158 8145:0.158 8632:0.158 8641:0.158 11708:0.1462 11914:0.2889 14862:0.1258 14864:0.1258 14883:0.1252 14989:0.2492 15660:0.3483 15929:0.1123 16402:0.1019 16610:0.0935 16718:0.0874 16836:0.075 16880:0.0472 16884:0.0341 
0 0 0 0 0 0 0 0 0 1176.526597844511 0 0 0 0 0 0 0 0 4405:0.166 5585:0.166 5680:0.166 5830:0.166 5932:0.166 7718:0.1616 7791:0.158 8145:0.158 8632:0.158 8641:0.158 11708:0.1462 11914:0.2889 14862:0.1258 14864:0.1258 14883:0.1252 14989:0.2492 15660:0.3483 15929:0.1123 16402:0.1019 16610:0.0935 16718:0.0874 16836:0.075 16849:0.0711 16880:0.0472 
3814.268116214818 2490.781808953783 2077.360828535971 1743.778305953178 2253.506369262273 3651.239744215375 591.3905555918672 6064.497309623086 4030.61204764496 5037.113328074775 1782.710429647191 5064.764966004231 1403.555040851524 1006.223998571923 3263.716942996185 3469.330967782418 2530.858264603341 2837.489443973404 2250:0.2653 4170:0.2565 4893:0.2565 9160:0.2396 9856:0.2355 11075:0.2288 11988:0.2233 12906:0.2165 13227:0.6381 13454:0.211 15596:0.1806 16411:0.157 16610:0.1446 
61683.80209214705 52543.19287250985 68922.29012738574 64453.01697202375 49967.1841391113 68146.63964033063 67340.29623849443 80837.10793036553 67972.92119187166 61007.28344646177 56287.66091230674 57549.38420167563 45379.93948225432 79134.45444800326 62613.73488372309 60952.10852448961 46854.77340798442 64231.55441707528 2376:0.2304 6757:0.2169 10571:0.2014 11122:0.1987 15929:0.1507 16860:0.0898 
12121.2999804923 7890.535207931208 4879.000522477378 8118.915162108067 4172.458875814186 4256.362815815855 8834.124691606858 12200.9851112653 13599.58396229273 13763.46241309455 3776.810920935163 11693.92371990449 10506.57460788763 3182.696999274395 1998.326918321835 6638.264137957574 6256.497710879969 4803.272205580268 10123:0.2355 10307:0.232 13953:0.2063 15640:0.18 15929:0.1735 16607:0.1449 16681:0.1394 
36748.7177696259 21226.40059333016 33156.38711013987 30744.03736201475 36996.99303373809 27040.10003758332 30196.90855107662 47740.73062345139 34335.77994790474 39991.11136221905 30276.26882694062 48855.3019899129 19068.69304373441 33343.84537466426 31110.07523072566 33308.33487841061 22993.99411410992 28624.25348956763 9671:0.1839 10092:0.1808 10118:0.1808 11708:0.1734 13657:0.1606 14246:0.1552 16552:0.1145 16641:0.1091 16692:0.213 16773:0.0989 
15372.26372560393 23833.17850236711 26117.64133204874 17776.00170723953 6136.106924950895 10268.42195797045 14274.24270440153 21927.92163667578 23180.76210662106 27697.85213704587 16786.98113596574 18249.32048628472 9789.08064383184 8409.703217116961 28239.00682037363 10687.19254304245 13477.43359945143 4195.218116419428 2634:0.1536 2990:0.1536 12834:0.1253 15881:0.202 15929:0.3013 16037:0.0988 16849:0.0636 
46979.15014936832 31056.63580982848 50280.11642793501 46557.69805332081 19679.66011491213 38156.99497345716 53466.14602315525 61753.58289407489 48572.13489158955 42757.80584266254 19210.11879706697 36294.29778084033 21499.67136608986 59558.31867455175 35908.11336532282 38216.60269596647 23119.45193395761 37334.75157079564 9559:0.1054 13616:0.0921 13950:0.0908 15088:0.1679 15145:0.0836 16088:0.0745 16495:0.2019 16776:0.0567 
6011.685695572437 6837.421784721953 1604.702541575061 3808.651090118995 3022.114107503258 1942.856972850204 734.8756031687271 8495.221525890251 7906.428713340983 7413.23116610626 6243.980998975306 7225.006148179832 4374.899753704909 0 4376.948306455914 3070.482590605305 3212.827082350277 589.1791384842965 6012:0.5906 6292:0.1917 7673:0.1917 8650:0.1875 9559:0.3677 12684:0.5032 13685:0.1595 
0 0 0 0 0 0 0 0 0 0 5741.848117066067 0 0 0 0 0 0 0 8335:0.4478 8650:0.4478 16776:0.4722 16853:0.3973 16882:0.1291 
0 11012.30116356692 0 0 0 0 0 0 3772.046114821443 0 0 0 1553.024187485582 0 0 0 0 0 2444:0.2575 9501:0.2325 13337:0.2064 15699:0.1736 16360:0.1546 16652:0.2747 16776:0.125 16863:0.0983 
14413.01027398444 0 0 6740.112738232613 0 7110.08318284809 0 0 0 4817.715063054304 0 0 0 12118.70964243405 377.3331024059951 15502.04282838754 0 21053.95890595242 14134:0.3198 14873:0.3041 16049:0.2675 16617:0.2269 16644:0.2232 16776:0.2024 16878:0.2597 
13811.59477405923 14028.27533187802 32921.46754170793 28564.01279679436 17675.17370976938 39635.1183411845 17722.86481744075 16520.97897180199 13021.84529329671 13802.75255070259 13105.07513133263 9206.178650195836 17772.19578414088 33088.70917093568 29236.38998521272 25883.05032419036 19603.23385170001 37568.82767521197 5000:0.1597 5710:0.1597 5734:0.1597 9927:0.1467 10316:0.1444 13337:0.1324 13657:0.2607 13685:0.1294 16018:0.1066 16495:0.0952 16880:0.0454 16882:0.0438 16884:0.0329 
27217.30513985625 23131.67023111746 32272.44780867334 31678.87754431674 22518.46549673753 33606.04437372419 31948.39420752323 32849.27144775631 32401.12342280141 28424.71752149068 23846.58948089933 25411.73243552573 20310.96001130988 36995.72351772586 29625.75797851377 28719.78696720316 22603.73758349242 31356.64209101231 8557:0.2443 9996:0.2355 12156:0.2208 14377:0.201 15906:0.174 16334:0.1609 
0 0 0 0 0 0 0 0 0 0 0 0 0 0 2636.096998067036 0 0 0 9131:0.2635 12834:0.2381 13804:0.2285 14801:0.2139 15170:0.208 16001:0.1888 16684:0.1532 16849:0.4837 
1557.064539232607 8122.389437167163 1949.96025493347 0 1481.625854797885 189.4814737261115 4900.367240070599 0 1314.418719667827 1603.491633382106 0 1761.85008193005 0 2947.87366660288 0 2854.765827662498 0 869.8934613856895 6571:0.2424 9703:0.2286 10150:0.4572 12156:0.2143 13363:0.2048 14281:0.1963 14400:0.1951 16334:0.1561 16441:0.151 
51455.5768726098 52970.8203738595 67770.11150150691 62830.47103614686 53083.91881077292 107755.519992154 64114.27784224877 63866.93557479391 63744.38235257162 58428.72674559449 75458.77856413806 52690.18403779189 55390.28102122553 92695.83237143676 72095.98349671332 55748.52228413012 54135.53248104856 69794.85847005497 10929:0.2745 11663:0.2711 13977:0.1229 16830:0.1398 16872:0.0565 16882:0.0423 16884:0.0317 
32672.30193482934 0 4874.960126485237 0 0 0 0 0 0 0 0 0 0 0 0 0 0 0 7872:0.1966 8189:0.1966 13977:0.1649 15367:0.1497 16669:0.6786 
9381.643646382359 8092.622140784478 10554.52875675721 9915.727555587264 7028.25556319909 10898.67344646633 10489.08888481525 11166.79471271991 9848.989171595962 9014.959974080944 7408.934164367285 7942.924329991302 8032.463362626914 11611.55696628113 9795.715208331307 9609.757519899127 7053.805419163345 10317.55184072097 6578:0.5152 7968:0.5038 13301:0.4387 15697:0.3688 15993:0.3539 16237:0.3396 
0 0 0 7851.418303690635 0 0 0 0 0 0 0 0 0 0 0 0 0 0 11407:0.3432 16320:0.2418 16334:0.2413 16360:0.239 16415:0.235 16617:0.4331 16836:0.1739 
9089.029785364639 2260.208237289525 13747.92022480008 6286.101012993674 8482.317287773527 12345.69224396317 5184.155391836779 8002.976393412917 6416.589853009951 5231.846039397446 8868.028497875282 4503.611631410517 6899.622411832675 14270.92221466732 11557.0656209304 13073.59721518185 5525.070037109419 12257.16550132087 3328:0.6405 5733:0.2065 9501:0.1928 14273:0.1628 15377:0.2994 15510:0.1469 16882:0.1134 
0 0 114.9698242617853 0 0 0 0 0 0 0 0 0 0 0 0 0 0 892.8006355007691 4476:0.1264 5682:0.1264 6489:0.123 6500:0.123 6671:0.123 6697:0.123 6779:0.123 7604:0.123 7608:0.123 8253:0.1203 8538:0.1203 8903:0.236 9115:0.118 9312:0.118 10152:0.116 10210:0.116 10319:0.1143 11258:0.1127 11435:0.1113 11475:0.1113 11619:0.1113 12007:0.11 12067:0.11 12121:0.11 12215:0.1088 12463:0.1077 13166:0.1057 14153:0.1002 14277:0.0996 14288:0.0996 14381:0.099 14682:0.0968 15337:0.184 15705:0.0878 15767:0.0872 15906:0.0857 16376:0.0782 16401:0.0776 16441:0.0766 16722:0.1322 16776:0.1269 16880:0.0359 16884:0.026 
0 207.9648133930169 0 0 0 0 0 0 0 0 0 0 0 0 0 0 0 0 3726:0.2188 6499:0.2061 7093:0.2061 8378:0.2015 8538:0.2015 8903:0.3953 9312:0.1977 9992:0.1943 10210:0.1943 10319:0.1914 11435:0.1864 12861:0.1786 13041:0.177 14381:0.1658 14682:0.1621 15337:0.1541 15672:0.148 15827:0.1448 16401:0.13 16441:0.2567 16607:0.1196 16681:0.115 16722:0.2214 16776:0.1063 16884:0.0435 
0 0 11094.8526329038 0 6448.038848743366 16062.44027050429 0 0 0 0 4338.533532665394 0 2205.558262185279 1095.769976392048 7111.112779764002 10554.35522957382 3495.557192858661 14646.77074159946 4775:0.1539 5866:0.1539 6268:0.1499 8921:0.1438 9431:0.1438 9553:0.1438 9883:0.1413 9890:0.1413 10894:0.1392 12856:0.1299 13930:0.1238 14862:0.1167 15088:0.229 16776:0.0773 16880:0.0438 16882:0.1268 16884:0.0317 
0 0 0 521.7565128661134 0 0 1873.318860474704 0 0 0 0 0 0 0 0 0 0 0 4019:0.3681 4775:0.3681 5866:0.3681 6268:0.3584 9431:0.3438 9890:0.3379 10894:0.3328 16776:0.1848 16882:0.101 16884:0.0757 
0 0 0 4008.265889911844 25170.55339765659 0 14710.96447819413 0 0 0 0 26695.42728594609 3565.133420343734 0 0 0 487.6392115049655 5673.471980398142 13930:0.1418 14346:0.1382 15970:0.2372 15993:0.118 16333:0.1106 16610:0.0994 16681:0.0958 16692:0.1908 16776:0.0885 16884:0.0363 
0 0 0 0 0 0 6914.277604499723 3728.05752558716 3828.626107754984 0 0 0 0 0 0 0 0 0 6682:0.3584 12929:0.3106 13665:0.3003 15144:0.2726 16776:0.1848 
0 5657.986202826928 3645.169703201905 0 0 0 0 0 0 4143.196405049439 0 0 0 0 6491.163630738566 0 0 0 5189:0.1728 7139:0.1682 7760:0.1645 8652:0.1645 10392:0.1562 11355:0.1541 14248:0.1362 14587:0.3992 15119:0.2559 15699:0.1204 16495:0.103 16652:0.0953 16849:0.1481 16856:0.0716 
14766.00246481478 16579.85832599203 22079.48516258072 21422.90841445354 15286.73166201033 18403.12615118326 20471.61411845916 18891.6887176494 20273.92179972581 15252.32760228085 12518.48531968742 14199.71676348141 14104.29643366761 23792.79712228797 19756.12088352448 17506.73354199029 13242.34505234936 17396.48903349286 2631:0.5273 3329:0.1055 3928:0.102 9398:0.0953 11352:0.091 11510:0.0898 13394:0.0839 13475:0.0839 13950:0.082 14873:0.1539 15603:0.0718 16776:0.1024 16863:0.0403 16882:0.056 
0 0 215.7702034749215 311.7277849992679 0 0 2237.846780076427 4937.314079946744 413.9975391100718 0 2843.731675237846 473.4099489451943 0 0 806.7533717981563 0 0 0 5399:0.3256 8946:0.3041 13021:0.2723 14134:0.775 14431:0.2536 15582:0.23 15649:0.2285 15827:0.2228 16103:0.2139 16376:0.2014 16684:0.1767 16722:0.1703 16738:0.1683 
2260.407149493381 0 0 0 0 0 4118.080150554683 0 2501.102559529863 1734.961366396166 0 1902.869497892148 0 0 0 0 0 0 9371:0.2824 9446:0.2824 14536:0.7025 16168:0.1967 16776:0.1518 
0 0 0 0 0 0 0 0 0 0 0 0 1975.27022679499 0 0 0 0 0 13166:0.2484 14277:0.2342 15582:0.2099 16018:0.0991 16495:0.0886 16776:0.0746 16836:0.0671 16849:0.1273 16872:0.2179 16882:0.0408 
0 0 0 0 0 0 0 0 0 0 0 0 17470.49132171293 0 0 0 0 0 13665:0.1727 14432:0.1649 14550:0.1639 16738:0.1094 16773:0.1063 16776:0.2125 16791:0.1036 16865:0.0821 16882:0.1162 
0 0 0 0 0 0 8418.421129142416 0 0 0 0 0 0 0 0 0 0 0 3093:0.2135 15596:0.4361 16776:0.2073 16791:0.1011 16856:0.0855 16882:0.0567 
780.4485000160146 0 6479.549288972215 0 6836.398842851495 8606.193589944858 0 0 0 0 5877.615445769601 0 3599.089364697638 8772.447366601744 8998.334374662263 6547.247163784473 2020.036819383123 5960.876174340224 3330:0.5836 5244:0.5644 6872:0.5495 12463:0.4809 15672:0.3947 16629:0.3156 16882:0.3098 
12009.36071816155 12173.02540949827 17115.01901937372 19262.40602990719 9755.555102773962 14212.53799247208 22877.61814307579 17941.45437927041 18666.90393726534 9729.430595058577 9714.656599993428 13193.42737135551 8146.314109470367 18945.65774100846 8758.318859973144 9852.241143119301 12158.85771472535 11165.72750080691 6977:0.2169 14798:0.5067 16644:0.1234 16684:0.1209 16776:0.1118 
4706.092797922447 6827.117765996451 3764.058443063369 0 1858.290686957603 0 49.45923671323337 5795.450326712586 5775.947687665813 4821.675636446763 3259.79659140107 4446.220018617159 2355.985689545681 0 2336.065837792839 3563.111512245681 0 0 6489:0.2355 6500:0.2355 6671:0.2355 6697:0.2355 6779:0.2355 7608:0.2355 10152:0.2221 11258:0.2157 11475:0.213 11619:0.213 12007:0.2105 12121:0.2105 12215:0.2082 12463:0.2061 13166:0.2023 14153:0.1919 14277:0.1907 15337:0.1761 15767:0.167 15906:0.164 16401:0.1485 16441:0.1467 16722:0.1265 16776:0.1214 
1378.847863276447 0 3371.785112599756 0 3775.537062608645 0 2406.686928111892 1266.125819604905 1665.53940985435 0 19.68303521250043 0 1581.734472892958 4307.750198544481 3116.192030261169 5291.762359813236 0 1005.532577282323 2716:0.1989 3082:0.1989 3209:0.1989 3238:0.1989 7573:0.1873 8271:0.1832 11352:0.1716 12684:0.1639 13685:0.1558 15596:0.1355 16776:0.1932 16882:0.1056 
3841.562175980795 4455.46614879379 3190.141644016131 4388.225089514572 2160.425542238811 1907.787800359008 4840.043229847527 5187.916113006315 4756.737589032478 4811.266629639601 2035.297353327074 4017.665478745178 3256.017423181818 3527.883644589509 2624.400115754509 2767.383051355092 2659.392781910781 2996.883521542939 3476:0.5471 11162:0.4719 13539:0.4317 13950:0.4255 14989:0.3972 15660:0.74 
0 0 2412.340621929499 0 0 0 0 0 0 29132.65291438483 0 0 0 0 137124.424768919 0 0 0 12595:0.1361 15992:0.1068 16776:0.0802 16836:0.0722 16849:0.5476 16882:0.0438 
23007.96066211248 11821.12657234464 18075.5822213782 15396.41718818123 14824.50369119179 17735.50278670187 8282.37976017738 14164.11488344981 11860.7701790147 26357.37120306001 7805.412810768451 12971.48829963966 11322.69865958555 21779.96872710318 26701.56560203282 24563.3411541338 9607.892374768868 25333.50128806896 3252:0.1251 4019:0.1209 7035:0.1178 9559:0.1129 12516:0.3091 12929:0.2041 13665:0.0987 14776:0.0922 14798:0.1834 15603:0.0851 16018:0.0807 16237:0.0776 16681:0.0657 16701:0.065 16849:0.0518 16878:0.0779 
4985.152441639836 0 4505.497931413327 0 5903.960750828403 2822.953660246189 0 2789.392420908415 3667.50202537827 3707.59071623683 6296.814104314784 4033.630656971539 2045.653173552912 5771.003324518952 9808.036840779214 7108.985471398538 2108.081862180439 2135.159490039403 13539:0.2032 13950:0.4005 15596:0.1753 15640:0.5241 16610:0.1403 16882:0.0683 
52662.80083182503 44017.42660139467 57705.0285325252 55250.66716855967 34591.66573940016 50237.13125421842 63771.11781451147 57228.0913658972 56107.65761918344 50201.25327038086 32407.82808350017 46148.84346573453 36192.51429071884 58946.75709727425 47163.87264083508 47796.62836001686 38121.83275827545 50516.77756302722 4140:0.2352 10391:0.2126 12138:0.2024 14318:0.1843 15824:0.1609 16776:0.1181 
0 2351.726310553579 0 0 0 0 0 0 0 0 0 0 0 0 0 0 0 0 8288:0.1715 8921:0.1682 11258:0.1606 12337:0.155 12856:0.152 12889:0.304 13108:0.1506 13241:0.1493 14864:0.1366 15993:0.241 16320:0.1132 16493:0.1074 16681:0.0979 16779:0.1804 
7734.191193019665 2701.529367656112 5033.648915606595 10090.44328306491 0 8353.278243292198 5359.17840805045 10321.16434613132 10699.2560365413 11260.66027206138 5440.084445987688 2751.466227296964 3321.738734609946 7408.315930907563 3873.046972968601 12234.22636434 7572.561765836905 8386.629009271266 12945:0.2101 14346:0.1951 15635:0.1747 15850:0.1698 15993:0.1665 16334:0.1561 16610:0.1403 16681:0.1353 
25317.56278964767 14472.65565087705 26590.88657165353 21193.93848181129 29248.54763552995 26523.85527373565 20670.07270573131 2994.30672500421 20076.76748280402 17789.05518310993 22964.26532258249 17751.44920063949 19650.42859341856 38321.86045014371 28590.93886286685 28780.88484610238 18204.67124344116 28619.4692202146 7827:0.1966 12337:0.1777 13647:0.1685 14311:0.3236 15107:0.1529 15767:0.1426 15970:0.1389 16202:0.2668 16722:0.216 16882:0.0567 
0 0 0 0 0 0 0 0 0 0 328.6442219061968 0 0 0 0 0 0 0 5475:0.2228 6077:0.2169 6230:0.2169 7701:0.2169 9498:0.2081 12337:0.3835 13647:0.3636 14288:0.1756 14550:0.1725 14587:0.1716 15660:0.3116 15699:0.1553 15816:0.1529 15970:0.1498 15993:0.149 16722:0.3495 16791:0.1091 16863:0.0879 16882:0.1223 
62103.66194465322 35031.32807628897 41733.99817154693 31358.55375312228 25368.14354727701 69116.13195097237 29459.42890237192 21454.64249968338 32704.85374428501 64917.96715894298 12213.10711298217 26759.42502788276 29453.15452784866 82109.73254277145 66891.18639829739 61757.34067590842 22876.59663560738 69865.12062510582 8762:0.2879 13971:0.2415 16652:0.1668 16849:0.1296 16878:0.1948 
1271.508832074624 0 0 0 0 1031.457879453161 0 0 0 3021.627408355652 0 0 0 0 6259.36038954684 584.0794042128102 0 2906.929954044798 12527:0.3279 13971:0.3073 15678:0.2691 16001:0.2574 16684:0.2088 16849:0.1649 16878:0.2479 
135734.1474775943 78550.08865320415 120895.8537412039 84552.37159143203 58905.74300644881 105878.7921609447 87020.73113208752 95922.72591613878 82224.12841734126 112875.8548015499 59351.19663444908 69614.3755777233 59526.14945550226 119845.0079072435 121337.4927874045 106250.3514683118 58412.42370859221 113961.4023900258 9877:0.268 16334:0.0915 16669:0.08 16849:0.0625 16878:0.094 
0 0 0 0 2779.797961560294 2749.139826322508 72.94466500676117 3542.321455142423 356.4413520987483 0 2453.98239667076 0 692.5301851934918 4105.202091246088 1115.793960956532 2046.33452573058 921.1216930256576 1032.472650762172 11735:0.2015 12138:0.7878 15635:0.1605 16738:0.1183 16776:0.1149 16882:0.0628 
1277.31351366865 1192.573972678102 506.086851689646 0 0 0 0 3384.951349251227 1611.256225307886 1435.793539700711 996.4861950510772 836.0864906573902 0 0 0 1218.872173303607 0 0 4001:0.2171 4681:0.2171 4687:0.2171 5185:0.2171 5463:0.2171 5705:0.4341 6867:0.2114 7845:0.2067 8269:0.2067 8884:0.4055 9446:0.2027 12690:0.185 13804:0.1758 14536:0.5043 16037:0.1444 16088:0.1433 16776:0.109 
22845.84627837397 8894.433718084176 26415.69843511754 12766.97764063325 13858.29209086549 18051.051097326 14245.09085832644 16469.90246385783 15381.37034131804 13093.85028331028 14785.99452270273 13465.50488016727 11371.19512103469 24103.47502921285 20015.33490202413 16099.73793485402 11325.42427658875 15029.90786642941 5734:0.2065 7573:0.201 7673:0.201 8051:0.1966 10958:0.1841 13687:0.3345 13949:0.166 15596:0.1454 15700:0.1439 16018:0.1377 16669:0.1131 16882:0.0567 
4955.453966758694 0 2760.400328831847 7297.799571599634 962.0858474622022 28937.20358331674 14153.75688618145 2381.956107851819 7900.406534612084 605.3274078045625 23495.02579590656 4418.490069173185 211.3411309560216 9523.69294491732 0 3190.155800593975 7195.890677890238 4110.020419448365 8966:0.1412 11295:0.1348 11352:0.2696 11964:0.1316 12686:0.2576 12929:0.1276 13950:0.1216 15603:0.1064 16776:0.1518 16830:0.1373 16882:0.0415 
49894.5653517704 150000 150000 72559.31118661385 95273.62490671714 95644.27869327954 85493.18703905489 95375.60151791142 73474.23234082804 150000 85177.49831862205 67671.55366035501 58239.55911022505 112431.1153531135 150000 83428.99306939212 65511.68648003619 100955.3325130209 16136:0.0756 16776:0.0582 16845:0.0501 16849:0.2982 16882:0.0955 
14902.28708264275 17969.47849967301 17328.78011320058 21711.76641850577 10562.57442875794 13558.35192964495 23656.99718139491 20156.09819980726 20580.07367286791 14925.73136433682 11624.44558849927 15385.58154588878 12798.52101837121 17560.61638930921 12708.65831664147 11680.71378018517 12335.22101297825 10038.53038312694 3371:0.2084 7232:0.1963 7958:0.1919 9137:0.1882 10456:0.1823 11680:0.1775 11769:0.1775 12516:0.1717 13394:0.1658 14873:0.1521 15672:0.141 16597:0.1148 16776:0.1012 16779:0.1009 
0 0 0 0 0 0 18229.17019831947 0 8416.272800232169 0 0 0 0 19307.32989330157 0 0 0 0 8273:0.2303 9816:0.4442 15834:0.1655 16495:0.1442 16652:0.1334 16776:0.1214 
20943.99708475253 16735.70008205436 22792.99976573983 22497.39085087632 15589.34423053066 22898.38005929528 21202.05813929638 23362.56185248636 21788.7500731469 20007.90969552643 16512.92762600892 18872.15719022515 13735.25798276178 24811.50877977883 20077.47118810375 20339.5601528669 16139.65945645567 21368.20907576567 7139:0.4121 8721:0.403 13665:0.3454 15707:0.2941 16401:0.2599 
11369.44766813385 12427.29567422223 14700.27640254611 5284.718015849919 8113.788674744541 12895.75964396641 8316.388952080873 10911.62063607433 13288.64944248822 8073.367993252723 13080.92299526951 5768.465473119618 10232.87714430987 19616.42814609066 18117.86180940225 11427.25088480052 7312.449131715924 8118.739141038875 9270:0.2259 9856:0.2221 11305:0.2157 11507:0.213 12037:0.2105 12578:0.2061 12945:0.2041 14332:0.1895 14801:0.1834 15736:0.1675 16552:0.1407 16863:0.0955 16882:0.0664 
0 0 0 0 0 0 0 0 0 0 0 0 0 941.3170669357639 1055.582089985664 0 0 0 4991:0.4233 6108:0.2061 9108:0.1977 9815:0.1943 10692:0.5741 11305:0.1887 12861:0.1786 13953:0.1702 14215:0.1669 14346:0.1658 14713:0.1621 15736:0.1466 15993:0.1416 16493:0.1262 16552:0.1231 16681:0.115 16882:0.0581 
0 0 0 0 0 0 0 0 0 22634.03992152779 0 0 0 0 31230.35535275329 0 0 0 2390:0.1592 2606:0.3183 2846:0.1592 2985:0.1592 3287:0.1592 3434:0.1592 10255:0.1413 11708:0.1355 15929:0.2082 16849:0.066 16855:0.0643 
1979.829453197461 2886.457374918155 2210.608787423871 0 704.1107169243151 0 0 894.2153391068582 2600.433349098483 2685.665804288417 488.0576729191042 1380.025853450931 2930.542045545441 0 0 1654.164676853366 0 0 4877:0.3024 5161:0.3024 5725:0.3024 6018:0.6047 9856:0.2776 11708:0.2662 13539:0.2467 14400:0.2369 15700:0.2107 15834:0.2068 16607:0.1708 16681:0.1643 
0 0 0 0 623.3957911858213 0 529.3408052326919 0 0 0 0 151.9553660126719 0 1207.91291092191 0 0 0 0 2346:0.6253 3497:0.6253 9131:0.5647 10843:0.5468 15337:0.4402 15906:0.4101 16791:0.2961 16856:0.2505 16876:0.2157 
1467.234007612981 2565.950553476649 98.66955850865909 1314.748882914697 26.42698033545258 0 1778.619052425606 0 2308.16046873807 1289.828099084641 0 166.3814583653866 665.6594745819771 3960.264649696062 924.837252926612 91.21942476074567 878.729936300441 0 3562:0.7295 13930:0.5673 15337:0.5136 16791:0.3454 16856:0.2922 16876:0.2517 
11437.95232566193 13130.66922600065 10991.64928684027 2486.627491767698 8259.044437136887 7600.379595289769 17850.76985293127 21947.54475323206 13730.80375116238 15592.43835861844 13260.10033427914 13499.78798716422 5300.70092656424 27808.95604296391 9599.468494077137 7270.112663713024 4218.971574334719 0 9731:0.5552 16791:0.2961 16856:0.2505 16876:0.2157 16877:0.2155 
2111.624231144807 0 10001.90884486982 12934.8491436306 2904.407714232618 8870.681019514812 5531.467630957753 4282.541826800664 5120.285026246474 0 361.3498651849713 354.5531901628705 5311.132776445298 9092.076588840611 929.9870237465361 12667.1002662692 6319.702731434638 15540.90771334234 11021:0.4194 16607:0.2657 16791:0.2303 16876:0.1678 16880:0.1338 
0 5852.207984607694 538.391904269276 7139.988422265034 4820.356688611849 7811.795713533665 0 21724.63197688507 7868.519444002125 5764.159204812727 4547.752277513847 4658.234078810583 3727.275950236804 3279.47617486295 0 9354.834562495333 6403.139529333063 10572.05985431464 7947:0.1791 10630:0.1701 11032:0.1678 11407:0.1678 12694:0.3206 12861:0.3175 13237:0.156 13971:0.1502 15088:0.1399 16681:0.1022 16718:0.0991 16738:0.2917 16880:0.0535 
32313.60996997626 42090.21138471673 45420.27905625233 39539.81961437251 31212.17337814479 45927.7689273778 20354.48777211531 37988.63872989725 45219.8896757873 27816.9047300823 32269.82828597166 25075.05554938191 36032.95405534499 44504.84452466859 40294.62443027099 45814.65285676571 26344.66095492839 44535.43056360995 7393:0.1446 10199:0.2727 12094:0.1293 13475:0.1221 14517:0.115 14869:0.2252 16103:0.0976 16552:0.0864 16863:0.1173 16880:0.0422 16882:0.0815 
1418.947464004908 1398.083116606428 1035.592037792632 0 0 0 0 595.2292977307889 1387.449191869435 1387.122976372687 1257.868445987974 66.84349580938724 1133.684234545886 0 0 869.0240568865538 0 0 2612:0.6734 6678:0.6341 7672:0.6341 8227:0.62 11394:1.1615 14296:0.5134 14346:0.5103 15672:0.4554 15970:0.4379 
2610.14658381555 324.5084755510603 5202.901765123037 0 0 0 0 6394.182814837559 3191.428848217892 3532.768154899464 0 644.6337507947638 0 0 0 2439.322951486544 0 0 7807:0.2067 9783:0.1993 10501:0.1963 10943:0.1936 11434:0.1911 11623:0.1911 11926:0.1889 11988:0.1889 12329:0.1869 12554:0.185 13321:0.18 14008:0.1734 14191:0.1722 15568:0.1534 15649:0.1523 15785:0.5976 16329:0.1361 16350:0.1353 16411:0.1328 16610:0.1223 
11265.37548825451 11638.62088069567 9486.910986769162 4723.600372880106 7414.019801973291 6034.824227184057 8114.732516415353 779.3264184484219 15591.75710774602 12728.121952805 4336.401298431785 9633.566147857615 11876.16008794287 11276.29435367191 10134.82787712411 9972.277983384476 6176.799552593323 6075.308811024711 6666:0.4338 7473:0.2169 10150:0.4091 14372:0.1746 14400:0.1746 15088:0.1657 16018:0.1486 16863:0.0879 
0 0 0 0 0 0 0 176.9735682157978 0 162.7850594967083 0 0 0 0 0 0 0 0 3328:0.2245 3455:0.2245 12903:0.1832 12945:0.1832 13151:0.3631 13475:0.1785 14277:0.1711 15993:0.1452 16018:0.1448 16495:0.1294 16876:0.0774 
42077.04561772569 7513.433610843496 30412.13289572435 26096.86947076844 23161.00838290155 25060.81131071409 54519.75631587931 48119.30833743213 37481.54384024453 34877.19866696773 38139.49731784123 36193.06772758166 17590.33758723362 40314.00841014645 23922.95037036615 32355.38281034994 19847.04782232652 25677.107540385 13337:0.1897 15145:0.1694 16018:0.1526 16037:0.1522 16776:0.1149 
1924.531549430317 233.4744254863085 1541.987903590442 0 1610.419627447343 0 0 1829.994705944516 1343.708100532058 936.9317267721793 1238.010676938981 1470.013749818727 340.9921005081101 0 0 2336.201804063553 0 0 8875:0.5271 10000:0.5182 11179:0.5033 11355:0.5033 15145:0.4179 15526:0.4016 15731:0.3909 
844.1981198880577 0 0 0 0 0 0 1659.293558145469 0 1004.055076246158 4004.043126631987 111.669246111896 0 0 0 0 0 0 3242:0.2918 6571:0.2748 8916:0.2635 9000:0.2635 10843:0.2552 12889:0.2381 15526:0.2008 15582:0.1994 15827:0.1931 16088:0.1863 16401:0.1733 16552:0.1642 16629:0.1578 16722:0.1476 
4795.182449395993 3960.373310962267 5128.543029913953 0 3497.607465653512 0 0 4899.73122113243 4859.840451194987 4733.729595639164 3475.066927303297 4236.052169922412 3594.13619755632 0 0 4408.124150269428 0 0 3243:0.3806 4054:0.3681 4125:0.3681 7303:0.7168 9454:1.0313 10743:0.3328 12163:0.9505 12569:0.3136 15448:0.2648 
22740.62433344361 10736.63519714759 27099.54347239168 27310.18583719677 15554.39021151849 26214.0147576697 22385.40890307329 27438.62951630891 20590.75167788979 22050.39247670882 14610.22454433186 20985.27887684591 32448.68434497765 22376.99015632146 17718.49649190533 23247.10396026056 18545.74573333237 29922.95756873235 13475:0.1989 14479:0.1884 14864:0.1834 15672:0.5075 16880:0.0688 
2909.040427399355 337.9468745213626 1409.286226664012 0 1593.690562033048 0 0 3787.369058502175 2672.21151761999 2370.693855584581 3859.675333270871 2374.262583957872 1734.242445588416 0 0 3226.73783454971 0 0 2910:0.5305 9246:0.2396 12156:0.2208 13363:0.211 14517:0.1987 15144:0.19 15906:0.174 16334:0.1609 16360:0.1593 
8231.661556583238 3771.680015834627 7957.600500907131 8001.664806081982 4543.237903916143 6744.193700167373 8811.265097278807 9062.565691870006 6881.024772599032 6673.527568665254 5902.766024268573 7720.113721275955 3028.205268738611 11369.45751317453 6178.216259387181 7643.121240511215 5772.048930762712 7908.485369934341 11532:0.4659 13092:0.4425 14060:0.2113 14801:0.4011 16791:0.1295 16880:0.0752 
0 0 0 0 640.2712167950576 0 0 0 0 0 0 558.1665016847116 0 0 0 0 0 0 11769:0.5734 12961:0.5446 16018:0.4344 16692:0.3522 16718:0.343 
0 2039.410229883179 1616.371568306832 0 1765.78470707425 0 0 0 1636.905669817407 0 0 1826.581110961786 1800.104967415401 0 1055.156521900421 0 1246.081079845926 0 14134:0.7902 15144:0.3687 15203:0.3671 15649:0.6988 16168:0.324 
1996.321358807647 2655.986915441465 2732.077189756847 1724.088613507008 2506.390022511338 2103.627172558634 3182.365785800566 1929.448565801507 2324.004663746427 602.9930531375953 1429.819350589515 2406.920836679361 2125.828383487845 2994.256173203894 4773.771625321069 1821.977849404431 1573.330287050539 252.931202019692 6046:0.8063 9939:0.3701 12599:0.687 14163:0.6397 16019:0.2689 16136:0.2629 
6514.219541171592 3411.695428470271 9185.016683374035 11333.08581865789 5044.001900073338 11616.35953370512 5038.642547336999 8681.156384934908 6395.47195206378 2553.124326075812 4268.606224832904 4762.085836645415 4025.486100781138 5191.230478050195 3893.65853349274 10453.26532152406 6723.506640345726 20576.0302901118 2303:0.2575 2437:0.2575 2523:0.2575 4761:0.249 7811:0.2371 9939:0.4572 12569:0.2122 12966:0.2082 15448:0.1791 15906:0.1689 16136:0.3248 16880:0.0708 
0 0 0 0 0 0 0 0 0 0 9.36494243957241 0 0 0 0 0 0 0 2970:0.5471 10199:0.4858 10918:0.4719 12329:0.4555 12574:0.4508 14869:0.4011 15596:0.745 15992:0.3539 16610:0.2982 
5251.653398955677 4735.822417029035 7148.337556480301 0 4536.298892572743 7040.296044047277 0 5555.263839221473 5147.061662380515 4666.334232522481 4662.06839569478 4826.071240285001 4665.703949912364 7896.393817544341 5572.963737101459 5087.586872073079 0 0 2268:0.3501 2677:0.3501 3342:0.3501 7583:0.3297 11163:0.302 11895:0.2947 12906:0.2858 13921:0.2723 14074:0.2704 14443:0.2638 14489:0.2623 15993:0.2265 16652:0.1868 
2059.017732632251 0 0 0 1105.874923546348 0 0 2335.937665216036 1980.710269033259 342.4935544761678 1346.780777348207 1361.64134435544 1677.924897007022 0 0 2304.210525320855 0 0 2845:0.3126 7965:0.2879 11163:0.2696 11895:0.2631 14029:0.2415 14443:0.2355 14883:0.2281 15425:0.2175 15992:0.2022 15993:0.2022 16277:0.1924 16610:0.1704 16652:0.1668 16681:0.1643 
12395.16506050091 0 0 0 9865.286371070661 0 0 20942.5085996745 14514.71112563332 14232.79725247706 11086.48776793975 11520.57113111834 10668.7158333364 0 3045.415063139291 13093.20435143084 0 0 2394:0.2918 5566:0.2822 9883:0.2591 10269:0.2591 11895:0.2456 13921:0.2269 14029:0.2254 14074:0.2254 14443:0.2198 15367:0.2046 16333:0.177 16610:0.159 16652:0.1557 
4396.579263673 159.9488335885742 511.7737079969232 0 2301.472940055794 133.0811944765081 446.6754318591269 42.15276121950329 2712.620913371898 3303.273828397497 1445.997179461933 3859.913091025718 2342.542755098897 1634.467439545461 3226.712830454248 1815.844805154739 1274.857982655055 0 2332:0.2501 4941:0.2419 8334:0.2303 11943:0.2105 12168:0.2082 13616:0.1974 14587:0.1863 15699:0.3372 15881:0.1645 15906:0.164 16168:0.1574 
60513.40865614033 73896.89767260407 70000.34606284861 77669.82658989109 47558.09472021849 67714.97138078396 67496.47305185757 67117.34136016885 64148.90905967435 59926.9798932333 46092.03402744721 52816.05519063475 43724.22737061776 82058.94931054252 65706.59506364491 61326.22378662057 47682.01734472036 65542.08852894488 6020:0.2065 12310:0.1777 12450:0.1759 13241:0.1712 14479:0.1608 16681:0.1122 16779:0.2068 
0 387.4958745497308 0 0 0 0 238.8239827018126 0 0 0 0 0 0 1221.792992457551 0 0 0 0 4338:0.7696 7755:0.7328 16791:0.3768 16856:0.3188 16876:0.2746 
0 4363.5487403018 0 0 1640.946048936203 0 3638.295288295545 0 1572.397237694132 0 0 1385.533296261037 687.371028728028 5596.232348274415 766.5641659797357 0 0 0 14006:0.5201 14270:0.5134 16791:0.3189 16856:0.2697 16876:0.2323 
1375.977384239916 0 903.3344542606774 0 192.451813689028 154.6839153344168 2203.694163450009 0 103.1845457753258 1444.166237092032 494.7421261100692 355.7252591120327 0 2789.824649781769 2083.373851504375 102.1652159966254 284.5299933009093 0 11274:0.4719 11407:0.9437 12694:0.4508 13930:0.4255 15093:0.3936 16791:0.2591 16856:0.2192 16876:0.1888 
0 0 0 0 0 0 0 0 0 0 0 0 0 1434.044947538311 0 0 0 0 5860:0.7696 9137:0.7188 14536:0.596 16791:0.3768 16856:0.3188 16876:0.2746 
0 0 0 0 0 0 0 0 0 0 0 0 0 474.1709264632471 0 0 0 0 11553:0.7454 14153:0.6717 14536:0.6556 16791:0.4145 16856:0.3507 16876:0.302 
0 0 0 0 0 0 834.3467525738075 0 0 0 0 298.5734196709292 0 1484.967725221756 0 0 0 0 11049:0.6863 15093:0.5724 16791:0.3768 16856:0.3188 16876:0.2746 
24319.48272446282 21425.71489464473 26977.597507004 23732.39649264856 18560.17847276322 24742.09747293761 26883.40953030797 26154.29463120576 25714.36997541171 23733.1656994562 18035.96149710644 21706.97782509237 18351.62725418395 31221.66163989711 25140.09959329837 24116.25266326025 17677.88384702592 23588.24859343251 4119:0.3136 9761:0.2879 9908:0.5758 15008:0.2343 15440:0.2256 15705:0.2178 
2211.932973847787 1774.627635883905 0 0 1204.944102830347 0 0 2737.834199953551 2303.042486447043 2168.830909051775 1484.020715795439 1748.450893315196 1825.134933404719 0 0 2591.173747318488 0 0 3332:0.2432 7460:0.229 9610:0.4392 10019:0.8636 10161:0.2159 10830:0.4253 11417:0.2097 12672:0.2004 13260:0.195 13657:0.3838 13950:0.1891 14940:0.1765 16791:0.1151 16880:0.0669 
9972.636825190077 0 0 0 427.4411670394792 0 0 0 1298.142176520807 1406.688170594061 975.1920153575037 3632.143794330786 0 0 496.9715119597447 5829.172886254364 0 0 2312:0.1683 6759:0.1585 8738:0.155 8871:0.152 9673:0.152 11122:0.1452 11253:0.1452 12455:0.1387 14431:0.1268 14432:0.1268 14776:0.2481 15144:0.1206 15582:0.115 15827:0.2228 16018:0.1086 16681:0.0885 16701:0.0875 16864:0.0634 
16046.96373310215 14628.24148138872 25416.64725535912 24814.65259106315 14804.71139763876 21799.42232681778 13074.96745363225 24021.80166856572 17059.65061162235 14756.15547667011 12081.70626717958 14910.33792915858 15049.7087562635 17835.11361507032 16037.19879515862 25506.83306039165 15496.61886436715 28656.43615121893 8966:0.3163 11275:0.302 15582:0.2392 15827:0.4633 16880:0.0963 
3770.303687224554 3427.438754096105 4961.82690142808 6072.846672809803 7922.03774191074 4889.538496656784 2712.030123215609 3146.247776694029 3974.269432435869 3441.116828350545 1608.585196626625 7351.434462511987 2614.201735598454 2786.376938457837 4322.13859287273 3457.136484066831 3791.933553547808 5026.168176528772 2542:0.3242 3785:0.6484 5242:0.3136 5601:0.3136 10335:0.2835 13920:0.5043 14372:0.2457 15660:0.2193 16692:0.3392 16876:0.1119 16884:0.0645 
9170.799098547546 11699.09910131112 9451.461311274137 8915.663362049823 8348.667295185411 10556.0382152618 14043.50857365953 3816.508157653559 11156.78271182628 6610.003318874741 3260.858458352218 8369.600911135825 6852.942688297493 14520.07973307898 17472.6764575423 4344.3423325347 8443.309255186768 6662.466712761462 7233:0.2659 13260:0.2264 13620:0.2228 15582:0.3859 15816:0.1874 15827:0.1868 16681:0.1484 16836:0.1234 16884:0.0562 
0 0 0 0 0 0 0 0 0 0 1930.134779194425 0 0 0 0 0 0 0 2305:0.2653 5682:0.2565 8378:0.2443 9592:0.2396 9992:0.2355 11475:0.2259 11943:0.6698 12007:0.2233 12067:0.4465 12215:0.2208 12450:0.2186 13041:0.6436 14550:0.3974 14682:0.1965 16722:0.6708 
3236.240704586169 3524.656619176406 4852.141284905959 3460.045814409657 7461.430387274871 4614.919262980281 0 702.9359150678124 2041.365108427681 1780.283797933256 5995.342786216333 3117.950245080688 8425.209761518941 5357.712592936774 6252.526429836463 4872.524471865341 3383.251059947133 2340.939201559644 7807:0.4357 9371:0.2137 11988:0.5973 15088:0.3404 16617:0.1288 16836:0.1034 16872:0.0839 16882:0.0628 
0 0 0 0 0 0 0 0 0 0 570.431708959323 0 0 0 0 0 0 0 5354:1.6932 8756:1.6121 15596:1.1921 16722:0.4427 16882:0.2324 
6457.549503277974 3344.525661080757 6493.686296064226 0 3179.059379390415 5217.608792592433 5249.497032535551 5902.372894296033 4944.885913923543 7029.122122935129 11015.23405049856 5587.859135763954 3048.94146240245 5867.784541428237 5580.63892348125 6156.095404313095 3947.765601372941 6186.304734935975 3056:0.5647 3086:0.5647 10692:0.2469 15736:0.3783 16722:0.5713 
1798.861262566092 948.1754945646148 2247.033484368286 1812.162810945425 1105.151465796309 2007.929398920562 1420.304368893892 2703.003051633269 1927.138676619411 1983.365810401653 3370.452458383565 1783.95754014587 1387.888401069504 1255.10808064828 1846.778665313819 1946.949923619135 1554.385711096562 2357.973326690544 3289:0.2918 7093:0.2748 7604:0.2748 8253:0.2687 8391:0.2687 9807:0.2591 11619:0.2485 11943:0.4912 12067:0.4912 12450:0.2404 13041:0.708 14277:0.2225 16376:0.5237 16722:0.5903 
0 0 0 10690.69958124518 0 0 0 0 0 0 633.7576427594479 0 0 0 0 0 0 0 3056:0.2501 3086:0.5002 9071:0.4518 10692:0.2187 15736:0.335 16617:0.4084 16722:0.6325 
10378.28453680859 10778.21477675766 16691.62304656619 17033.02621922961 10233.61509576141 17522.14195663665 13339.76238291371 12668.32318739543 11061.28548407283 10746.92754619398 8201.211904345768 9227.829471400362 11150.94934668764 15909.86367829835 14583.70273730108 13013.96296325124 11414.25880661024 19462.21195488005 5155:0.2646 6491:0.5152 7663:0.2576 8674:0.2519 8871:0.2471 10977:0.2359 12192:0.2277 12664:0.2254 14713:0.2027 15144:0.1959 16880:0.0752 16884:0.0544 
0 7224.327932219825 0 0 0 0 0 0 0 0 0 0 0 0 0 0 0 0 9370:0.2396 14288:0.2022 14862:0.389 14869:0.389 16049:0.3405 16722:0.4025 16863:0.2025 16880:0.073 16884:0.0528 
0 0 0 0 0 0 0 0 1575.948410791746 0 6757.488028610396 0 1803.645255083067 0 0 0 778.919066263437 0 9370:0.3594 14288:0.3034 14862:0.2917 14869:0.2917 16049:0.5107 16722:0.6037 16863:0.1519 16884:0.0792 
0 0 0 0 0 0 1527.183565613894 0 0 0 490.6467773540992 0 0 0 0 0 90.80507355341777 0 9370:0.2726 14288:0.2301 14862:0.2213 14869:0.4426 16049:0.1937 16644:0.1616 16722:0.458 16863:0.1152 16884:0.0601 
0 0 2090.747589506176 3517.401438812582 232.8127537068892 3068.618046636251 0 0 0 0 0 0 398.3441985059883 0 0 2449.260763984322 1686.570745209807 5866.072083550631 6323:0.9367 6555:0.1873 12599:0.4918 12966:0.1609 14429:0.1499 16136:0.1255 16791:0.0942 16836:0.087 16880:0.1642 16884:0.0396 
18480.36438914232 19053.1227287484 25020.02593720872 30789.12204109937 16111.2525429312 23222.92912639823 23452.41883717643 20927.7621515388 19268.70876962313 19035.12090794792 11922.52759966133 16349.5062246733 15840.16018414215 27639.82172129289 23220.54646983447 17842.57752756636 17369.57964898795 24337.23409481942 2899:0.4377 10312:0.3827 10397:0.3827 11295:0.3775 16415:0.2585 16884:0.0871 
0 0 4757.35792888792 4773.72750734585 1167.563506560501 6972.557090335008 0 8121.039975318089 0 0 2332.540948306436 0 0 1525.248066001481 2430.084374299496 2144.211630561793 3265.877017057891 6458.595150626642 6292:0.1754 6666:0.3508 7693:0.1754 7943:0.1715 9434:0.1682 9435:0.1682 9703:0.1654 9908:0.1654 9932:0.1654 10233:0.1654 10936:0.1606 11274:0.1606 12163:0.155 14006:0.1439 14270:0.142 15440:0.1296 15906:0.1222 16018:0.1202 16738:0.0931 16880:0.0512 16884:0.0371 
5146.906647675628 12613.56883375278 1937.016812206751 7185.192927659827 7163.966882889787 0 5064.127626119482 6003.889532551294 9167.511783408543 7067.55132852531 0 11894.73790382482 3487.886779969943 0 0 997.8081622404629 3068.17263144506 2138.557434003165 2660:0.2501 8111:0.2303 11305:0.2157 11507:0.213 12037:0.2105 13953:0.1945 15736:0.1675 16552:0.1407 16610:0.1363 16692:0.1308 16863:0.0955 
0 0 0 12679.0520916633 0 0 22094.48332589275 12658.52451299315 0 128.8137870489219 524.0644978376888 0 0 0 0 6586.222218746028 0 0 2429:0.1903 6858:0.1792 10335:0.3328 13539:0.1502 14488:0.2851 16360:0.1143 16684:0.0999 16701:0.0989 16738:0.0951 16791:0.1802 16880:0.0523 16882:0.0505 16884:0.0379 
10070.14838147293 3333.981026885792 17963.76534151492 0 11960.70421973461 20871.97012160387 1034.867327472857 0 5928.763012291799 5019.855886089262 8881.723027050102 6501.788426548232 8946.405438017406 31099.13823353674 18921.65530772161 6694.100530889521 10840.02798211943 17776.39407023039 2429:0.3367 6858:0.317 10335:0.2944 13539:0.2657 14488:0.2522 16360:0.2022 16791:0.1594 16882:0.0894 16884:0.067 
9732.76846611226 16204.85227280476 12193.05750295893 15936.09186232056 14360.17304997923 21369.76463248515 15606.5711467785 15580.08043740602 28119.46361984948 14371.94978924112 11095.70412941413 11952.90683727227 10619.81138461429 17777.59142025532 12240.46515038557 12251.17102108929 12155.99572630831 17217.88865082015 12889:0.4659 13237:0.1526 15107:0.2726 16001:0.3693 16168:0.1197 16722:0.0962 16836:0.0832 16884:0.0379 
25821.95774741299 41543.88733770428 37865.40636207949 35510.43951341019 37620.94574062576 38799.72919996077 28338.85102757002 33732.21826838874 31731.72270852905 23783.90972268255 24905.26114652663 33145.76733964179 31999.98796410731 32701.22612624715 32378.50922895926 27597.0040916135 25767.72475323926 37656.30357363161 2588:0.2084 7377:0.1963 9108:0.1882 10118:0.1851 13616:0.1645 14215:0.1589 16641:0.1117 16692:0.2181 16863:0.0796 16884:0.0415 
9664.776255144274 4778.472231147465 13034.96423811236 7337.574700204977 9421.175406275344 10396.64021190935 16133.60041846746 5315.581611187881 9665.093125378331 2806.150318120009 10181.09331955924 7775.697108878296 6563.962781690998 14606.03502572681 15137.04534331817 8489.669274345568 6944.552714966519 9310.337326390631 3455:0.2653 9292:0.4792 10630:0.232 13641:0.2093 16411:0.157 16722:0.1342 16776:0.1288 16882:0.0704 16884:0.0528 
339.0903437927261 5291.035767813914 11023.45865457538 13497.99663289547 4988.933362548257 12796.93824245524 6962.202641491337 5558.300432802246 3285.818803819127 1589.157208807594 3943.811366316811 1989.425300168563 5665.143951709671 7168.031324328389 5195.639335790684 5725.593662444583 8016.894917211122 14415.84965893388 6542:0.4121 14776:0.6451 15582:0.299 16880:0.1204 16884:0.0871 
0 0 0 0 0 0 0 0 0 0 0 0 2322.837194472429 0 735.4128044855213 0 0 0 11167:0.4194 13151:0.3933 13616:0.3838 14400:0.3685 15448:0.3384 16350:0.2932 16884:0.0967 
15497.0453947677 9291.564955505055 33390.13651949187 41618.99780768612 12909.87256191641 25357.96875335953 25918.03281817633 23394.58147111479 10733.70743738745 11622.80001929587 1708.686945828588 10499.98863086913 10345.36364616757 24122.13733625506 14113.30656746069 30833.46704590336 21820.23212772302 46379.6270969793 6211:0.1832 6778:0.1832 10929:0.1678 12423:0.1619 13860:0.1513 14381:0.1474 16791:0.0921 16880:0.107 16884:0.0387 
3431.166823171913 9501.30662898073 7197.786857630835 6563.2230816746 3913.944580780942 7004.719036595923 4527.451222929163 5232.201959680643 6222.258974796389 3283.60245152132 3898.164691222574 2859.973509401499 6317.443055351787 6151.727423936047 3987.474874016992 5417.587466147726 4525.863131549429 7168.445382869397 2931:0.3367 4474:0.3256 9554:0.3041 9673:0.3041 9794:0.299 11548:0.2867 12168:0.2803 12421:0.2803 12637:0.2774 14149:0.2583 14153:0.2583 14536:0.2522 15582:0.23 16863:0.1285 16880:0.0926 16884:0.067 
0 0 0 0 0 0 0 0 0 0 0 0 0 0 0 0 0 57.23626172840528 7755:0.7328 12574:0.6557 16791:0.3768 16876:0.2746 16880:0.2189 
8373.473372411481 5416.842907169142 7899.747706222931 10323.62897849338 8909.569297212616 10172.20715734767 5569.620810563662 12766.08554573499 8062.264943493766 9988.386023555453 9243.246770520889 10504.00139778895 8735.119582635425 10336.87555545868 10953.23559134406 9505.626759272369 7539.204105056167 9547.392113868751 6696:0.1963 6977:0.1963 8884:0.1882 8916:0.1882 12797:0.1701 14149:0.1599 14248:0.3178 14296:0.1589 14682:0.4632 15119:0.1493 16018:0.1345 
16730.11620188456 13860.68958855211 19581.90374019681 17772.25098961904 8526.021197822862 16560.50965942673 21035.55366765615 14409.41920575129 19431.18076195311 16362.84311782301 4436.06919440388 11711.78648701898 9569.189473250282 20127.44964337935 15812.68400406465 13727.13694438125 10072.51099756954 16471.9164755354 2423:0.2036 6696:0.1917 12903:0.1661 14248:0.1552 14523:0.1525 14682:0.3016 15119:0.1458 15203:0.1451 16168:0.1281 16681:0.107 
3777.803535185699 3152.211004270028 4328.926971908694 2471.382485494943 1589.621496758888 3671.952143268491 2049.482528501159 2550.225652474456 2510.992463448733 2637.633635538366 3672.642324534022 2046.102306540519 0 4527.092253078864 3211.081451249262 4798.705984052614 2611.083742504968 3131.911189284581 4125:0.2352 4216:0.2352 6353:0.229 6696:0.229 6980:0.229 7943:0.2239 10307:0.2126 13041:0.1967 13616:0.1919 14248:0.1854 14682:0.3603 15119:0.1741 15649:0.33 16350:0.2932 
0 0 0 0 0 0 0 0 0 0 303.4042707359952 0 0 0 0 0 0 0 4066:0.1924 5911:0.3848 8226:0.1832 8236:0.1832 8652:0.1832 10216:0.1767 11275:0.3432 11769:0.1694 12602:0.3279 13237:0.1595 14248:0.1517 14587:0.4445 15119:0.1425 15699:0.4023 15767:0.1328 16376:0.119 16493:0.1147 16681:0.1045 
2858.86061684701 973.85262598023 2070.006974778149 2251.031273856311 2248.07385689547 2238.765368820377 2629.574653264115 3588.242237845242 2866.161259380007 1816.160206470628 2729.54461647485 2629.333580464207 1865.88773895536 3943.955608154681 1543.846758499874 2794.76362224155 1863.504871177145 2083.743652320614 3811:0.5471 10216:0.4858 12602:0.4508 14248:0.4171 14587:0.815 15119:0.3918 15699:0.7376 
3429.388808029067 5027.953537944304 5114.921691064805 9051.914080090566 4642.800446511981 3135.394971197868 7595.310192827547 2857.456752178694 6756.247994305707 3751.788183448362 1946.439822064258 6070.688039295958 4080.347369488355 5473.446979825795 3759.585698083559 3998.223236279111 4700.112549420466 3297.876337228456 2529:0.5836 2648:0.5836 7693:0.5495 13971:0.4507 16103:0.3708 
2203.581701424165 3919.836554226719 0 0 0 0 0 24137.40293535463 1777.70914433304 0 12129.27120926712 2053.902146461349 0 0 0 0 0 0 10150:0.4318 14400:0.3685 16168:0.306 16836:0.2126 16852:0.1999 
90959.74302307819 79795.88139291923 140996.8044891055 150000 80312.71280179865 147861.1732207204 117659.1632733681 125810.3620256697 88207.94260233162 92084.02416950421 78274.57939423162 81603.99253652654 80066.45652926189 140168.1882069174 106578.0829505869 117705.7198135075 94469.24476863877 150000 7803:0.155 16168:0.1059 16320:0.2046 16791:0.0797 16877:0.058 16880:0.0926 16884:0.0335 
74426.78090582479 66679.85002853555 102331.2963792771 101779.5912257844 64308.04388835516 99448.86296736749 101319.8993248982 81845.59422808996 74230.46471964823 71660.53528264823 50632.3921493013 64902.19980425957 60644.54041907605 120876.6267716512 85803.87326102419 82654.23241406539 70210.78782862808 103975.8819327462 3037:0.1509 6012:0.146 8402:0.139 8429:0.139 12455:0.1244 15881:0.0993 16168:0.095 16791:0.0715 16880:0.0415 16884:0.03 
935.3761775369118 1451.107488599797 0 855.9282746340432 451.7941538580232 0 2224.166738702534 325.572880526396 1100.42856599933 1087.35711062176 297.7550429215392 1797.953245308218 0 2192.837223737719 1546.201698947146 0 598.9325915158639 0 3775:0.3501 9552:0.3163 9883:0.3109 12744:0.2858 12945:0.2858 14332:0.5307 15700:0.9442 16884:0.0697 
16148.88110768761 16529.60912651574 18621.99857414741 23831.56282628726 12267.35777113159 18222.23728907659 18239.75239481193 19149.55686046958 16614.90381524586 17971.20002998537 12305.19707004111 15645.03571637381 12807.31456665895 20664.12721277718 16988.5244267257 13182.01590240616 14808.25236094889 19184.45052748382 2252:0.2501 9883:0.2221 10255:0.4442 15088:0.1799 15640:0.3394 16884:0.0498 
6581.780670011274 0 0 0 3157.521063689076 5410.419007868276 0 0 0 3302.157356401088 0 0 3607.728574184577 5888.274467495957 2904.47922535272 7697.454949225435 0 10164.04198697574 7056:0.5495 11808:0.4912 12527:0.4809 15881:0.3839 16518:0.6657 16607:0.3189 16878:0.3636 
6523.940944209887 9888.276691527435 9395.930035291698 10538.63489490058 3103.689030640883 6286.401515866803 7092.141353749853 13190.50323254987 8466.834302505371 7127.312624859688 7314.671176867213 7096.997345892113 661.8346967027646 8506.6308236596 6449.121612876878 5187.258377741154 6014.658696699957 3300.444924905844 8674:0.5374 12527:0.4809 13108:0.472 15202:0.4161 16333:0.3539 16518:0.3328 16684:0.3063 
41720.72492859651 41599.53765138385 51994.88485777358 59670.43207823 31128.19042688426 48110.68564437458 72915.55382123939 45923.76089291081 48190.3397665492 42236.93836927183 24315.55713641114 36575.23529001229 25612.21103047485 60093.76725241719 46334.29860710052 35147.9662652336 39931.22704710126 48976.51290498769 12690:0.1898 13151:0.1863 15088:0.1657 15731:0.1543 16776:0.1118 16884:0.0458 
0 0 1638.341717289085 9368.615947130947 128.5655473457095 4251.674829678202 905.4745097436006 0 0 0 0 0 0 0 2253.969833940273 0 3304.036881371059 3977.673052017065 9761:0.5979 10150:0.5979 14400:0.5103 16876:0.2323 16884:0.134 
0 0 0 0 0 0 1822.58689943576 0 0 0 0 0 0 0 0 0 758.9375856554869 0 2486:0.1122 2967:0.1122 3444:0.1122 4144:0.1085 5449:0.1085 5704:0.2171 11680:0.0956 12527:0.0925 12797:0.0916 12906:0.0916 13454:0.1785 13475:0.357 13687:0.0879 14488:0.1681 15707:0.1508 16329:0.0681 16350:0.0677 16681:0.059 16722:0.0568 16791:0.1063 16880:0.0309 16884:0.0223 
0 0 0 3564.713485208149 0 1573.001740864118 2523.492146977932 0 0 0 0 0 0 919.5852949830366 745.3584647474172 0 1831.08730920452 2085.0569290105 4877:0.2919 5161:0.2919 5725:0.2919 6018:0.5839 9856:0.268 11708:0.257 13539:0.2382 14400:0.2287 15700:0.2035 15834:0.1997 16607:0.1649 16681:0.1586 16884:0.0601 
19576.29040690703 39003.44066306572 33141.97014949555 34540.8382239331 18792.39512225581 33763.13871600947 30741.42825901937 24065.009985752 31830.30000481133 20494.44961316068 17115.40985016364 16767.24559379335 28834.05962810936 38878.52623253614 26546.57199090688 18489.65718639522 25266.70196881184 30181.88168305903 4622:0.2352 4893:0.2352 15736:0.1629 16018:0.3138 16863:0.0928 16884:0.0484 
4372.567829804179 8225.415707521866 10491.87570498424 11383.54765062408 5891.584584427423 12127.5559834406 7783.691719385874 1365.653828711591 4360.692751818712 6708.838955132415 7460.737472389253 4457.265164551884 1832.525530161073 15301.48897366935 10548.74645371965 6644.761536272871 8430.680330138504 11124.43691592032 4811:0.2565 6612:0.2498 8226:0.2443 13237:0.2127 13616:0.2093 13665:0.2093 14296:0.2022 16493:0.153 16681:0.1394 16884:0.0528 
8422.899450276902 7789.650498879805 9028.563475073626 8835.815230963162 6761.454302524794 8723.148279604027 10891.01737520415 14306.78381471181 8375.287156438326 9027.04057236872 4122.443664368128 7451.700426754425 7503.038939562735 12410.85409529031 10441.61964019713 7087.529225614369 6218.922357829229 8159.416898380724 2543:0.3242 5980:0.3136 6542:0.3053 6612:0.3053 8236:0.2985 9115:0.2928 11943:0.2729 13237:0.26 15707:0.2178 15767:0.2165 16738:0.1621 16884:0.0645 
3214.481381012903 4269.813113585692 6408.159227167863 6643.875559587716 929.0775717411341 6292.811699307063 4987.149243341951 1237.35290996965 2892.322080573021 3479.480880892526 2840.752955735917 2085.698667218051 0 5706.909133779242 5448.049788043641 2350.681726697989 4597.213163243599 6115.448346934733 2543:0.6253 4757:0.6047 6353:0.5888 15993:0.4045 16884:0.1244 
0 0 0 372.9213928803802 0 0 0 0 0 0 0 0 0 0 0 0 0 0 5399:0.3136 8946:0.2928 13021:0.2622 14134:0.7463 14431:0.2442 15582:0.2215 15649:0.22 15827:0.2145 16103:0.206 16376:0.194 16684:0.1702 16722:0.164 16738:0.1621 16884:0.0645 
25224.52304095087 16075.51392645515 24747.53609629973 30260.96216278977 16241.19388314918 25000.59997698124 25038.6707148973 26269.18060696958 25361.93183590884 28802.2476759765 16789.05690317892 21247.22155973648 14331.38875691847 29288.99665531984 22398.11631673853 23436.08447286117 17963.48679516058 33591.92657547603 11074:0.3775 14006:0.3381 14163:0.3358 15708:0.2941 16136:0.2761 
267.3589147709582 1607.259592524209 2012.809877353387 2412.442886663296 993.7656601973659 2028.456282055693 0 0 0 0 0 0 0 0 912.3626005666021 0 1536.830395903773 3957.240637876857 3481:0.2366 9000:0.2137 9266:0.2137 10322:0.2069 10456:0.2069 11125:0.204 14372:0.3586 14517:0.1772 15145:0.3388 15526:0.3256 15596:0.1611 16411:0.14 16836:0.1034 16884:0.0471 
0 0 0 2430.76474367323 0 3905.36026157006 2546.668692804821 0 0 0 0 0 0 4018.797713931226 2121.331976136472 0 1707.468460619279 1553.060844843525 2402:0.2824 3752:0.2824 5743:0.2731 6747:0.2659 9889:1.0029 10127:0.2507 11945:0.2377 13423:0.2246 13506:0.4491 13930:0.4392 15678:0.5729 15767:0.1885 16641:0.1514 16791:0.1337 16884:0.0562 
0 0 0 3142.96055656123 0 0 0 0 0 0 0 0 0 0 0 0 2206.308839348646 0 2824:0.2036 2861:0.2036 8011:0.3749 9703:0.1808 10127:0.1808 10456:0.178 11367:0.1756 11977:0.1713 12192:0.1695 12889:0.3323 13506:0.1619 13687:0.1595 13930:0.1583 14134:0.1562 14550:0.1525 15678:0.413 16641:0.1091 16681:0.2139 16684:0.1069 16884:0.0405 
7119.177814618056 7361.719415737999 12625.10011087884 8157.925322696447 6399.060352802002 12875.61663708173 4748.247553658372 6748.862641178593 7577.175282959807 4941.955657637318 7546.220810313777 3863.835638826798 9252.764601384222 9596.017754214432 7881.339078966229 11458.87899010336 7543.612119645755 12964.2167904955 3316:0.1751 5258:0.1693 7079:0.1649 8099:0.1612 10028:0.1555 10060:0.1555 11071:0.151 11305:0.151 11667:0.2982 12578:0.1443 13241:0.1404 14713:0.1297 15707:0.1176 15736:0.1173 16552:0.0985 16610:0.1908 16863:0.0668 16880:0.0482 16882:0.0465 
0 12745.20274584749 0 0 0 0 0 0 0 0 0 0 0 0 0 0 0 0 10972:0.5393 15672:0.4229 16018:0.4034 16773:0.3038 16779:0.3028 16863:0.4774 16884:0.1244 
8672.223719515965 5740.95643296471 17586.93988373631 13064.05189668539 12173.68017355276 19460.42257118432 13683.12030825025 8293.744362931684 5901.605944658686 6973.154817617919 8471.555045323112 6973.891016565442 9035.332527009514 21336.71653325369 17531.23744004354 11044.88693390169 11170.21727535234 17049.300348078 2428:0.5471 7393:0.5152 10481:0.4784 16882:0.1452 16884:0.1088 
0 0 0 0 0 0 0 0 0 0 1822.937571363403 0 14608.22777522673 0 0 0 0 0 10972:0.5033 16136:0.3681 16493:0.6731 16607:0.3189 16865:0.219 16884:0.1161 
0 0 0 0 1067.580049451834 1216.544676767196 0 0 0 0 254.6663612651858 0 0 0 0 1314.281336410539 0 0 2648:0.4377 10958:0.755 12903:0.3572 15992:0.2831 16776:0.2125 16882:0.3486 
11302.16748052302 7611.319399345495 11776.8369613533 10259.7096381397 5457.94648798566 9201.63820911772 17285.28079759511 15398.74281532115 13009.03901879819 11594.80455071849 5905.495623425432 10068.0724518922 3895.217464347749 13162.56401164141 8133.659900018835 10179.88083567937 7739.612886182898 9541.264994759691 4729:0.4703 9371:0.2196 11167:0.2097 11988:0.2046 13021:0.1967 16018:0.1569 16776:0.1181 
19551.20522883823 14639.35215968802 25446.51338012589 26657.06971723335 15825.54825496841 25020.11573220712 31576.36760503136 20821.72416301982 18581.4841005511 20297.19184502119 11674.4347739891 17172.18640541301 14135.23575440931 27911.72990677799 22641.98669301295 16458.2446350401 18421.91365896409 23957.13652525465 2630:0.3501 6109:0.3297 14060:0.2704 14281:0.267 14869:0.2567 16402:0.2079 16718:0.1783 16884:0.0697 
0 7978.768351940388 0 0 0 0 0 0 0 0 0 0 2337.686774699534 0 0 0 0 0 4057:0.8063 13860:0.3242 14869:0.3056 15906:0.2734 16684:0.2188 16863:0.3183 16884:0.0829 
0 0 0 0 0 0 1526.311369228478 0 0 0 0 0 0 69.12564693557233 0 0 0 0 4057:0.2352 10199:0.6477 14869:0.3566 15596:0.4967 16049:0.1561 16863:0.0928 16882:0.0646 16884:0.0484 
22596.8233985878 1010.961220635878 25167.48248233285 5598.375367384558 3521.0046860479 0 12582.96625432187 0 1922.193860536197 0 0 7581.392717091207 6217.681425150096 5450.082094158064 7098.791192295688 2077.873260257626 3551.145935958158 0 7947:0.2371 12694:0.2122 12889:0.2101 13237:0.2064 13971:0.1989 15371:0.1805 16669:0.1364 16681:0.1353 
0 0 0 0 0 0 0 0 0 0 0 0 0 696.0911560973842 0 0 0 0 5913:0.7055 15906:0.4784 16791:0.3454 16856:0.2922 16876:0.2517 
0 0 2006.774511698407 4124.813539918327 991.2313738791777 3084.356939468241 644.4529915559098 0 0 0 0 0 1223.405058166209 0 2503.189749441028 125.0634672230222 2427.828737779235 4387.19354184899 9731:0.9716 11553:0.9318 14153:0.8396 14536:0.8195 16884:0.2177 
0 978.6187832804735 0 0 0 0 0 0 672.9393424610049 0 0 0 0 0 0 0 0 0 2428:0.6734 10481:0.5888 11945:0.5667 16791:0.3189 16856:0.2697 16876:0.2323 
3993.839077621692 4294.594839595943 2297.800790531748 0 3447.424801432945 2337.002680941597 5905.03424890611 3132.44319995048 3141.24581492866 3919.687064122683 3393.680364215625 5069.702134574608 3880.173861414239 10583.00341265266 3990.065321591454 1566.666523211418 1434.296407719865 0 4757:0.1924 6211:0.1873 6980:0.562 8288:0.1832 9191:0.3594 12329:0.1656 14191:0.1527 14381:0.1508 15119:0.1425 15785:0.1324 16376:0.119 16644:0.1065 16722:0.1006 16791:0.1884 16856:0.1594 
0 0 0 1179.101284784567 0 944.6460329424282 706.0023457219706 0 0 0 0 0 0 1803.125798970641 1579.328980920524 0 845.2803346881479 767.9161352929001 2612:0.6253 6678:0.5888 7672:0.5888 8227:0.5757 11394:1.0785 14296:0.4767 14346:0.4738 15672:0.4229 15970:0.4067 16884:0.1244 
27765.84941489786 23142.51932994637 28928.71408083467 24730.57291350811 20032.35628487509 30851.84357427439 33958.16088940035 28572.58284649938 27118.55597051194 26107.22513368243 25188.33493808456 25384.69432990564 32124.22328900067 45521.59510949651 34020.30446274659 25233.03028278142 20267.45728170182 25988.90690957159 2235:0.1716 7324:0.1616 7760:0.158 8111:0.158 8129:0.158 10874:0.1501 12423:0.1429 12690:0.1414 13044:0.1388 13251:0.1376 14281:0.1309 14798:0.1258 15526:0.1181 16791:0.0813 16865:0.0644 16884:0.0341 
0 0 0 1235.759654399224 0 2078.078376583726 0 0 0 0 0 0 0 0 240.3236873512274 0 1904.461035236592 2172.669631520913 8875:0.4941 10000:0.4858 11179:0.4719 11355:0.4719 15145:0.3918 15526:0.3765 15731:0.3665 16884:0.1088 
0 1852.780789540779 754.0883643299302 0 835.3455136859 347.0044246704898 0 0 348.8525230378704 0 1243.144279879375 0 3309.605799491104 73.61480889206814 1692.074291737151 0 0 0 3335:0.6253 14862:0.4584 15640:0.4243 15850:0.4125 16277:0.3847 16610:0.3408 16863:0.2387 16882:0.166 
0 0 0 0 0 1727.190832424138 0 0 0 0 0 0 0 0 0 0 0 0 6141:0.2659 6297:0.2659 6303:0.2659 7577:0.2659 13539:0.2228 15678:0.191 15881:0.1857 16277:0.1738 16495:0.1628 16617:0.1537 16791:0.1337 16863:0.1078 16880:0.0777 16882:0.075 16884:0.0562 
0 6739.646011983549 0 0 0 0 0 3619.398584568357 3278.69647538743 219.1468069829212 0 0 1108.853675302812 0 0 0 0 0 7792:0.2239 9857:0.4318 12686:0.4007 14862:0.3566 14989:0.1765 15110:0.1741 15640:0.33 15660:0.1645 15850:0.3208 16256:0.3005 16277:0.1496 16333:0.1475 16402:0.1444 16610:0.265 16718:0.1238 16863:0.1857 
481.7619223936633 394.4045331373455 1401.069751484285 1246.370562160047 835.1455448771476 1692.738623498836 875.5067344414394 716.6919582207487 340.0269982369081 920.7379025312907 658.6454076024821 574.8726581217608 786.6207073432772 1262.910242398891 1879.518544529931 619.5623728504358 1112.184293531473 1069.389638143612 7562:0.6594 10397:0.3062 10546:0.3062 11049:0.906 12569:0.2885 15008:0.253 15731:0.2345 16018:0.2259 16884:0.0697 
0 0 0 5183.011709400278 0 4956.984923845761 5429.623214353439 0 0 0 0 0 0 6240.415560585267 5120.479776973663 0 3676.054805237169 4740.961409978585 3243:0.3647 4054:0.3527 4125:0.3527 7303:0.6869 9454:0.9883 10743:0.319 12163:0.9109 12569:0.3005 15448:0.2538 16884:0.0726 
1778.472021076799 6920.819334083983 9790.932565096182 12692.74698499319 3883.431018863083 13896.17058196508 3236.584875036905 6865.070135216553 2491.839098003289 3514.518026550141 2516.669966974722 1090.572097690235 6627.761103983191 7315.575835018098 3334.218977333484 7233.295575938027 8509.002799828437 16620.7202714889 9292:0.4651 9552:0.4651 10576:0.4503 15596:0.3506 16880:0.1416 16884:0.1024 
14422.47344844097 12130.09054272842 12602.74732018207 10164.40322181333 5827.598845092024 8760.670300162028 8828.337547544688 11080.44473330048 12846.91193415871 13135.37884756365 7558.116287914749 8150.425351474354 7632.207278374574 9415.589898315257 6147.132290754504 11921.41676112036 6622.685099215733 10275.17702757081 6760:0.2748 6977:0.2748 12554:0.2404 12906:0.2381 14940:0.2119 15377:0.2046 16610:0.159 16836:0.1275 
4926.000526210427 3805.497078066787 3250.988273275654 3094.816048829584 3381.779475765795 3799.427472407192 3826.202515545229 4958.386381448934 4673.427782886885 5419.232601650163 4247.281891626618 4894.161447628664 3419.025444163218 4021.635658006408 4273.904335476275 3857.15284343076 3191.653511758097 2967.033341818713 5449:0.5644 8013:0.5374 8125:0.5374 13860:0.4538 14883:0.4258 15649:0.396 
6093.699627745784 4739.368774334874 8731.250931219753 9960.658608797976 4046.346569183372 8050.459825448058 7292.569203641799 10187.84033769104 7674.4981240661 6748.579302847021 4526.714711233819 5130.639933583891 3239.63816381887 9198.452637011671 7273.148822287998 6038.006345100293 4085.263356499848 7164.559680057979 5449:0.6047 5704:0.6047 10060:0.5552 13804:0.2449 14517:0.2342 16876:0.1079 16877:0.1078 
150000 150000 150000 150000 150000 150000 150000 150000 150000 150000 150000 150000 150000 150000 150000 150000 150000 150000 13804:0.1224 14523:0.1171 15785:0.1041 16495:0.0901 16872:0.0555 16880:0.043 16884:0.0311 
12347.18960919611 10855.71892218769 15204.36556292984 14732.30880730059 9512.566346969696 14410.0678673928 14994.95341668427 13740.02093986038 13402.82564349855 9876.95456730807 8637.743049236742 11049.93174887441 9799.293549764836 15874.51126646274 6411.185236759563 11536.19636857253 10534.14222144279 13565.72500288887 9702:0.2355 12366:0.2208 14429:0.9991 16836:0.1159 16884:0.0528 
0 37059.1538391318 0 0 0 0 0 0 12944.36382626676 0 0 0 9629.567809780085 0 0 0 0 0 15093:0.5247 16791:0.3454 16856:0.2922 16863:0.2785 16876:0.2517 
0 0 0 242.3257302672863 0 0 205.2683381807771 0 0 0 0 0 0 0 0 0 0 0 4991:0.9407 6108:0.9159 9815:0.4318 10028:0.8636 10692:0.4253 12797:0.3969 13241:0.3899 16103:0.309 16791:0.2303 16856:0.1948 16876:0.1678 
0 0 0 6295.207580552766 0 5382.631974657246 5235.042450303331 0 0 0 0 0 0 6520.530154385099 3581.978767285817 0 548.6899907780652 6358.718439729527 7807:0.2015 9783:0.1943 10501:0.1914 10943:0.1887 11434:0.1864 11623:0.1864 11926:0.1842 11988:0.1842 12329:0.1822 12554:0.1803 13321:0.1755 14008:0.169 14191:0.1679 15568:0.1495 15649:0.1485 15785:0.5827 16329:0.1327 16350:0.1319 16411:0.1295 16610:0.1193 16884:0.0435 
0 0 112.8096573233083 2011.979101496328 1332.630347257242 0 9109.927123894111 4745.178823245492 0 0 2643.79863158246 1943.400365804491 0 7486.075611443453 0 0 1251.671466109504 0 2457:0.1621 4358:0.1568 5201:0.1568 5910:0.1568 7380:0.1526 8143:0.1493 8652:0.1493 8762:0.1493 8828:0.1493 8916:0.1464 9096:0.1464 9454:0.1464 9553:0.1464 11125:0.1398 12516:0.1336 15145:0.2322 15510:0.1115 15526:0.2231 15699:0.1093 15708:0.1089 16329:0.0983 16791:0.0768 16884:0.0322 
2767.095382806375 7748.68691384983 5029.698744277796 4309.478341190363 2880.644790488516 4687.632015235887 0 765.2808448792151 4445.354473378683 5487.552408350957 110.2610200972236 2214.644476790715 2211.940405307668 587.0756883358514 5668.264920221343 2632.020327903001 3319.471769111627 3200.869659598385 2331:0.1716 2457:0.1716 3484:0.1716 4358:0.166 5201:0.166 5910:0.166 7380:0.1616 8143:0.4741 8652:0.158 8916:0.155 9096:0.155 9454:0.155 11125:0.148 12516:0.1414 14134:0.1317 15145:0.3687 15526:0.3543 15708:0.1153 16329:0.1041 16441:0.1007 16884:0.0341 
0 0 0 0 0 0 3890.515021402451 0 0 0 0 0 0 9289.982292044451 3071.653958374442 0 12.89033159213469 0 8875:0.2726 10000:0.268 11179:0.2603 11355:0.2603 14488:0.2261 15145:0.2162 15526:0.2077 15731:0.2022 16722:0.1527 16791:0.1429 16884:0.0601 
10800.1058265957 5639.262150769677 16011.80818822321 9730.96247437276 9555.450826250104 15600.39189051942 9226.997560521881 9088.99277205625 8920.126308300349 8941.041024908238 10733.70510030834 6986.491401460678 7602.808262524746 18802.71468792241 16850.229004547 13644.41044166284 8540.124537143995 12794.26075504743 8700:0.1919 8756:0.1919 13953:0.6483 14400:0.3159 14989:0.1513 15110:0.1493 15660:0.2819 16610:0.1136 16882:0.0553 
0 0 0 0 0 0 0 0 0 930.7800277610986 0 809.4560336660335 0 13.62204524977727 0 0 0 0 2309:0.2575 6846:0.4849 9932:0.2286 12138:0.2143 14869:0.3775 15596:0.5259 16597:0.1418 16681:0.1353 16836:0.1125 16884:0.0512 
0 0 0 0 0 0 105.9143527914665 6753.249627027568 0 0 4173.608401798777 0 0 629.0251785663311 0 0 0 0 7765:0.6717 14377:0.5528 16791:0.3454 16852:0.2999 16856:0.2922 16876:0.2517 
1033.151222834616 782.202885538799 0 12505.83147464328 522.7287649734561 0 2568.686454682386 0 595.6107431649012 1515.438624206589 0 1649.54903758438 0 2125.307192979258 309.8915674383107 0 235.1527454457808 0 3288:0.4377 11320:0.3775 14341:0.3317 14517:0.9835 15596:0.298 16791:0.2073 16856:0.1753 16876:0.151 
0 202.9090498383512 0 0 83.45643760614887 0 0 0 0 0 0 0 0 0 0 0 0 0 3095:0.7295 11407:0.6291 12694:0.6011 13506:0.5802 16088:0.4658 16791:0.3454 16856:0.2922 16876:0.2517 
6392.704821646963 0 5496.248127618839 6699.953344849378 6038.864162851272 5196.941079144449 8969.369213419932 4557.713460446558 3092.959983711844 6805.352310019964 2461.99649260738 6831.554054784 691.7672386109302 11674.20131345964 6724.365172150518 5357.327983565177 4872.079699055927 5372.571323772495 6306:0.6341 15093:0.4844 16791:0.3189 16856:0.2697 16876:0.2323 
0 0 0 6544.492810779643 0 0 5945.312867253535 0 0 0 0 0 0 0 0 0 4374.179661400281 5737.837841984456 2268:0.3367 2677:0.3367 3342:0.3367 7583:0.317 11163:0.2904 11895:0.2834 12906:0.2748 13921:0.2618 14074:0.26 14443:0.2536 14489:0.2522 15993:0.2178 16652:0.1796 16884:0.067 
0 260.1818419756608 2381.33770437503 2948.776937213022 0 4335.290019608412 2096.231761999721 0 0 0 0 0 0 6077.379221683884 0 0 2449.68372436478 1909.030414045761 2845:0.3018 7965:0.2779 11163:0.2603 11895:0.254 14029:0.2331 14443:0.2274 14883:0.2202 15425:0.21 15992:0.1953 15993:0.1953 16277:0.1857 16610:0.1645 16652:0.161 16681:0.1586 16884:0.0601 
0 11174.07259153894 15954.9531169815 16639.97867445042 0 18136.81954326382 15920.62629778811 0 0 0 0 0 0 21320.42526644962 11598.3474059527 0 11793.24237348236 15375.00720665123 2394:0.2824 5566:0.2731 9883:0.2507 10269:0.2507 11895:0.2377 13921:0.2196 14029:0.2181 14074:0.2181 14443:0.2127 15367:0.198 16333:0.1713 16610:0.1539 16652:0.1507 16884:0.0562 
10636.39566046838 11354.34366774679 18069.5612755136 19340.80106309755 8415.232089812489 15204.90714183027 19881.19042561392 7369.848200734099 11503.40979623735 10698.88788016581 2856.217578803366 5690.810794947706 11044.19965623726 20979.66097797201 13241.65960895898 10729.33096538782 10546.0627489437 20256.39456790538 2288:0.2653 6292:0.2498 8013:0.2443 11367:0.2288 13227:0.2127 15377:0.186 16681:0.1394 16884:0.0528 
-0 14899.36369706093 43428.27008219384 50039.18529479401 9218.069334058562 28565.18886879344 4415.56192496228 48519.12391556003 33098.98286463704 0 0 0 15530.02588584502 0 34079.67764380141 0 10433.70967592736 21237.19691793049 9943:0.1274 13426:0.1141 13741:0.1124 14106:0.1101 15267:0.1015 16627:0.0777 16638:0.1546 16740:0.0716 16887:0.0528 16888:0.0502 
-5566.624353317258 0 0 0 1115.169934966981 22436.10435672276 0 0 0 10922.34290724735 0 0 1296.276256676393 13438.52867180732 7421.047895805832 14522.53691989598 0 20944.07549968446 14186:0.5167 16068:0.2155 16170:0.2119 16280:0.2067 16668:0.1784 16878:0.2098 
-5725.263523660438 1829.675229289421 0 0 7398.949823754289 0 10025.13426617049 5192.811923332673 1411.88197207326 5257.937804291907 9904.955489919495 9112.853350144136 0 14677.79184374131 1327.795662812252 0 9402.205375356687 0 9943:0.2045 10502:0.4029 11920:0.1939 14106:0.1768 15269:0.1629 16317:0.28 16622:0.2501 16740:0.1149 16868:0.0843 
-1290.515843597082 317.2752745467253 72088.57835683855 2055.907053925745 1558.871759205621 0 3280.188172081036 3924.166084931144 1364.936720134597 3279.633976906038 80.8139310820624 554.1667568067444 1288.734050983831 0 152.4597945589941 3685.357830603901 0 976.8627588895305 9291:0.1464 12377:0.1349 12593:0.1336 12635:0.1336 14547:0.1214 15805:0.1076 15820:0.2145 15961:0.1054 16031:0.7302 16212:0.1011 16440:0.0951 16463:0.0946 16502:0.0933 16569:0.0903 16664:0.086 16703:0.0841 
-19425.5543940014 0 0 0 0 0 0 0 0 27800.19055371229 18926.60256351445 22129.51558142442 0 44041.61598361871 0 0 0 0 7150:0.201 12696:0.1759 12972:0.1727 15473:0.148 15855:0.1408 16444:0.125 16695:0.1116 16751:0.1057 16825:0.0954 16881:0.0574 16888:0.0373 
-4160.586301789367 3673.854655823789 5155.781581309849 3764.975618085701 2429.048431722673 2117.27938892235 4145.700308900037 0 4267.837101480451 4863.717111594928 4928.19276119542 5503.778734036906 165.055530113591 0 3323.747507956707 4830.142335981663 2546.459830201374 1137.140375411098 5331:0.1728 5535:0.1728 8513:0.1645 8794:0.1645 9829:0.1586 10535:0.1562 10696:0.1562 12051:0.1504 13479:0.4262 13623:0.141 13859:0.1389 14157:0.2742 14462:0.1346 14746:0.1317 14947:0.1297 16212:0.1114 16627:0.0967 
-3973.391471722182 2582.742286779307 0 2141.594552694515 4239.472250749443 3668.938681788673 6821.408307477243 13407.18564436242 3060.61920006099 5626.406519577905 2311.219552398331 2809.186981635882 317.4683260555481 3876.697199694324 6320.862226925552 3068.628625361605 0 5392.664746635272 5532:0.3848 6100:0.3747 10912:0.174 16638:0.2144 16676:0.1048 16740:0.0993 16887:0.0366 16888:0.0348 
-0 0 2056.133177220642 0 0 0 0 0 0 0 0 0 0 0 0 0 0 0 5735:0.249 7776:0.2371 9268:0.2325 12819:0.2101 13215:0.2064 14672:0.1907 15517:0.1772 15869:0.1693 15961:0.1675 16287:0.1578 16371:0.1543 16430:0.1515 16440:0.151 16557:0.1444 16593:0.142 16643:0.1379 16747:0.1278 16748:0.1278 16864:0.097 
-56148.29265805029 51859.2302159547 53369.82846025355 68717.00491336301 44598.97389977444 68383.7933332044 71685.35847378604 84705.51678824662 64080.81376785405 66311.21966969494 46523.79582598658 56163.81314185759 43295.89129318775 81443.45759098801 62596.73958024988 55182.24309684371 36767.85237983402 62321.03158420395 12938:0.2977 14259:0.139 16130:0.1153 16444:0.1068 16454:0.1066 16825:0.0815 
-0 341.8810390644732 91932.43036803794 24329.34863253173 1291.380447456738 23305.54523099024 0 0 10938.23886953955 0 0 0 5227.668041599859 0 32234.96190504459 50703.18812886452 0 11462.64852592805 15884:0.261 16371:0.2385 16855:0.1608 16864:0.1499 16887:0.0732 16888:0.0696 
-0 0 215.8772772128181 0 0 0 0 0 0 0 0 0 0 0 0 0 0 0 6263:0.2355 12435:0.2082 12934:0.4082 13660:0.1974 14030:0.1932 15129:0.1791 15199:0.1783 15302:0.5283 15956:0.1627 16485:0.1447 16557:0.1403 16747:0.2484 16760:0.1229 16855:0.2021 16864:0.0942 
-0 0 0 0 0 0 0 0 0 0 0 0 0 8753.411961925571 2629.122829023095 0 0 0 12616:0.2404 15250:0.2072 15747:0.1954 16328:0.177 16660:0.1549 16855:0.2358 
-142893.3747877764 150000 150000 150000 150000 150000 150000 150000 150000 150000 123752.138386791 150000 150000 150000 150000 150000 150000 150000 15875:0.0944 16509:0.1645 16548:0.0807 16855:0.058 16887:0.0528 16888:0.0502 
-0 0 38983.97932671984 0 0 0 0 0 0 0 0 0 0 0 0 0 0 0 8338:0.1875 8626:0.1875 12507:0.1677 12651:0.1677 12938:0.1661 14096:0.1562 15461:0.1411 16682:0.107 16855:0.2468 
-0 0 0 0 0 0 0 0 0 0 0 0 0 0 0 0 330.2938306350883 0 9017:0.255 12872:0.2305 12917:0.2305 14457:0.6381 14609:0.2103 14858:0.207 15822:0.1868 15958:0.1837 16287:0.173 16325:0.1713 16485:0.1634 16502:0.1626 16509:0.1618 16751:0.1398 16864:0.1063 
-25029.98888194585 23135.01671346248 117378.6137199517 22702.38057404876 15993.80116516244 20296.2036797349 38485.11184680009 34094.92512127167 26754.00010161241 48680.46968801055 24996.2486802001 31341.43746823481 17197.27052672833 50403.0166703194 21193.71583590775 62211.61915798818 26988.51851578884 27372.56013179191 15730:0.1396 15932:0.1363 16240:0.1294 16325:0.1264 16371:0.1249 16373:0.2499 16417:0.1231 16802:0.0971 16805:0.0966 
-0 0 0 0 0 0 8140.966581527268 0 0 0 0 0 0 0 0 0 0 0 10064:0.2101 12972:0.1913 15600:0.1611 15844:0.1561 15875:0.1556 16748:0.1175 16778:0.1146 16855:0.1912 16858:0.0941 
-8165.510219480288 7518.574970112295 0 7622.947463111876 4368.886930648593 4564.758916847298 9861.584899892492 8049.185244964902 8050.985815115517 8389.042064176872 6687.42007691255 8477.226983532093 2975.171533764306 2524.536585367335 9824.784275947806 0 0 5559.326945732558 7828:0.1791 10138:0.1727 11742:0.1657 13093:0.1573 13974:0.1502 14384:0.1474 14552:0.1457 14944:0.1412 15362:0.1364 15517:0.1339 16204:0.1216 16855:0.0786 16864:0.0733 
-0 0 11966.77188116078 0 0 0 0 0 3281.087093893506 0 0 0 8473.389486152853 32129.50243413154 725.9500328362908 0 0 0 11263:0.3146 15345:0.2558 15744:0.2443 16212:0.2274 16502:0.21 16678:0.1919 16764:0.1787 
-7307.091855444614 22606.58553339503 5737.255084069106 35215.29297660231 19259.76184149102 16417.94959230149 14629.22121104034 74368.45183421379 34245.96586899418 19094.53822649967 9182.653551645015 13620.88894934615 21658.8273938823 20736.56740120401 19510.32681380318 18062.30749262522 88056.48004295213 32398.01883177678 14173:0.1493 16274:0.2394 16306:0.2374 16638:0.1048 16888:0.034 
-0 0 21381.21448668786 0 0 0 0 0 0 0 0 0 0 0 0 5661.238733469249 0 0 10792:0.2734 13019:0.5057 13250:0.2507 14106:0.2399 15480:0.2167 16327:0.1896 16682:0.1643 16731:0.1573 16864:0.1177 16887:0.0575 16888:0.0547 
-0 5755.736700315478 0 12688.44765874327 7064.592534027973 6473.215241286362 1455.6969164488 2448.938264187858 8269.781410469224 0 1357.637505469916 2909.080649849382 7747.99622792602 0 10008.59641517769 1538.642130199761 10471.44973319715 9697.455061648669 7404:0.1682 9194:0.3227 10792:0.1562 12827:0.1458 13019:0.289 13250:0.1432 14070:0.138 14106:0.1371 15183:0.1274 15250:0.1268 15480:0.1238 16327:0.1083 16353:0.1075 16541:0.1008 16682:0.0939 16887:0.0329 16888:0.0625 
-0 3322.845411878702 0 10731.88477753555 2883.599604831335 13024.36722216313 3347.871104963607 2171.372051100642 7566.477917294374 0 0 2207.120607705191 4458.248555151798 0 6699.728642229802 1250.305235799171 6876.179550725968 3215.428871638581 10792:0.319 12380:0.3036 12998:0.295 13209:0.2925 14106:0.2799 15480:0.2528 16327:0.2212 16668:0.1932 16887:0.0671 16888:0.0638 
-27503.30458383371 19768.34804264634 23058.67893461692 23497.18719933754 13994.71389006112 23457.70247505024 31316.21993388998 38185.5535109691 23490.54523030627 36847.75717116684 25382.00758509208 30007.00558477053 13217.17108284678 36827.63601405 19252.96114821952 28659.18551544847 29546.09185380236 31191.72381261359 7903:0.2015 11669:0.1864 12875:0.1786 14071:0.169 15904:0.1435 16274:0.1347 16508:0.1256 16638:0.1179 
-6204.076931510186 1791.592388360912 16693.70131031747 2510.828067668279 5594.821014033761 12188.77237438563 19350.24623578777 8567.182868474241 6753.199446900811 6906.166773251985 6905.995437393311 7812.666577636459 1804.938477127285 28803.25907948281 820.7660454425244 0 1086.093584906091 21796.56338653788 9456:0.1882 10850:0.1823 11028:0.1798 11865:0.1754 12341:0.1735 12973:0.1686 16627:0.2257 16695:0.1089 16788:0.0993 16820:0.0942 16858:0.0829 16881:0.056 
-0 0 0 2864.603401317046 0 3815.550519440246 0 0 0 0 0 0 269.1088269429128 0 0 0 432.2925433635423 0 9658:0.2081 9938:0.4091 13875:0.1791 14077:0.1779 14537:0.1725 16104:0.1464 16274:0.1417 16306:0.1406 16384:0.1376 16453:0.1346 16489:0.1333 16668:0.122 16887:0.0424 16888:0.0403 
-672.2546170634766 0 0 0 1982.061770227443 2524.51242190783 0 1369.196167477837 0 1688.594827849136 0 0 0 4791.288533769228 544.5629824351889 7584.584478205587 0 1626.33867132052 5380:0.1072 8613:0.102 10151:0.0984 10997:0.5734 11028:0.0956 12316:0.0922 12893:0.0904 13669:0.0874 14092:0.085 14984:0.2414 15674:0.0749 15934:0.0725 15973:0.0719 16132:0.1401 16187:0.0694 16280:0.068 16308:0.0676 16489:0.0641 16508:0.0636 16638:0.0597 16668:0.0587 16747:0.055 16825:0.0495 16868:0.0405 16878:0.069 16888:0.0194 
-0 496.1639320802856 0 756.4065611204643 0 0 0 0 266.8039799011142 0 0 0 949.5800081230241 0 0 0 0 0 5380:0.2352 8613:0.2239 10151:0.2159 10997:0.8388 14092:0.1866 15973:0.1577 16132:0.3075 16280:0.1493 16308:0.1484 16489:0.1407 16508:0.1396 16668:0.1288 16747:0.1207 16825:0.1087 16888:0.0425 
-2741.243432687289 8317.976954779853 0 13679.1754396693 4110.691068555305 6768.72201180379 15787.70818124116 14901.97578320092 13460.43659297929 8611.400310621506 3425.379964210316 8976.528106917343 4688.604372067555 8404.141163008657 4632.941530470173 5772.349899977488 5564.428215854796 13277.26658862269 10414:0.1823 11581:0.1775 14670:0.4632 16443:0.122 16453:0.2436 16685:0.1094 16881:0.056 
-11867.39134317194 12964.50070162229 58091.6518745768 17157.38987157038 8065.840474382956 17510.02597184386 22649.17939995302 20238.76130727697 18261.60537673368 16975.46493458622 14189.06763829166 16946.10293512464 9477.718236057781 46261.59435007885 10203.59706125339 40388.29001733456 13922.73375658297 11961.15406483852 6657:0.1832 10635:0.1701 11236:0.1678 13897:0.1513 13972:0.1502 15250:0.2762 16658:0.2071 16802:0.0906 16864:0.0733 
-0 0 0 0 0 0 0 0 0 0 0 0 0 0 0 0 35418.80771231231 0 13351:0.1671 13485:0.1658 14609:0.7762 15210:0.148 15329:0.1467 15411:0.1456 15747:0.1396 15917:0.1363 16128:0.1321 16141:0.1315 16215:0.1299 16336:0.1262 16387:0.1245 16475:0.2424 16485:0.1206 16587:0.1154 16639:0.1122 16864:0.157 
-0 0 7253.333098367312 0 0 0 0 0 0 0 0 0 0 0 0 0 867.3920351317098 0 5840:0.2228 11329:0.1987 11342:0.1987 13131:0.1863 13443:0.1832 13599:0.1818 14527:0.3451 14616:0.1716 14672:0.1707 15437:0.1603 15958:0.1498 16153:0.2899 16453:0.1346 16546:0.1298 16593:0.1271 16639:0.124 16751:0.1141 
-0 0 0 0 0 0 0 0 0 0 0 0 0 0 0 5636.040776189026 0 0 5603:0.1924 12873:0.1624 13252:0.319 13599:0.157 13621:0.157 14457:0.1499 14539:0.149 14707:0.1474 14758:0.1466 14971:0.1444 15096:0.1431 15318:0.1401 16031:0.256 16287:0.1219 16387:0.1188 16444:0.1165 16485:0.1151 16639:0.1071 16658:0.1059 16751:0.197 16764:0.0974 
-2816.662620980158 4669.759706147324 46909.75014009361 10781.25993356927 3103.570561022564 9798.355405267077 9616.27228688809 3210.626110267484 8256.859323833773 0 760.4572732706908 1078.251326676212 5610.32406458105 2727.361765074076 6597.694254101569 11414.54929050795 0 10401.69259263855 10799:0.1531 12743:0.1429 12916:0.1429 13790:0.1371 13797:0.1371 14268:0.1335 14642:0.1304 14656:0.1304 15055:0.1259 15520:0.1205 16068:0.1121 16308:0.1068 16439:0.1027 16463:0.1021 16569:0.0975 16660:0.093 16778:0.0848 16820:0.0791 16864:0.0659 
